tree
version=v3
num_class=1
num_tree_per_iteration=1
label_index=0
max_feature_idx=126
objective=binary sigmoid:1
feature_names=Column_0 Column_1 Column_2 Column_3 Column_4 Column_5 Column_6 Column_7 Column_8 Column_9 Column_10 Column_11 Column_12 Column_13 Column_14 Column_15 Column_16 Column_17 Column_18 Column_19 Column_20 Column_21 Column_22 Column_23 Column_24 Column_25 Column_26 Column_27 Column_28 Column_29 Column_30 Column_31 Column_32 Column_33 Column_34 Column_35 Column_36 Column_37 Column_38 Column_39 Column_40 Column_41 Column_42 Column_43 Column_44 Column_45 Column_46 Column_47 Column_48 Column_49 Column_50 Column_51 Column_52 Column_53 Column_54 Column_55 Column_56 Column_57 Column_58 Column_59 Column_60 Column_61 Column_62 Column_63 Column_64 Column_65 Column_66 Column_67 Column_68 Column_69 Column_70 Column_71 Column_72 Column_73 Column_74 Column_75 Column_76 Column_77 Column_78 Column_79 Column_80 Column_81 Column_82 Column_83 Column_84 Column_85 Column_86 Column_87 Column_88 Column_89 Column_90 Column_91 Column_92 Column_93 Column_94 Column_95 Column_96 Column_97 Column_98 Column_99 Column_100 Column_101 Column_102 Column_103 Column_104 Column_105 Column_106 Column_107 Column_108 Column_109 Column_110 Column_111 Column_112 Column_113 Column_114 Column_115 Column_116 Column_117 Column_118 Column_119 Column_120 Column_121 Column_122 Column_123 Column_124 Column_125 Column_126
feature_infos=[1:9] [0:77103] [0:120] [0:134] [20:50] [1:2139] [54:105192] [0:1] [0:1] [0:1] [0:1] [0:1] [0:1] [0:1] [0:1] [0:1] none [0:1] [0:1] [0:1] none [0:1] [0:1] [0:1] none [0:1] [0:1] [0:1] [0:1] [0:1] [0:1] [0:1] [0:1] [0:1] [0:1] [0:1] none [0:1] [0:1] [0:1] [0:1] [0:1] [0:1] [0:1] [0:1] [0:1] [0:1] [0:1] none [0:1] [0:1] [0:1] [0:1] [0:1] [0:1] [0:1] [0:1] none [1:1] none [0:1] [0:1] [0:1] [0:1] [0:1] [0:1] [0:1] [0:1] [0:1] [0:1] [0:1] [0:1] [0:1] [0:1] [0:1] [0:1] [0:1] [0:1] [0:1] [0:1] [0:1] [0:1] [0:1] [0:1] [0:1] [0:1] [0:1] [0:1] [0:1] [0:1] [0:1] [0:1] [0:1] [0:1] [0:1] [0:1] [0:1] [0:1] [0:1] [0:1] [0:1] [0:1] [0:1] [0:1] [0:1] [0:1] [0:1] [0:1] [0:1] [0:1] [0:1] [0:1] [0.02500000037252903:1] [0:1] [0:1] none none none none [0:1] [0:1] [0:1] [0:1] [0:1] [0:1] [0:632878] [0:612759]
tree_sizes=1183 1175 1171 1182 1172 1176 1177 1181 1179 1177 1182 1170 1174 1175 1182 1176 1180 1178 1176 1179 1177 1187 1178 1187 1181 1184 1179 1187 1175 1186 1182 1185 1178 1186 1174 1173 1181 1172 1173 1184 1172 1166 1177 1177 1186 1176 1174 1178 1175 1177 1187 1175 1177 1176 1186 1180 1184 1177 1169 1170 1169 1170 1173 1168 1177 1176 1182 1174 1180 1181 1170 1175 1175 1174 1168 1180 1164 1181 1179 1175 1181 1180 1177 1175 1180 1184 1183 1174 1179 1174 1175 1182 1178 1176 1177 1188 1175 1179 1171 1189 1174 1176 1197 1179 1174 1182 1188 1182 1174 1191 1181 1191 1185 1184 1176 1172 1188 1182 1177 1186 1181 1190 1192 1178 1180 1184 1182 1181 1193 1183 1175 1174 1183 1174 1180 1167 1177 1166 1186 1176 1177 1167 1190 1180 1190 1168 1173 1202 1189 1176 1169 1179 1191 1174 1188 1198 1176 1179 1174 1167 1183 1191 1180 1190 1165 1174 1184 1172 1191 1173 1197 1201 1198 1174 1206 1190 1165 1181 1197 1190 1185 1193 1203 1194 1194 1172 1202 1196 1166 1194 1183 1197 1174 1191 1194 1177 1190 1174 1191 1172 1182 1172 1198 1193 1174 1189 1174 1188 1198 1174 1191 1189 1184 1192 1184 1174 1184 1172 1186 1179 1191 1187 1170 1186 1185 1204 1177 1203 1190 1174 1180 1185 1192 1206 1190 1173 1180 1193 1187 1192 1178 1189 1196 1191 1195 1188 1199 1195 1192 1186 1200 1183 1201 1191 1182 1193 1192 1197 1199 1182 1177 1205 1184 1179 1207 1173 1188 1184 1199 1198 1198 1170 1174 1201 1207 1201 1170 1171 1197 1171 1190 1208 1168 1155 1205 1186 1159 1172 1201 1199 1189 1171 1166 1188 1198 1165 1205 1156 1184 1197 1197 1161 1171 1187 1155 1194 1190 1196 1199 1176 1172 1164 1201 1158 1205 1175 1180 1176 1163 1197 1188 1172 1170 1198 1178 1174 1199 1203 1169 1175 1193 1185 1167 1170 1160 1186 1174 1170 1161 1185 1170 1176 1169 1178 1189 1164 1159 1178 1177 1155 1183 1169 1163 1194 1170 1185 1171 1184 1189 1161 1202 1181 1198 1158 1160 1181 1161 1173 1175 1192 1195 1160 1185 1165 1192 1169 1181 1171 1155 1191 1163 1164 1180 1163 1182 1177 1185 1163 1173 1191 1201 1171 1194 1180 1173 1193 1156 1169 1173 1172 1179 1171 1167 1179 1177 1196 1184 1198 1174 1167 1173 1172 1176 1170 1185 1169 1178 1195 1168 1188 1170 1181 1164 1186 1170 1183 1167 1177 1172 1169 1195 1190 1181 1179 1169 1188 1166 1176 1192 1182 1157 1147 1191 1179 1191 1188 1176 1193 1202 1150 1184 1170 1185 1149 1184 1169 1191 1185 1181 1129 1181 1180 1185 1149 1185 1145 1150 1180 1184 1189 1151 1164 1170 1186 1181 1152 1147 1186 1185 1150 1183 1174 1182 1151 1167 1173 1154 1162 1175 1184 1181 1124 1204 1143 1190 1145 1149 1146 1174 1179 1129 1167 1146 1154 1177 1179 1197 1159 1171 1146 1123 1184 1150 1154 1141 1177 1126 1170 1201 1165 1137 1160 1159 1190 1163 1163 1160 1148 1176 1160 1154 1169 1159 1163 1143 1185 1163 1182 1157 1171 1156 1152 1174 1192 1175 1160 1158 1165 1173 1170 1200 1171 1134 1185 1175 1168 1164 1172 1165 1178 1186 1187 1156 1150 1178 1165 1157 1150 1141 1175 1170 1181 1149 1176 1162 1192 1172 1169 1132 1194 1176 1184 1153 1201 1137 1160 1181 1179 1166 1181 1176 1148 1166 1162 1136 1181 1154 1186 1175 1166 1155 1135 1182 1153 1170 1152 1182 1167 1170 1153 1175 1158 1127 1188 1152 1175 1163 1167 1136 1172 1187 1148 1150 1170 1182 1179 1163 1158 1152 1184 1164 1152 1169 1181 1161 1131 1178 1171 1153 1168 1152 1187 1160 1148 1156 1168 1166 1172 1186 1158 1162 1165 1161 1159 1161 1145 1128 1175 1154 1157 1161 1148 1175 1164 1161 1159 1165 1183 1158 1166 1157 1145 1167 1185 1168 1146 1167 1146 1148 1179 1171 1160 1170 1147 1150 1175 1138 1167 1185 1156 1163 1158 1169 1159 1153 1159 1160 1173 1174 1154 1148 1168 1159 1156 1160 1165 1183 1162 1184 1159 1149 1149 1149 1188 1161 1137 1168 1146 1167 1138 1161 1184 1144 1137 1170 1149 1169 1170 1149 1140 1164 1157 1185 1186 1156 1151 1189 1146 1167 1140 1175 1154 1145 1157 1179 1164 1153 1154 1156 1178 1150 1149 1149 1185 1186 1154 1155 1162 1168 1155 1134 1160 1156 1199 1163 1157 1181 1160 1184 1156 1160 1160 1186 1157 1159 1156 1158 1166 1153 1180 1179 1155 1144 1139 1153 1190 1169 1139 1154 1174 1149 1164 1175 1183 1155 1157 1154 1176 1146 1160 1182 1159 1186 1170 1150 1155 1126 1156 1163 1155 1170 1152 1157 1142 1154 1166 1157 1161 1164 1151 1189 1151 1152 1154 1171 1133 1162 1166 1161 1145 1173 1194 1121 1149 1157 1181 1158 1154 1182 1158 1149 1119 1159 1179 1154 1186 1148 1150 1160 1175 1177 1138 1147 1154 1169 1120 1158 1141 1159 1160 1149 1161 1152 1175 1147 1133 1152 1149 1169 1151 1164 1120 1160 1145 1170 1151 1192 1159 1140 1176 1148 1172 1161 1150 1139 1146 1182 1152 1155 1157 1117 1155 1162 1157 1199 1150 1154 1141 1169 1178 1155 1137 1160 1150 1161 1165 1157 1178 1137 1135 1165 1152 1190 1145 1122 1174 1159 1167 1159 1187 1162 1139 1191 1143 1166 1149 1161 1157 1123 1173 1150 1156 1185 1155 1152 1134 1166 1169 1154 1156 1144 1159 1191 1163 1192 1172 1161 1142 1148 1161 1154 1156 1178 1154 1155 1122 1169 1162 1149 1156 1140 1161 1184 1172 1142 1144 1178 1138 1175 1117 1141 1162 1145 1154 1171 1179 1140 1165 1140 1178 1154 1152 1156 1159 1153 1179 1163 1153 1154 1165 1137 1167 1177 1165 1152 1150 1165 1141 1156 1134

Tree=0
num_leaves=9
num_cat=0
split_feature=5 2 12 79 90 92 62 5
split_gain=765500 275135 257971 224742 168450 117199 182535 111874
threshold=238.50000000000003 51.000000000000007 1.0000000180025095e-35 1.0000000180025095e-35 1.0000000180025095e-35 1.0000000180025095e-35 1.0000000180025095e-35 70.500000000000014
decision_type=2 2 2 2 2 2 2 2
left_child=2 4 3 5 -2 7 -7 -1
right_child=1 -3 -4 -5 -6 6 -8 -9
leaf_value=-0.011302628647099765 -0.0044500848164230741 0.0095588346662285224 -0.013863049912060383 -0.010236885992459052 0.0038452368471287744 -0.015393664090798485 0.0060877644145220164 -0.00030957965373698315
leaf_weight=142469.94670414925 345734.41599261761 640565.71651303768 293856.40317600965 331965.16329795122 838474.49806237221 44833.938844561577 336058.97537779808 264338.00760728121
leaf_count=887104 1686032 1356040 1977948 1997320 2718760 315296 941212 1073476
internal_value=5.5808e-08 0.00427924 -0.00552412 -0.00333556 0.00142339 -0.000427103 0.00355924 -0.0041595
internal_weight=0 1.82477e+06 1.41352e+06 1.11967e+06 1.18421e+06 787701 380893 406808
internal_count=12953188 5760832 7192356 5214408 4404792 3217088 1256508 1960580
is_linear=0
shrinkage=1


Tree=1
num_leaves=9
num_cat=0
split_feature=5 12 12 79 2 52 62 92
split_gain=750502 263072 259162 231678 176384 159654 114079 169887
threshold=244.50000000000003 1.0000000180025095e-35 1.0000000180025095e-35 1.0000000180025095e-35 51.000000000000007 1.0000000180025095e-35 1.0000000180025095e-35 1.0000000180025095e-35
decision_type=2 2 2 2 2 2 2 2
left_child=1 3 4 6 -2 -4 -1 -8
right_child=2 -3 5 -5 -6 -7 7 -9
leaf_value=-0.015364127724266943 0.0030598557080083371 -0.013646193235736702 -0.016338641030822752 -0.010034408634468589 0.009919280197189408 0.0017786309110003093 -0.0034683717311146051 0.0060073869349590563
leaf_weight=47050.249163150787 971022.81919458508 300711.26004245877 89387.583713084459 343902.252066046 610602.877205953 106701.55884662271 432557.69147583842 336308.25662136078
leaf_count=331996 3293908 2019364 645956 2062116 1237804 390112 2028716 943216
internal_value=0 -0.00531125 0.0043636 -0.00315022 0.00570801 -0.00648016 -0.000248583 0.000676403
internal_weight=0 1.46053e+06 1.77771e+06 1.15982e+06 1.58163e+06 196089 815916 768866
internal_count=12953188 7385408 5567780 5366044 4531712 1036068 3303928 2971932
is_linear=0
shrinkage=0.01


Tree=2
num_leaves=9
num_cat=0
split_feature=5 2 12 79 90 92 62 5
split_gain=735944 264313 247803 215826 162951 112775 175351 109657
threshold=238.50000000000003 51.000000000000007 1.0000000180025095e-35 1.0000000180025095e-35 1.0000000180025095e-35 1.0000000180025095e-35 1.0000000180025095e-35 70.500000000000014
decision_type=2 2 2 2 2 2 2 2
left_child=2 4 3 5 -2 7 -7 -1
right_child=1 -3 -4 -5 -6 6 -8 -9
leaf_value=-0.011155170865991878 -0.0043801914810959394 0.0093708201454591796 -0.013590601636314382 -0.01003526633444283 0.0037787157907953283 -0.015089734881998898 0.0059669760858312593 -0.00027138767877600442
leaf_weight=142462.11489315331 345724.20577155054 640507.32283478975 293800.80959971249 331931.06898248196 838464.53955386579 44823.335234671831 336046.69507473707 264337.008931458
leaf_count=887104 1686032 1356040 1977948 1997320 2718760 315296 941212 1073476
internal_value=0 0.0041958 -0.00541677 -0.00327182 0.00139672 -0.000421645 0.00348888 -0.00408292
internal_weight=0 1.8247e+06 1.4134e+06 1.1196e+06 1.18419e+06 787669 380870 406799
internal_count=12953188 5760832 7192356 5214408 4404792 3217088 1256508 1960580
is_linear=0
shrinkage=0.01


Tree=3
num_leaves=9
num_cat=0
split_feature=5 12 12 79 2 52 62 92
split_gain=721435 252858 250383 222702 169464 156392 109716 163225
threshold=244.50000000000003 1.0000000180025095e-35 1.0000000180025095e-35 1.0000000180025095e-35 51.000000000000007 1.0000000180025095e-35 1.0000000180025095e-35 1.0000000180025095e-35
decision_type=2 2 2 2 2 2 2 2
left_child=1 3 4 6 -2 -4 -1 -8
right_child=2 -3 5 -5 -6 -7 7 -9
leaf_value=-0.015071680356507194 0.0030042616430230231 -0.013381166130898788 -0.016138818714137099 -0.0098396400045873463 0.0097281975138818269 0.0017932017104146992 -0.0034002719783398252 0.0058881497567109054
leaf_weight=47029.029066622257 971001.94355401397 300600.57622289658 89374.534629106522 343834.46140408516 610489.75136479735 106700.07307837903 432536.56489366293 336283.96927011013
leaf_count=331996 3293908 2019364 645956 2062116 1237804 390112 2028716 943216
internal_value=0 -0.00520792 0.00427835 -0.00308935 0.00559985 -0.00638055 -0.000244479 0.000662506
internal_weight=0 1.46028e+06 1.77757e+06 1.15968e+06 1.58149e+06 196075 815850 768821
internal_count=12953188 7385408 5567780 5366044 4531712 1036068 3303928 2971932
is_linear=0
shrinkage=0.01


Tree=4
num_leaves=9
num_cat=0
split_feature=5 12 12 79 2 52 5 90
split_gain=707624 254381 238174 207312 177145 160143 109838 108862
threshold=238.50000000000003 1.0000000180025095e-35 1.0000000180025095e-35 1.0000000180025095e-35 51.000000000000007 1.0000000180025095e-35 703.50000000000011 1.0000000180025095e-35
decision_type=2 2 2 2 2 2 2 2
left_child=2 4 3 7 6 -3 -2 -1
right_child=1 5 -4 -5 -6 -7 -8 -9
leaf_value=0.0029074679172321617 0.0011051488407356541 -0.016118328924091162 -0.0133283159568115 -0.009839497606843264 0.0095863233736642305 0.0017141139321583438 0.009320341906693716 -0.0045749884608429431
leaf_weight=437735.2326502353 787217.20179778337 92799.628509968519 293638.44845210016 331831.43408574164 629166.11098058522 110119.10743770003 205164.15845036507 349841.10951840878
leaf_count=1491644 2961912 673344 1977948 1997320 1282560 404140 438876 1725444
internal_value=0 0.00411439 -0.00531234 -0.00320962 0.00543529 -0.00644109 0.00280355 -0.000416236
internal_weight=0 1.82447e+06 1.41305e+06 1.11941e+06 1.62155e+06 202919 992381 787576
internal_count=12953188 5760832 7192356 5214408 4683348 1077484 3400788 3217088
is_linear=0
shrinkage=0.01


Tree=5
num_leaves=9
num_cat=0
split_feature=5 12 12 79 2 52 90 62
split_gain=693779 252960 232181 203374 172397 158184 110265 163654
threshold=236.50000000000003 1.0000000180025095e-35 1.0000000180025095e-35 1.0000000180025095e-35 51.000000000000007 1.0000000180025095e-35 1.0000000180025095e-35 1.0000000180025095e-35
decision_type=2 2 2 2 2 2 2 2
left_child=2 4 3 6 -2 -3 7 -1
right_child=1 5 -4 -5 -6 -7 -8 -9
leaf_value=-0.014886612879022307 0.0027805430331181097 -0.015990206153569827 -0.013263300036703929 -0.0098333042889544846 0.009457891596472737 0.0016040887635217511 -0.0046768967741791052 0.004987256787701279
leaf_weight=46341.655165269971 999851.94513809681 93704.529362499714 290308.8832025528 327685.7775247246 630458.99492838979 112388.48813404143 345070.09373366833 391301.92299674451
leaf_count=326652 3426172 680692 1959912 1978616 1289908 414828 1712084 1164324
internal_value=0 0.00404316 -0.00530081 -0.00321906 0.00536275 -0.00639553 -0.000449978 0.00288283
internal_weight=0 1.8364e+06 1.40071e+06 1.1104e+06 1.63031e+06 206093 782714 437644
internal_count=12953188 5811600 7141588 5181676 4716080 1095520 3203060 1490976
is_linear=0
shrinkage=0.01


Tree=6
num_leaves=9
num_cat=0
split_feature=5 12 12 79 2 52 60 62
split_gain=680263 238450 235799 210076 159680 147443 106052 105947
threshold=244.50000000000003 1.0000000180025095e-35 1.0000000180025095e-35 1.0000000180025095e-35 51.000000000000007 1.0000000180025095e-35 1.0000000180025095e-35 1.0000000180025095e-35
decision_type=2 2 2 2 2 2 2 2
left_child=1 3 4 7 6 -4 -2 -1
right_child=2 -3 5 -5 -6 -7 -8 -9
leaf_value=-0.01481514381853952 0.0034826054657018371 -0.013001072228023269 -0.015674823177843585 -0.009560384676180032 0.0094464256853714137 0.0017420772968367425 -0.016433222775122172 0.0006521991231204495
leaf_weight=46992.193344324827 943428.45614342391 300239.58019827306 89270.514912307262 343614.86674587429 610110.22533619404 106700.67186671495 27517.372010052204 768719.81464594603
leaf_count=331996 3094844 2019364 645956 2062116 1237804 390112 199064 2971932
internal_value=0 -0.0050586 0.00415488 -0.00300168 0.00543735 -0.00619182 0.00291818 -0.000238856
internal_weight=0 1.45957e+06 1.77703e+06 1.15933e+06 1.58106e+06 195971 970946 815712
internal_count=12953188 7385408 5567780 5366044 4531712 1036068 3293908 3303928
is_linear=0
shrinkage=0.01


Tree=7
num_leaves=9
num_cat=0
split_feature=5 12 12 79 2 52 90 62
split_gain=667123 243038 223405 195507 165854 152327 108553 157994
threshold=236.50000000000003 1.0000000180025095e-35 1.0000000180025095e-35 1.0000000180025095e-35 51.000000000000007 1.0000000180025095e-35 1.0000000180025095e-35 1.0000000180025095e-35
decision_type=2 2 2 2 2 2 2 2
left_child=2 4 3 6 -2 -3 7 -1
right_child=1 5 -4 -5 -6 -7 -8 -9
leaf_value=-0.014605367049012857 0.0027261018197265027 -0.015692799068539758 -0.013014607438358241 -0.0096449987344428886 0.0092766356184708111 0.0015781121562275678 -0.0046368583101794392 0.0049312045154522805
leaf_weight=46292.081710755825 999796.96695932746 93598.093619629741 290000.63944256306 327496.2356825918 630124.35844552517 112386.74996972084 345054.71809324622 391274.91509823501
leaf_count=326652 3426172 680692 1959912 1978616 1289908 414828 1712084 1164324
internal_value=0 0.00396509 -0.00519925 -0.00315762 0.00525853 -0.00626967 -0.000442904 0.00286435
internal_weight=0 1.83591e+06 1.40012e+06 1.11012e+06 1.62992e+06 205985 782622 437567
internal_count=12953188 5811600 7141588 5181676 4716080 1095520 3203060 1490976
is_linear=0
shrinkage=0.01


Tree=8
num_leaves=9
num_cat=0
split_feature=5 12 12 79 2 52 60 62
split_gain=654154 229467 226578 202103 153555 141878 103946 101932
threshold=244.50000000000003 1.0000000180025095e-35 1.0000000180025095e-35 1.0000000180025095e-35 51.000000000000007 1.0000000180025095e-35 1.0000000180025095e-35 1.0000000180025095e-35
decision_type=2 2 2 2 2 2 2 2
left_child=1 3 4 7 6 -4 -2 -1
right_child=2 -3 5 -5 -6 -7 -8 -9
leaf_value=-0.014541935519669502 0.0034207359992653825 -0.012758802981238637 -0.01538257372141413 -0.009380150914735071 0.0092650550876069195 0.0017088810802829307 -0.016296736674473355 0.00063856673381381963
leaf_weight=46932.924536988139 943369.04358114302 299878.01491121948 89147.346474856138 343395.27024066448 609727.91506356001 106700.31100523472 27516.385872900486 768665.82512514293
leaf_count=331996 3094844 2019364 645956 2062116 1237804 390112 199064 2971932
internal_value=0 -0.00496194 0.00407483 -0.00294458 0.00533195 -0.00607093 0.00286191 -0.000234982
internal_weight=0 1.45887e+06 1.77646e+06 1.15899e+06 1.58061e+06 195848 970885 815599
internal_count=12953188 7385408 5567780 5366044 4531712 1036068 3293908 3303928
is_linear=0
shrinkage=0.01


Tree=9
num_leaves=9
num_cat=0
split_feature=5 12 12 79 2 52 92 62
split_gain=641562 233529 215072 187986 159612 146775 106966 157495
threshold=236.50000000000003 1.0000000180025095e-35 1.0000000180025095e-35 1.0000000180025095e-35 51.000000000000007 1.0000000180025095e-35 1.0000000180025095e-35 1.0000000180025095e-35
decision_type=2 2 2 2 2 2 2 2
left_child=2 4 3 6 -2 -3 -1 -8
right_child=1 5 -4 -5 -6 -7 7 -9
leaf_value=-0.0040340700084271477 0.0026727723393873987 -0.015408114063386429 -0.012774622799806202 -0.00946190950849524 0.009100323457946766 0.0015525983204462718 -0.014275066536804317 0.0057091533862371237
leaf_weight=401884.03947806358 999722.03059111536 93448.627148702741 289601.57094529271 327250.70258569717 629689.6517380923 112384.10336011648 44681.216786175966 335937.25110882521
leaf_count=1946552 3426172 680692 1959912 1978616 1289908 414828 315296 941212
internal_value=0 0.00388887 -0.00510028 -0.00309759 0.00515671 -0.00614761 -0.000435958 0.00336318
internal_weight=0 1.83524e+06 1.39935e+06 1.10975e+06 1.62941e+06 205833 782503 380618
internal_count=12953188 5811600 7141588 5181676 4716080 1095520 3203060 1256508
is_linear=0
shrinkage=0.01


Tree=10
num_leaves=9
num_cat=0
split_feature=5 12 12 79 2 52 60 62
split_gain=629117 223737 214470 199879 142798 134281 101723 98979.2
threshold=246.50000000000003 1.0000000180025095e-35 1.0000000180025095e-35 1.0000000180025095e-35 51.000000000000007 1.0000000180025095e-35 1.0000000180025095e-35 1.0000000180025095e-35
decision_type=2 2 2 2 2 2 2 2
left_child=1 3 4 7 6 -4 -2 -1
right_child=2 -3 5 -5 -6 -7 -8 -9
leaf_value=-0.014283081309523835 0.003425977527695653 -0.012500839098915946 -0.015050230496841333 -0.0092252631112374091 0.0090740926294377681 0.0016927335405880692 -0.016140568175580353 0.00068251819662826728
leaf_weight=46856.380883306265 937855.23053608835 301866.90973891318 87727.725690364838 345886.59092797339 603140.34948793054 105515.43393263221 27344.609426498413 777549.90915611386
leaf_count=331996 3064784 2034060 635936 2079484 1227116 385436 197728 2996648
internal_value=0 -0.00482492 0.00403214 -0.00284498 0.00525694 -0.00590817 0.00287165 -0.000168074
internal_weight=0 1.47216e+06 1.76158e+06 1.17029e+06 1.56834e+06 193243 965200 824406
internal_count=12953188 7442188 5511000 5408128 4489628 1021372 3262512 3328644
is_linear=0
shrinkage=0.01


Tree=11
num_leaves=9
num_cat=0
split_feature=5 90 12 79 90 62 2 6
split_gain=617121 224838 207148 180762 105488 147511 93295 93105.8
threshold=236.50000000000003 1.0000000180025095e-35 1.0000000180025095e-35 1.0000000180025095e-35 1.0000000180025095e-35 1.0000000180025095e-35 61.000000000000007 1803.5000000000002
decision_type=2 2 2 2 2 2 2 2
left_child=2 -2 3 4 5 -1 -3 -6
right_child=1 6 -4 -5 7 -7 -8 -9
leaf_value=-0.014079229544397994 -0.002839501316804798 0.0044839132018930092 -0.0125430247431741 -0.0092835892388414415 -0.011208747584562747 0.0048263243187695237 0.011193930005785847 -0.00050273056185353164
leaf_weight=46138.77333624661 397699.76051399112 1185638.7999613732 289117.81435218453 326952.17856620252 130875.76002530754 391197.83061955869 251092.85932669044 214143.6482731849
leaf_count=326652 1832324 3576472 1959912 1978616 824312 1164324 402804 887772
internal_value=0 0.00381467 -0.0050041 -0.00303924 -0.000429677 0.0028318 0.0056566 -0.00456383
internal_weight=0 1.83443e+06 1.39843e+06 1.10931e+06 782356 437337 1.43673e+06 345019
internal_count=12953188 5811600 7141588 5181676 3203060 1490976 3979276 1712084
is_linear=0
shrinkage=0.01


Tree=12
num_leaves=9
num_cat=0
split_feature=5 12 12 79 2 52 5 62
split_gain=605165 215575 207514 192407 138669 131869 100132 95292.3
threshold=246.50000000000003 1.0000000180025095e-35 1.0000000180025095e-35 1.0000000180025095e-35 51.000000000000007 1.0000000180025095e-35 703.50000000000011 1.0000000180025095e-35
decision_type=2 2 2 2 2 2 2 2
left_child=1 3 4 7 6 -4 -2 -1
right_child=2 -3 5 -5 -6 -7 -8 -9
leaf_value=-0.01402966572349317 0.001136623286286737 -0.012276482758844534 -0.014893444427351629 -0.0090548245689206688 0.0089236205971728547 0.0017041960638338426 0.0090108542703429568 0.0006686028926747551
leaf_weight=46761.802693977952 760005.36572173238 301333.61699427664 87617.186131626368 345560.39735358953 602650.34723855555 105515.82049742341 205069.50756427646 777465.15608005226
leaf_count=331996 2823636 2034060 635936 2079484 1227116 385436 438876 2996648
internal_value=0 -0.00473417 0.00395512 -0.0027913 0.00516003 -0.00582553 0.00280982 -0.000165291
internal_weight=0 1.47112e+06 1.76086e+06 1.16979e+06 1.56773e+06 193133 965075 824227
internal_count=12953188 7442188 5511000 5408128 4489628 1021372 3262512 3328644
is_linear=0
shrinkage=0.01


Tree=13
num_leaves=9
num_cat=0
split_feature=5 12 12 79 2 52 5 92
split_gain=593649 217121 199606 173848 149408 139206 104357 104145
threshold=236.50000000000003 1.0000000180025095e-35 1.0000000180025095e-35 1.0000000180025095e-35 51.000000000000007 1.0000000180025095e-35 703.50000000000011 1.0000000180025095e-35
decision_type=2 2 2 2 2 2 2 2
left_child=2 4 3 7 6 -3 -2 -1
right_child=1 5 -4 -5 -6 -7 -8 -9
leaf_value=-0.0039735799094711829 0.00092050554663174894 -0.0149843068718736 -0.012319075157514179 -0.0091099952113910931 0.0087841584075832157 0.001548804516149942 0.0089227045983548865 0.0033270470527127479
leaf_weight=401828.34328860044 794472.84087319672 93132.671282783151 288554.31249952316 326604.23227965832 628629.78312151134 112377.22668384016 205024.68563513458 380347.52464810014
leaf_count=1946552 2987296 680692 1959912 1978616 1289908 414828 438876 1256508
internal_value=0 0.00374185 -0.00491031 -0.00298222 0.0049644 -0.00594365 0.00256198 -0.000423515
internal_weight=0 1.83364e+06 1.39733e+06 1.10878e+06 1.62813e+06 205510 999498 782176
internal_count=12953188 5811600 7141588 5181676 4716080 1095520 3426172 3203060
is_linear=0
shrinkage=0.01


Tree=14
num_leaves=9
num_cat=0
split_feature=5 12 12 79 2 52 60 62
split_gain=582088 207757 199438 185234 133461 127057 98818.4 93907.2
threshold=246.50000000000003 1.0000000180025095e-35 1.0000000180025095e-35 1.0000000180025095e-35 51.000000000000007 1.0000000180025095e-35 1.0000000180025095e-35 1.0000000180025095e-35
decision_type=2 2 2 2 2 2 2 2
left_child=1 3 4 7 6 -4 -2 -1
right_child=2 -3 5 -5 -6 -7 -8 -9
leaf_value=-0.013932283077231478 0.0033023009822706023 -0.01205809894351275 -0.014631420462828192 -0.0088883588138455229 0.0087558701182880797 0.0016716848322411257 -0.015985538171155014 0.00066491111257896949
leaf_weight=46720.36844907701 937615.01452516019 300717.24730349332 87399.252448350191 345185.75686301291 602014.64754658937 105514.54634326696 27337.068107962608 777400.23823800683
leaf_count=331996 3064784 2034060 635936 2079484 1227116 385436 197728 2996648
internal_value=0 -0.00464498 0.00387984 -0.00273851 0.00506102 -0.00571441 0.00275588 -0.000162621
internal_weight=0 1.47002e+06 1.75988e+06 1.16931e+06 1.56697e+06 192914 964952 824121
internal_count=12953188 7442188 5511000 5408128 4489628 1021372 3262512 3328644
is_linear=0
shrinkage=0.01


Tree=15
num_leaves=9
num_cat=0
split_feature=5 90 12 79 92 62 5 2
split_gain=571120 209643 192438 167237 102551 145105 102468 88489.3
threshold=236.50000000000003 1.0000000180025095e-35 1.0000000180025095e-35 1.0000000180025095e-35 1.0000000180025095e-35 1.0000000180025095e-35 70.500000000000014 61.000000000000007
decision_type=2 2 2 2 2 2 2 2
left_child=2 -2 3 4 6 -6 -1 -3
right_child=1 7 -4 -5 5 -7 -8 -9
leaf_value=-0.010757747953958665 -0.0027580329907418793 0.0043086211733442707 -0.012102329798268901 -0.0089409116663484185 -0.013672815689261217 0.0055524210124015651 -0.00019956253795261323 0.010849993948075768
leaf_weight=142353.31234875321 397258.80059608817 1184763.0581019372 287916.22365224361 326209.93196457624 44456.053456410766 335814.59252560139 259451.97898222506 250531.70388945937
leaf_count=887104 1832324 3576472 1959912 1978616 315296 941212 1059448 402804
internal_value=0 0.003671 -0.00481843 -0.00292618 -0.000417393 0.00330487 -0.00394016 0.00545042
internal_weight=0 1.83255e+06 1.3962e+06 1.10829e+06 782076 380271 401805 1.43529e+06
internal_count=12953188 5811600 7141588 5181676 3203060 1256508 1946552 3979276
is_linear=0
shrinkage=0.01


Tree=16
num_leaves=9
num_cat=0
split_feature=5 12 12 79 2 52 60 62
split_gain=560020 200344 192992 178374 129656 124831 96266.8 90502.1
threshold=246.50000000000003 1.0000000180025095e-35 1.0000000180025095e-35 1.0000000180025095e-35 51.000000000000007 1.0000000180025095e-35 1.0000000180025095e-35 1.0000000180025095e-35
decision_type=2 2 2 2 2 2 2 2
left_child=1 3 4 7 6 -4 -2 -1
right_child=2 -3 5 -5 -6 -7 -8 -9
leaf_value=-0.013695217261182615 0.0032359556102905984 -0.01184779112302238 -0.014484337323038965 -0.0087265939592965133 0.0086126144886056397 0.0016825407642414184 -0.015805698920271026 0.00065164179243838109
leaf_weight=46605.125510282815 937461.38962765038 300032.05915420502 87257.171172887087 344765.86266803741 601386.22910326719 105515.03112089634 27324.002461493015 777290.19141736627
leaf_count=331996 3064784 2034060 635936 2079484 1227116 385436 197728 2996648
internal_value=0 -0.00455854 0.0038062 -0.00268716 0.0049683 -0.0056353 0.00269667 -0.000159914
internal_weight=0 1.46869e+06 1.75894e+06 1.16866e+06 1.56617e+06 192772 964785 823895
internal_count=12953188 7442188 5511000 5408128 4489628 1021372 3262512 3328644
is_linear=0
shrinkage=0.01


Tree=17
num_leaves=9
num_cat=0
split_feature=5 12 12 79 2 52 5 90
split_gain=549492 201923 185588 160896 139982 132195 101721 101086
threshold=236.50000000000003 1.0000000180025095e-35 1.0000000180025095e-35 1.0000000180025095e-35 51.000000000000007 1.0000000180025095e-35 703.50000000000011 1.0000000180025095e-35
decision_type=2 2 2 2 2 2 2 2
left_child=2 4 3 7 6 -3 -2 -1
right_child=1 5 -4 -5 -6 -7 -8 -9
leaf_value=0.0027833248925073616 0.00083538331313083288 -0.014586884830778885 -0.011892355196880273 -0.0087761262608109843 0.0084830521178280976 0.0015441161655785733 0.0087380239792577384 -0.0044583683845663353
leaf_weight=436928.80959720165 794268.29310423136 92726.611747518182 287208.35882130265 325772.3276976943 627275.14940799773 112368.12643012404 204897.92636469007 344923.92760157585
leaf_count=1490976 2987296 680692 1959912 1978616 1289908 414828 438876 1712084
internal_value=0 0.00360137 -0.00472909 -0.00287164 0.00478045 -0.00574897 0.00245597 -0.000411437
internal_weight=0 1.83154e+06 1.39483e+06 1.10763e+06 1.62644e+06 205095 999166 781853
internal_count=12953188 5811600 7141588 5181676 4716080 1095520 3426172 3203060
is_linear=0
shrinkage=0.01


Tree=18
num_leaves=9
num_cat=0
split_feature=5 90 12 79 92 62 5 2
split_gain=538788 198662 182303 157851 99258.2 140284 100402 84976.6
threshold=236.50000000000003 1.0000000180025095e-35 1.0000000180025095e-35 1.0000000180025095e-35 1.0000000180025095e-35 1.0000000180025095e-35 70.500000000000014 61.000000000000007
decision_type=2 2 2 2 2 2 2 2
left_child=2 -2 3 4 6 -6 -1 -3
right_child=1 7 -4 -5 5 -7 -8 -9
leaf_value=-0.010623666941652588 -0.002694620621683296 0.0041809777008987121 -0.011789151541507626 -0.0086946936879309759 -0.013459613386381275 0.0054639940439936375 -0.00017081443366497349 0.010597153738565268
leaf_weight=142289.40548788011 396898.96731442958 1183997.0327614695 286827.29292137921 325536.38425251842 44349.186421841383 335726.45289498568 259438.13004130125 250003.16586476564
leaf_count=887104 1832324 3576472 1959912 1978616 315296 941212 1059448 402804
internal_value=0 0.00356661 -0.00468406 -0.00284367 -0.000407349 0.00325589 -0.00387315 0.00529957
internal_weight=0 1.8309e+06 1.39417e+06 1.10734e+06 781803 380076 401728 1.434e+06
internal_count=12953188 5811600 7141588 5181676 3203060 1256508 1946552 3979276
is_linear=0
shrinkage=0.01


Tree=19
num_leaves=9
num_cat=0
split_feature=5 12 12 79 2 52 5 62
split_gain=528684 189824 183104 168673 123610 120450 93702.7 87595.4
threshold=246.50000000000003 1.0000000180025095e-35 1.0000000180025095e-35 1.0000000180025095e-35 51.000000000000007 1.0000000180025095e-35 703.50000000000011 1.0000000180025095e-35
decision_type=2 2 2 2 2 2 2 2
left_child=1 3 4 7 6 -4 -2 -1
right_child=2 -3 5 -5 -6 -7 -8 -9
leaf_value=-0.013489782583119865 0.00099589242317200369 -0.011544234948380248 -0.014218108447847329 -0.0084931956350571512 0.0083941236149488816 0.0016772241677096449 0.0086174502046089015 0.00064145199837432193
leaf_weight=46489.539582565427 759713.48379695415 298873.64225980639 86963.421946704388 344058.12385551631 600286.46281885356 105514.79980288446 204795.88384698331 777088.39918065071
leaf_count=331996 2823636 2034060 635936 2079484 1227116 385436 438876 2996648
internal_value=0 -0.00443304 0.00369937 -0.00261282 0.00483149 -0.00550443 0.00261419 -0.000156232
internal_weight=0 1.46651e+06 1.75727e+06 1.16764e+06 1.5648e+06 192478 964509 823578
internal_count=12953188 7442188 5511000 5408128 4489628 1021372 3262512 3328644
is_linear=0
shrinkage=0.01


Tree=20
num_leaves=9
num_cat=0
split_feature=5 90 12 79 92 62 5 2
split_gain=518440 191683 175914 151901 97750.5 135661 98457.5 82546.7
threshold=236.50000000000003 1.0000000180025095e-35 1.0000000180025095e-35 1.0000000180025095e-35 1.0000000180025095e-35 1.0000000180025095e-35 70.500000000000014 61.000000000000007
decision_type=2 2 2 2 2 2 2 2
left_child=2 -2 3 4 6 -6 -1 -3
right_child=1 7 -4 -5 5 -7 -8 -9
leaf_value=-0.010527322050680694 -0.0026525077722978829 0.0040999360941951692 -0.011588630944142274 -0.0085359915789461321 -0.013229902704378172 0.0054040330472018274 -0.00017495731662420269 0.010428254931152124
leaf_weight=142235.96537649632 396699.58790375292 1183458.5636854321 286023.112997666 325038.80572640896 44217.146600812674 335658.86666256189 259438.40960741043 249592.39291653037
leaf_count=887104 1832324 3576472 1959912 1978616 315296 941212 1059448 402804
internal_value=0 0.0034992 -0.00459782 -0.00279088 -0.00040155 0.00323506 -0.00384081 0.00520213
internal_weight=0 1.82975e+06 1.39261e+06 1.10659e+06 781550 379876 401674 1.43305e+06
internal_count=12953188 5811600 7141588 5181676 3203060 1256508 1946552 3979276
is_linear=0
shrinkage=0.01


Tree=21
num_leaves=9
num_cat=0
split_feature=5 12 12 79 62 52 2 62
split_gain=508737 183214 177215 162492 121100 118390 92814.6 84469.2
threshold=246.50000000000003 1.0000000180025095e-35 1.0000000180025095e-35 1.0000000180025095e-35 1.0000000180025095e-35 1.0000000180025095e-35 51.000000000000007 1.0000000180025095e-35
decision_type=2 2 2 2 2 2 2 2
left_child=1 3 4 7 -2 -4 -6 -1
right_child=2 -3 5 -5 6 -7 -8 -9
leaf_value=-0.013268142156144747 -0.011696422691220926 -0.011349300216237375 -0.014080359959652764 -0.0083412038499110861 0.0032228627216676596 0.0016869700230577123 0.0082798437888295748 0.00062870553559339984
leaf_weight=46347.855942346156 43558.121265158057 298025.63430015743 86791.728867560625 343537.49756947905 921474.85078278184 105515.2149604857 598778.55750156194 776946.75038121641
leaf_count=331996 277888 2034060 635936 2079484 2988632 385436 1223108 2996648
internal_value=0 -0.00435153 0.00362962 -0.0025642 0.00474361 -0.00542912 0.00521464 -0.000153626
internal_weight=0 1.46486e+06 1.75612e+06 1.16683e+06 1.56381e+06 192307 1.52025e+06 823295
internal_count=12953188 7442188 5511000 5408128 4489628 1021372 4211740 3328644
is_linear=0
shrinkage=0.01


Tree=22
num_leaves=9
num_cat=0
split_feature=5 12 12 79 2 52 5 90
split_gain=498896 185425 169807 146196 129999 125782 97318.8 96373.2
threshold=236.50000000000003 1.0000000180025095e-35 1.0000000180025095e-35 1.0000000180025095e-35 51.000000000000007 1.0000000180025095e-35 703.50000000000011 1.0000000180025095e-35
decision_type=2 2 2 2 2 2 2 2
left_child=2 4 3 7 6 -3 -2 -1
right_child=1 5 -4 -5 -6 -7 -8 -9
leaf_value=0.0027256719386447061 0.00073981809497028212 -0.014194570934000823 -0.011393964300299922 -0.008381127158041065 0.008139088454733932 0.0015646573296922686 0.0084735620105225312 -0.0043475791884101693
leaf_weight=436486.17861828953 794002.75489206612 92211.761698015034 285160.28537070751 324504.71757244319 625293.16345585138 112357.36351345479 204648.6927651763 344786.51097708941
leaf_count=1490976 2987296 680692 1959912 1978616 1289908 414828 438876 1712084
internal_value=0 0.00343324 -0.00451357 -0.00273923 0.00456348 -0.00553899 0.00232466 -0.000395852
internal_weight=0 1.82851e+06 1.39094e+06 1.10578e+06 1.62394e+06 204569 998651 781273
internal_count=12953188 5811600 7141588 5181676 4716080 1095520 3426172 3203060
is_linear=0
shrinkage=0.01


Tree=23
num_leaves=9
num_cat=0
split_feature=5 12 12 79 62 52 2 62
split_gain=489498 176865 170372 156548 118395 114228 89234.3 83252.5
threshold=246.50000000000003 1.0000000180025095e-35 1.0000000180025095e-35 1.0000000180025095e-35 1.0000000180025095e-35 1.0000000180025095e-35 51.000000000000007 1.0000000180025095e-35
decision_type=2 2 2 2 2 2 2 2
left_child=1 3 4 7 -2 -4 -6 -1
right_child=2 -3 5 -5 6 -7 -8 -9
leaf_value=-0.01317984481373808 -0.011603577168257136 -0.011158808043131404 -0.013848890192147616 -0.0081923587350861502 0.0031673550533154434 0.0016544792771888924 0.0081283887587029341 0.00062518052110284092
leaf_weight=46286.861625395715 43547.189561203122 297113.71196828038 86473.551700800657 342981.27692703158 921272.58522957563 105513.63452297449 597849.76780907065 776855.24750621617
leaf_count=331996 277888 2034060 635936 2079484 2988632 385436 1223108 2996648
internal_value=0 -0.00427111 0.00356153 -0.0025162 0.00465373 -0.00532844 0.00511977 -0.000151103
internal_weight=0 1.46324e+06 1.75466e+06 1.16612e+06 1.56267e+06 191987 1.51912e+06 823142
internal_count=12953188 7442188 5511000 5408128 4489628 1021372 4211740 3328644
is_linear=0
shrinkage=0.01


Tree=24
num_leaves=9
num_cat=0
split_feature=5 12 12 79 2 52 5 92
split_gain=480116 178267 163986 140735 125377 121571 95337.6 95043.3
threshold=236.50000000000003 1.0000000180025095e-35 1.0000000180025095e-35 1.0000000180025095e-35 51.000000000000007 1.0000000180025095e-35 703.50000000000011 1.0000000180025095e-35
decision_type=2 2 2 2 2 2 2 2
left_child=2 4 3 7 6 -3 -2 -1
right_child=1 5 -4 -5 -6 -7 -8 -9
leaf_value=-0.0037813429293567851 0.00071079258333777372 -0.013969175023722236 -0.011204840134687253 -0.0082299429393012068 0.0079923372271332692 0.0015403556136469267 0.0083673613231195695 0.0031977901116337372
leaf_weight=401577.46021525562 793898.44925419986 91862.611110642552 284242.95628966391 323936.66599491239 624321.49964166433 112350.98232237995 204524.66757333279 379553.94035646319
leaf_count=1946552 2987296 680692 1959912 1978616 1289908 414828 438876 1256508
internal_value=0 0.00336912 -0.00443072 -0.00268829 0.00447724 -0.00543639 0.00227922 -0.000390163
internal_weight=0 1.82696e+06 1.38931e+06 1.10507e+06 1.62274e+06 204214 998423 781131
internal_count=12953188 5811600 7141588 5181676 4716080 1095520 3426172 3203060
is_linear=0
shrinkage=0.01


Tree=25
num_leaves=9
num_cat=0
split_feature=5 12 12 79 62 52 2 62
split_gain=471015 170789 163804 150843 115758 110254 85810.5 82086
threshold=246.50000000000003 1.0000000180025095e-35 1.0000000180025095e-35 1.0000000180025095e-35 1.0000000180025095e-35 1.0000000180025095e-35 51.000000000000007 1.0000000180025095e-35
decision_type=2 2 2 2 2 2 2 2
left_child=1 3 4 7 -2 -4 -6 -1
right_child=2 -3 5 -5 6 -7 -8 -9
leaf_value=-0.013094741649731123 -0.011511761400831671 -0.010973630960077235 -0.013625597060865507 -0.0080469937813758136 0.0031129049054709414 0.0016225633090901804 0.0079805012937216799 0.00062183179587123273
leaf_weight=46225.654565930367 43534.169071346521 296147.61297374219 86128.677021786571 342391.8522561118 921055.16704031825 105511.55084992945 596861.75953786075 776757.84326622635
leaf_count=331996 277888 2034060 635936 2079484 2988632 385436 1223108 2996648
internal_value=0 -0.00419243 0.00349491 -0.00246918 0.00456579 -0.0052304 0.0050269 -0.000148606
internal_weight=0 1.46152e+06 1.75309e+06 1.16538e+06 1.56145e+06 191640 1.51792e+06 822983
internal_count=12953188 7442188 5511000 5408128 4489628 1021372 4211740 3328644
is_linear=0
shrinkage=0.01


Tree=26
num_leaves=9
num_cat=0
split_feature=5 90 12 79 90 62 6 2
split_gain=462073 171882 158414 135496 93622.8 123561 86290.1 77019.2
threshold=236.50000000000003 1.0000000180025095e-35 1.0000000180025095e-35 1.0000000180025095e-35 1.0000000180025095e-35 1.0000000180025095e-35 1803.5000000000002 61.000000000000007
decision_type=2 2 2 2 2 2 2 2
left_child=2 -2 3 4 5 -1 -6 -3
right_child=1 7 -4 -5 6 -7 -8 -9
leaf_value=-0.012907655758111281 -0.0025271201632488761 0.0038565859731364534 -0.011020959411943946 -0.0080822821457750132 -0.010685163707913918 0.0045085919711655223 -0.00037174996017429982 0.0099835910364395944
leaf_weight=45475.804107196629 395619.98008026928 1181397.7009852231 283275.00271788239 323337.04450897127 130617.45036643744 390790.02589501441 214101.62174390256 248282.06153537333
leaf_count=326652 1832324 3576472 1959912 1978616 824312 1164324 887772 402804
internal_value=0 0.00330638 -0.00434968 -0.00263839 -0.000384558 0.00269314 -0.0042796 0.00492062
internal_weight=0 1.8253e+06 1.3876e+06 1.10432e+06 780985 436266 344719 1.42968e+06
internal_count=12953188 5811600 7141588 5181676 3203060 1490976 1712084 3979276
is_linear=0
shrinkage=0.01


Tree=27
num_leaves=9
num_cat=0
split_feature=5 12 12 79 62 52 2 62
split_gain=453325 164994 158559 145375 112601 108432 83443.7 79152.5
threshold=246.50000000000003 1.0000000180025095e-35 1.0000000180025095e-35 1.0000000180025095e-35 1.0000000180025095e-35 1.0000000180025095e-35 51.000000000000007 1.0000000180025095e-35
decision_type=2 2 2 2 2 2 2 2
left_child=1 3 4 7 -2 -4 -6 -1
right_child=2 -3 5 -5 6 -7 -8 -9
leaf_value=-0.012882889519688667 -0.011376844406068136 -0.010794521156989857 -0.013500225399600291 -0.0079054305719046918 0.0030514545897808777 0.0016315992642580589 0.0078539723349871863 0.00060930441090076195
leaf_weight=46059.838641621172 43515.231400758028 295138.76395212114 85917.3893455863 341771.67279540747 920813.23962597549 105512.19175510108 595932.17080936581 776604.11627667397
leaf_count=331996 277888 2034060 635936 2079484 2988632 385436 1223108 2996648
internal_value=0 -0.00411622 0.00342951 -0.00242353 0.00448335 -0.00515986 0.00493837 -0.000146105
internal_weight=0 1.45957e+06 1.75169e+06 1.16444e+06 1.56026e+06 191430 1.51675e+06 822664
internal_count=12953188 7442188 5511000 5408128 4489628 1021372 4211740 3328644
is_linear=0
shrinkage=0.01


Tree=28
num_leaves=9
num_cat=0
split_feature=5 12 12 79 2 52 5 92
split_gain=444736 165901 153059 130457 117707 115778 93144.3 92515.6
threshold=236.50000000000003 1.0000000180025095e-35 1.0000000180025095e-35 1.0000000180025095e-35 51.000000000000007 1.0000000180025095e-35 703.50000000000011 1.0000000180025095e-35
decision_type=2 2 2 2 2 2 2 2
left_child=2 4 3 7 6 -3 -2 -1
right_child=1 5 -4 -5 -6 -7 -8 -9
leaf_value=-0.0037247956064419565 0.00063494897106460241 -0.013630421156978743 -0.010842035272823243 -0.0079380000520186053 0.0077267017560031575 0.0015330864349163663 0.008206481879659111 0.0031629871536040036
leaf_weight=401470.06244340539 793594.66433256865 91258.025438226759 282260.09687969089 322708.0948253721 622327.64241762459 112337.37000256777 204303.5744201839 379203.82257726789
leaf_count=1946552 2987296 680692 1959912 1978616 1289908 414828 438876 1256508
internal_value=0 0.0032445 -0.00427088 -0.00258989 0.00431362 -0.00526369 0.0021851 -0.00037913
internal_weight=0 1.82382e+06 1.38564e+06 1.10338e+06 1.62023e+06 203595 997898 780674
internal_count=12953188 5811600 7141588 5181676 4716080 1095520 3426172 3203060
is_linear=0
shrinkage=0.01


Tree=29
num_leaves=9
num_cat=0
split_feature=5 12 12 79 62 52 2 62
split_gain=436255 159417 152465 140112 110105 104717 81121.9 78058.6
threshold=246.50000000000003 1.0000000180025095e-35 1.0000000180025095e-35 1.0000000180025095e-35 1.0000000180025095e-35 1.0000000180025095e-35 61.000000000000007 1.0000000180025095e-35
decision_type=2 2 2 2 2 2 2 2
left_child=1 3 4 7 -2 -4 -6 -1
right_child=2 -3 5 -5 6 -7 -8 -9
leaf_value=-0.012801870731944926 -0.011287557056883633 -0.010619108141428069 -0.013288801396043886 -0.0077665911446140583 0.0038192217325002742 0.0015999898295180541 0.010046323141787491 0.00060608648334130658
leaf_weight=45992.379872582853 43497.449632644653 294076.34295580536 85534.085970774293 341122.86033476889 1264749.9478315562 105509.74321785569 250664.43200633675 776497.4688802436
leaf_count=331996 277888 2034060 635936 2079484 3818288 385436 393452 2996648
internal_value=0 -0.00404089 0.00336569 -0.00237839 0.00439899 -0.00506602 0.00484925 -0.000143666
internal_weight=0 1.45769e+06 1.74996e+06 1.16361e+06 1.55891e+06 191044 1.51541e+06 822490
internal_count=12953188 7442188 5511000 5408128 4489628 1021372 4211740 3328644
is_linear=0
shrinkage=0.01


Tree=30
num_leaves=9
num_cat=0
split_feature=5 90 12 79 92 62 5 2
split_gain=428067 159675 147943 125630 91090.2 121729 94822.9 72888.9
threshold=236.50000000000003 1.0000000180025095e-35 1.0000000180025095e-35 1.0000000180025095e-35 1.0000000180025095e-35 1.0000000180025095e-35 70.500000000000014 61.000000000000007
decision_type=2 2 2 2 2 2 2 2
left_child=2 -2 3 4 6 -6 -1 -3
right_child=1 7 -4 -5 5 -7 -8 -9
leaf_value=-0.010261347266962602 -0.0024437948097350733 0.0037070672713030821 -0.010667819324615127 -0.0077969627844657755 -0.012552747198244967 0.0051878087949522164 -9.6992713066288466e-05 0.0096790082500305703
leaf_weight=142038.96639398485 394854.35513796657 1179996.6553174704 281201.81281335652 322052.05865486711 43719.697678998113 335362.25077468157 259392.57571807504 247189.51217309386
leaf_count=887104 1832324 3576472 1959912 1978616 315296 941212 1059448 402804
internal_value=0 0.00318431 -0.00419327 -0.00254199 -0.000373699 0.00314178 -0.00369346 0.00474141
internal_weight=0 1.82204e+06 1.38377e+06 1.10257e+06 780513 379082 401432 1.42719e+06
internal_count=12953188 5811600 7141588 5181676 3203060 1256508 1946552 3979276
is_linear=0
shrinkage=0.01


Tree=31
num_leaves=9
num_cat=0
split_feature=5 12 12 79 62 52 2 126
split_gain=419912 154086 147595 135064 107122 103018 78751.6 75687.3
threshold=246.50000000000003 1.0000000180025095e-35 1.0000000180025095e-35 1.0000000180025095e-35 1.0000000180025095e-35 1.0000000180025095e-35 51.000000000000007 11284.500000000002
decision_type=2 2 2 2 2 2 2 2
left_child=1 3 4 7 -2 -4 -6 -1
right_child=2 -3 5 -5 6 -7 -8 -9
leaf_value=-0.0018931069966900138 -0.011157271106848167 -0.010449209940371271 -0.013170140871235239 -0.0076313012281035621 0.0029320459021525925 0.001608417574522342 0.0076029481470961105 0.0051138469384211698
leaf_weight=616582.38800153881 43472.058158531785 292979.04292591661 85302.162314191461 340447.74282677472 920268.79752019048 105510.44382873178 593909.35255094618 205548.51861129701
leaf_count=2709472 277888 2034060 635936 2079484 2988632 385436 1223108 619172
internal_value=0 -0.00396794 0.00330288 -0.00233461 0.00431978 -0.00499829 0.00476412 -0.000141234
internal_weight=0 1.45556e+06 1.74846e+06 1.16258e+06 1.55765e+06 190813 1.51418e+06 822131
internal_count=12953188 7442188 5511000 5408128 4489628 1021372 4211740 3328644
is_linear=0
shrinkage=0.01


Tree=32
num_leaves=9
num_cat=0
split_feature=5 12 12 79 2 52 5 90
split_gain=412007 154417 143033 120996 111327 110360 91020.6 89444.9
threshold=236.50000000000003 1.0000000180025095e-35 1.0000000180025095e-35 1.0000000180025095e-35 51.000000000000007 1.0000000180025095e-35 703.50000000000011 1.0000000180025095e-35
decision_type=2 2 2 2 2 2 2 2
left_child=2 4 3 7 6 -3 -2 -1
right_child=1 5 -4 -5 -6 -7 -8 -9
leaf_value=0.0026425430196997069 0.00055524313406188125 -0.013309742892479343 -0.010498063618169099 -0.0076590406028023842 0.0074830649436084633 0.0015250546666857824 0.0080440844705076918 -0.0041757232477810284
leaf_weight=435727.1914922744 793232.62862706184 90593.888762354851 280103.43116033077 321370.95020190626 620233.8288487196 112322.21625205874 204044.98229183257 344535.0077932179
leaf_count=1490976 2987296 680692 1959912 1978616 1289908 414828 438876 1712084
internal_value=0 0.00312485 -0.00411742 -0.00249507 0.00415641 -0.00509809 0.00208747 -0.000368152
internal_weight=0 1.82043e+06 1.38174e+06 1.10163e+06 1.61751e+06 202916 997278 780262
internal_count=12953188 5811600 7141588 5181676 4716080 1095520 3426172 3203060
is_linear=0
shrinkage=0.01


Tree=33
num_leaves=9
num_cat=0
split_feature=5 12 12 79 62 52 2 62
split_gain=404122 148961 141936 130208 104758 99537.3 76905.5 75605.8
threshold=246.50000000000003 1.0000000180025095e-35 1.0000000180025095e-35 1.0000000180025095e-35 1.0000000180025095e-35 1.0000000180025095e-35 61.000000000000007 1.0000000180025095e-35
decision_type=2 2 2 2 2 2 2 2
left_child=1 3 4 7 -2 -4 -6 -1
right_child=2 -3 5 -5 6 -7 -8 -9
leaf_value=-0.012619802133393173 -0.011070310111313025 -0.010282587937919615 -0.012969458182573841 -0.0074984838035831768 0.0036765159418533813 0.0015771243208613636 0.0097522119886186334 0.00059807918357653923
leaf_weight=45829.494050450623 43449.745352447033 291834.35192480683 84884.674605742097 339748.09101649374 1263259.7271322906 105507.6420326978 249480.9634873718 776208.72316759825
leaf_count=331996 277888 2034060 635936 2079484 3818288 385436 393452 2996648
internal_value=0 -0.00389547 0.00324169 -0.00229106 0.0042388 -0.00490834 0.00467852 -0.000138832
internal_weight=0 1.45362e+06 1.74658e+06 1.16179e+06 1.55619e+06 190392 1.51274e+06 822038
internal_count=12953188 7442188 5511000 5408128 4489628 1021372 4211740 3328644
is_linear=0
shrinkage=0.01


Tree=34
num_leaves=9
num_cat=0
split_feature=5 15 12 92 62 6 2 6
split_gain=396827 162410 129331 129383 157588 136072 118095 109984
threshold=215.50000000000003 1.0000000180025095e-35 1.0000000180025095e-35 1.0000000180025095e-35 1.0000000180025095e-35 1759.5000000000002 49.000000000000007 12056.000000000002
decision_type=2 2 2 2 2 2 2 2
left_child=2 -2 3 5 -5 -1 7 -3
right_child=1 6 -4 4 -6 -7 -8 -9
leaf_value=-0.01133396577426019 -0.0050379173095281369 -0.00099181041304065862 -0.010524155686765568 -0.013611295885243915 0.0041057611122482943 -0.0017555744592168171 0.0071475984884404146 0.0058432393229478075
leaf_weight=246591.09229099751 226275.48161327839 586068.11798175424 262818.61814451963 58357.977201700211 359322.25209400803 372143.60110152513 693167.50719872117 393482.20688962936
leaf_count=1644616 1231792 2412148 1856372 434868 1102868 1734796 1500996 1034732
internal_value=0 0.00291337 -0.00425879 -0.00266999 0.00163035 -0.00557296 0.00398897 0.00175381
internal_weight=0 1.89899e+06 1.29923e+06 1.03641e+06 417680 618735 1.67272e+06 979550
internal_count=12953188 6179668 6773520 4917148 1537736 3379412 4947876 3446880
is_linear=0
shrinkage=0.01


Tree=35
num_leaves=9
num_cat=0
split_feature=5 15 12 92 62 6 2 6
split_gain=389197 159251 127215 126877 154699 133621 115943 107839
threshold=215.50000000000003 1.0000000180025095e-35 1.0000000180025095e-35 1.0000000180025095e-35 1.0000000180025095e-35 1759.5000000000002 49.000000000000007 12056.000000000002
decision_type=2 2 2 2 2 2 2 2
left_child=2 -2 3 5 -5 -1 7 -3
right_child=1 6 -4 4 -6 -7 -8 -9
leaf_value=-0.011233435831388366 -0.0049898675540845615 -0.00098186951561513545 -0.010441302970435799 -0.013505901920396536 0.0040653087841761122 -0.0017382337154798928 0.0070824773728888147 0.0057868862338510312
leaf_weight=246311.29416063428 226170.38161979616 586081.63641862571 262257.88188834488 58225.902696833014 359269.05100979656 372097.91502398998 692548.68950783461 393341.54476945102
leaf_count=1644616 1231792 2412148 1856372 434868 1102868 1734796 1500996 1034732
internal_value=0 0.00288554 -0.00421972 -0.00264462 0.00161474 -0.00552016 0.00395086 0.0017365
internal_weight=0 1.89814e+06 1.29816e+06 1.0359e+06 417495 618409 1.67197e+06 979423
internal_count=12953188 6179668 6773520 4917148 1537736 3379412 4947876 3446880
is_linear=0
shrinkage=0.01


Tree=36
num_leaves=9
num_cat=0
split_feature=5 12 12 79 62 52 2 126
split_gain=381852 141671 133809 125481 102064 98103.9 74140.3 74043
threshold=246.50000000000003 1.0000000180025095e-35 1.0000000180025095e-35 1.0000000180025095e-35 1.0000000180025095e-35 1.0000000180025095e-35 61.000000000000007 11284.500000000002
decision_type=2 2 2 2 2 2 2 2
left_child=1 3 4 7 -2 -4 -6 -1
right_child=2 -3 5 -5 6 -7 -8 -9
leaf_value=-0.0018501298064667738 -0.010993878230518356 -0.010042402887008819 -0.012797909194631476 -0.0073485327464642468 0.0035725704404040615 0.0016615342870796004 0.0095476324692073747 0.0050833799505277675
leaf_weight=615971.44266165793 43425.019723266363 290070.22183110565 84500.589815884829 338904.1789392978 1262007.2613810971 105514.02782346308 248571.34137275815 205372.44432906061
leaf_count=2709472 277888 2034060 635936 2079484 3818288 385436 393452 619172
internal_value=0 -0.00379164 0.00315269 -0.00222891 0.00412127 -0.00476866 0.00455579 -0.000116444
internal_weight=0 1.45032e+06 1.74402e+06 1.16025e+06 1.554e+06 190015 1.51058e+06 821344
internal_count=12953188 7442188 5511000 5408128 4489628 1021372 4211740 3328644
is_linear=0
shrinkage=0.01


Tree=37
num_leaves=9
num_cat=0
split_feature=5 15 12 92 62 6 2 6
split_gain=375095 156517 120362 128518 151833 126871 115468 106690
threshold=212.50000000000003 1.0000000180025095e-35 1.0000000180025095e-35 1.0000000180025095e-35 1.0000000180025095e-35 1759.5000000000002 49.000000000000007 12056.000000000002
decision_type=2 2 2 2 2 2 2 2
left_child=2 -2 3 5 -5 -1 7 -3
right_child=1 6 -4 4 -6 -7 -8 -9
leaf_value=-0.011107193113497747 -0.0049658066978266972 -0.0010214707743989237 -0.010258252150473046 -0.013374551570076989 0.0040775875382689673 -0.0018145879071076341 0.0069921260586779726 0.0057028786907798133
leaf_weight=245891.45139425248 227584.19484826177 590237.78524811566 259415.24690258503 57904.992276787758 358382.39324194938 365034.25069771707 694827.86073558033 393095.10005451739
leaf_count=1644616 1245820 2436196 1843012 433532 1096856 1711416 1507008 1034732
internal_value=0 0.00281625 -0.004172 -0.00263496 0.00165002 -0.00555477 0.00387161 0.00166664
internal_weight=0 1.90574e+06 1.28663e+06 1.02721e+06 416287 610926 1.67816e+06 983333
internal_count=12953188 6223756 6729432 4886420 1530388 3356032 4977936 3470928
is_linear=0
shrinkage=0.01


Tree=38
num_leaves=9
num_cat=0
split_feature=5 15 12 92 62 6 2 52
split_gain=367900 153477 118412 126036 149064 124615 113371 106070
threshold=212.50000000000003 1.0000000180025095e-35 1.0000000180025095e-35 1.0000000180025095e-35 1.0000000180025095e-35 1759.5000000000002 49.000000000000007 1.0000000180025095e-35
decision_type=2 2 2 2 2 2 2 2
left_child=2 7 3 5 -5 -1 -3 -2
right_child=1 6 -4 4 -6 -7 -8 -9
leaf_value=-0.011009973823836037 -0.012196271648201511 0.001650214503466153 -0.010178488915990269 -0.013272997345508207 0.0040374734798623744 -0.0017966811775402933 0.0069287190994085472 0.0014886870018993963
leaf_weight=245583.61192220449 106501.84235101938 983192.84736031294 258836.56696493924 57765.25300064683 358323.97609739006 364985.93294984847 694177.86132679135 120968.98136219382
leaf_count=1644616 786236 3470928 1843012 433532 1096856 1711416 1507008 459584
internal_value=0 0.00278942 -0.00413396 -0.00261005 0.00163428 -0.00550246 0.00383472 -0.00491861
internal_weight=0 1.90484e+06 1.2855e+06 1.02666e+06 416089 610570 1.67737e+06 227471
internal_count=12953188 6223756 6729432 4886420 1530388 3356032 4977936 1245820
is_linear=0
shrinkage=0.01


Tree=39
num_leaves=9
num_cat=0
split_feature=5 12 12 79 62 52 126 92
split_gain=361133 134769 126275 121006 99393.2 95053.6 72432.5 84435.6
threshold=246.50000000000003 1.0000000180025095e-35 1.0000000180025095e-35 1.0000000180025095e-35 1.0000000180025095e-35 1.0000000180025095e-35 11284.500000000002 1.0000000180025095e-35
decision_type=2 2 2 2 2 2 2 2
left_child=1 3 4 6 -2 -4 7 -1
right_child=2 -3 5 -5 -6 -7 -8 -9
leaf_value=-0.0054407414613691276 -0.010911417110382002 -0.009811308458660347 -0.012578083849086763 -0.0072054826795985676 0.0044380813121487782 0.0016796750027197724 0.0050485434212813188 0.00196866723361896
leaf_weight=314014.3292844221 43399.820893533528 288235.72067070007 83970.901567339897 338027.48403069377 1508362.9938100502 105514.91030319035 205226.14386296272 301445.376329422
leaf_count=1643246 277888 2034060 635936 2079484 4211740 385436 619172 1066226
internal_value=0 -0.00369229 0.00306775 -0.00217015 0.00400879 -0.00463867 -9.61782e-05 -0.00181169
internal_weight=0 1.44695e+06 1.74125e+06 1.15871e+06 1.55176e+06 189486 820686 615460
internal_count=12953188 7442188 5511000 5408128 4489628 1021372 3328644 2709472
is_linear=0
shrinkage=0.01


Tree=40
num_leaves=9
num_cat=0
split_feature=5 15 12 92 62 6 2 6
split_gain=354809 147617 114536 121551 146022 122349 111025 104273
threshold=212.50000000000003 1.0000000180025095e-35 1.0000000180025095e-35 1.0000000180025095e-35 1.0000000180025095e-35 1759.5000000000002 49.000000000000007 12056.000000000002
decision_type=2 2 2 2 2 2 2 2
left_child=2 -2 3 5 -5 -1 7 -3
right_child=1 6 -4 4 -6 -7 -8 -9
leaf_value=-0.010873072013559143 -0.0048290070026249885 -0.0010537428399086393 -0.010023998698412346 -0.013171988029246224 0.003979667029005287 -0.0017373343173500266 0.0068300691382435644 0.0055960537441497541
leaf_weight=245093.29613980651 226925.45388775319 590067.90250150859 257675.58514124155 57622.327643871307 358184.81024284661 364759.47084259987 693100.06915585697 392763.01757010818
leaf_count=1644616 1245820 2436196 1843012 433532 1096856 1711416 1507008 1034732
internal_value=0 0.00274022 -0.00406372 -0.00256632 0.0016028 -0.00540889 0.00376511 0.00160368
internal_weight=0 1.90286e+06 1.28334e+06 1.02566e+06 415807 609853 1.67593e+06 982831
internal_count=12953188 6223756 6729432 4886420 1530388 3356032 4977936 3470928
is_linear=0
shrinkage=0.01


Tree=41
num_leaves=9
num_cat=0
split_feature=5 2 5 12 92 62 6 2
split_gain=348016 144804 119349 112696 119210 143374 120196 83506
threshold=212.50000000000003 51.000000000000007 476.50000000000006 1.0000000180025095e-35 1.0000000180025095e-35 1.0000000180025095e-35 1759.5000000000002 29.000000000000004
decision_type=2 2 2 2 2 2 2 2
left_child=3 2 -2 4 6 -6 -1 -7
right_child=1 -3 -4 -5 5 7 -8 -9
leaf_value=-0.010779162433118343 -0.0015970356410658865 0.0065407185781867477 0.0048330108400720844 -0.0099469801150345628 -0.013073718634495982 -0.0090541626290721842 -0.0017201916591806797 0.0057349845357605421
leaf_weight=244757.98624878377 799518.42572402209 650625.59921229631 451772.72373663634 257077.04514662921 57475.631273284554 43451.725093767047 364710.84605830163 314669.0179426223
leaf_count=1644616 3508336 1440876 1274544 1843012 433532 261188 1711416 835668
internal_value=0 0.00271417 0.000724502 -0.00402687 -0.00254216 0.00158756 -0.0053582 0.00394058
internal_weight=0 1.90192e+06 1.25129e+06 1.28214e+06 1.02507e+06 415596 609469 358121
internal_count=12953188 6223756 4782880 6729432 4886420 1530388 3356032 1096856
is_linear=0
shrinkage=0.01


Tree=42
num_leaves=9
num_cat=0
split_feature=5 15 12 92 62 6 60 52
split_gain=341356 143700 110883 116913 140788 118091 108780 102786
threshold=212.50000000000003 1.0000000180025095e-35 1.0000000180025095e-35 1.0000000180025095e-35 1.0000000180025095e-35 1759.5000000000002 1.0000000180025095e-35 1.0000000180025095e-35
decision_type=2 2 2 2 2 2 2 2
left_child=2 7 3 5 -5 -1 -3 -2
right_child=1 6 -4 4 -6 -7 -8 -9
leaf_value=-0.010686549099501513 -0.011977736092383126 0.0040467236603320888 -0.0098708423026408372 -0.01297700894917329 0.0039025478195171466 -0.0017032182201194633 -0.01503733847401733 0.001516509870615285
leaf_weight=244412.08321499079 105856.16281702369 1643920.9315699488 256472.42589598894 57325.671795248985 357995.13942570239 364662.16712480038 30420.688847571611 120932.20667763054
leaf_count=1644616 786236 4753488 1843012 433532 1096856 1711416 224448 459584
internal_value=0 0.00268815 -0.00399061 -0.00251841 0.00157271 -0.00530809 0.00369999 -0.00478209
internal_weight=0 1.90113e+06 1.28087e+06 1.0244e+06 415321 609074 1.67434e+06 226788
internal_count=12953188 6223756 6729432 4886420 1530388 3356032 4977936 1245820
is_linear=0
shrinkage=0.01


Tree=43
num_leaves=9
num_cat=0
split_feature=6 12 2 79 5 92 62 5
split_gain=335341 151069 133770 113765 112377 72809.9 107010 83582.9
threshold=5749.5000000000009 1.0000000180025095e-35 51.000000000000007 1.0000000180025095e-35 703.50000000000011 1.0000000180025095e-35 1.0000000180025095e-35 70.500000000000014
decision_type=2 2 2 2 2 2 2 2
left_child=1 3 4 5 -2 7 -7 -1
right_child=2 -3 -4 -5 -6 6 -8 -9
leaf_value=-0.0093941261032759044 -0.00062072493303489827 -0.011141998603156662 0.0064651411908475936 -0.007352944339767682 0.0073018600376788404 -0.011936171334956548 0.0048359468750021565 0.00014260337206919494
leaf_weight=141007.11840315163 994827.54470351338 233056.40994459391 636710.49768226594 314796.00228295475 218329.67808634788 42925.076875284314 334301.71372328699 263888.55114400387
leaf_count=887104 4135588 1740140 1407476 1968596 490312 317300 938540 1068132
internal_value=0 -0.00383022 0.00275324 -0.00227672 0.000805088 -0.000233599 0.00292743 -0.00317861
internal_weight=0 1.32997e+06 1.84987e+06 1.09692e+06 1.21316e+06 782122 377227 404896
internal_count=12953188 6919812 6033376 5179672 4625900 3211076 1255840 1955236
is_linear=0
shrinkage=0.01


Tree=44
num_leaves=9
num_cat=0
split_feature=5 12 12 79 62 52 126 92
split_gain=329223 124368 117588 113341 94955.5 91820.5 70830.7 77379.4
threshold=246.50000000000003 1.0000000180025095e-35 1.0000000180025095e-35 1.0000000180025095e-35 1.0000000180025095e-35 1.0000000180025095e-35 11284.500000000002 1.0000000180025095e-35
decision_type=2 2 2 2 2 2 2 2
left_child=1 3 4 6 -2 -4 7 -1
right_child=2 -3 5 -5 -6 -7 -8 -9
leaf_value=-0.0052436856773095432 -0.010755667953238358 -0.0094501014951321304 -0.012358942248087224 -0.0069624285347948201 0.0042600887249141977 0.001681045599441002 0.0050229767297280013 0.001856442235437932
leaf_weight=313441.36809234321 43326.487626686692 285088.40564180166 83398.871092885733 336403.12432681769 1504808.6207276583 105512.60336734354 204900.98952111602 300796.99364739656
leaf_count=1643246 277888 2034060 635936 2079484 4211740 385436 619172 1066226
internal_value=0 -0.00353474 0.00293099 -0.00207534 0.00383985 -0.0045172 -6.83191e-05 -0.0017667
internal_weight=0 1.44063e+06 1.73705e+06 1.15554e+06 1.54814e+06 188911 819139 614238
internal_count=12953188 7442188 5511000 5408128 4489628 1021372 3328644 2709472
is_linear=0
shrinkage=0.01


Tree=45
num_leaves=9
num_cat=0
split_feature=6 12 2 5 79 92 62 5
split_gain=323578 146695 130376 109922 109696 70302.8 104977 81844.6
threshold=5749.5000000000009 1.0000000180025095e-35 51.000000000000007 476.50000000000006 1.0000000180025095e-35 1.0000000180025095e-35 1.0000000180025095e-35 70.500000000000014
decision_type=2 2 2 2 2 2 2 2
left_child=1 4 3 -2 5 7 -7 -1
right_child=2 -3 -4 -5 -6 6 -8 -9
leaf_value=-0.0092822467491795093 -0.0015360795301582215 -0.010992659258820744 0.0063734846108340184 0.0046933009294481843 -0.0072294554458583252 -0.011862482022720286 0.004764913973115876 0.00015897447574318141
leaf_weight=140822.14135954529 761233.98056787997 231867.88929814845 635633.48506680876 451145.54264390469 314021.03846038133 42838.436011746526 334136.33671754599 263865.32608731091
leaf_count=887104 3351356 1740140 1407476 1274544 1968596 317300 938540 1068132
internal_value=0 -0.00376655 0.0027052 0.000781971 -0.00223736 -0.000231861 0.00287542 -0.00312636
internal_weight=0 1.32755e+06 1.84801e+06 1.21238e+06 1.09568e+06 781662 376975 404687
internal_count=12953188 6919812 6033376 4625900 5179672 3211076 1255840 1955236
is_linear=0
shrinkage=0.01


Tree=46
num_leaves=9
num_cat=0
split_feature=6 12 2 5 79 92 62 5
split_gain=317400 144394 127985 108328 107682 68935.1 103048 80323.1
threshold=5749.5000000000009 1.0000000180025095e-35 51.000000000000007 703.50000000000011 1.0000000180025095e-35 1.0000000180025095e-35 1.0000000180025095e-35 70.500000000000014
decision_type=2 2 2 2 2 2 2 2
left_child=1 4 3 -2 5 7 -7 -1
right_child=2 -3 -4 -5 -6 6 -8 -9
leaf_value=-0.0091987410852606578 -0.0006255186090450037 -0.010913517378151539 0.0063162434496520379 0.0071584057889542696 -0.0071663596602099325 -0.011774071582080161 0.0047188410493018227 0.00015738424498407943
leaf_weight=140680.22165679187 994219.9930819422 231217.10751653463 634983.30059630424 217991.56606493145 313619.98013760895 42729.05487768352 334025.28350479901 263866.11686742306
leaf_count=887104 4135588 1740140 1407476 490312 1968596 317300 938540 1068132
internal_value=0 -0.0037329 0.00267935 0.000774262 -0.00221655 -0.000229662 0.00284832 -0.00309619
internal_weight=0 1.32614e+06 1.84719e+06 1.21221e+06 1.09492e+06 781301 376754 404546
internal_count=12953188 6919812 6033376 4625900 5179672 3211076 1255840 1955236
is_linear=0
shrinkage=0.01


Tree=47
num_leaves=9
num_cat=0
split_feature=5 15 60 12 92 62 6 52
split_gain=311641 135493 103993 101910 106168 131622 112231 98985.7
threshold=212.50000000000003 1.0000000180025095e-35 1.0000000180025095e-35 1.0000000180025095e-35 1.0000000180025095e-35 1.0000000180025095e-35 1759.5000000000002 1.0000000180025095e-35
decision_type=2 2 2 2 2 2 2 2
left_child=3 7 -3 4 6 -6 -1 -2
right_child=1 2 -4 -5 5 -7 -8 -9
leaf_value=-0.010342402893931197 -0.011786181041221304 0.0038921278809616018 -0.014796015499235706 -0.009501644240510641 -0.012655588273593756 0.0037338828526693804 -0.0015659219785244597 0.0014776660330064826
leaf_weight=242998.54639271647 105239.6761931181 1640157.876099579 30326.869072601199 253351.12449350953 56785.28651483357 357425.46593813598 363904.57616693527 120902.66900880635
leaf_count=1644616 786236 4753488 224448 1843012 433532 1096856 1711416 459584
internal_value=0 0.00256944 0.00355285 -0.00382463 -0.00241609 0.00148701 -0.00507995 -0.00469492
internal_weight=0 1.89663e+06 1.67048e+06 1.27446e+06 1.02111e+06 414211 606903 226142
internal_count=12953188 6223756 4977936 6729432 4886420 1530388 3356032 1245820
is_linear=0
shrinkage=0.01


Tree=48
num_leaves=9
num_cat=0
split_feature=6 12 2 5 79 0 62 92
split_gain=305970 140217 124819 105729 104923 66452.2 52107.6 55184.7
threshold=5749.5000000000009 1.0000000180025095e-35 51.000000000000007 476.50000000000006 1.0000000180025095e-35 1.5000000000000002 1.0000000180025095e-35 1.0000000180025095e-35
decision_type=2 2 2 2 2 2 2 2
left_child=1 4 3 -2 5 6 -1 -8
right_child=2 -3 -4 -5 -6 -7 7 -9
leaf_value=-0.010833902339432423 -0.0015238267841047634 -0.010767199955683638 0.006226503569943467 0.0045882406777622954 -0.007069024119703211 -0.0056266446980213752 -0.0012392368837810257 0.0049869553565696839
leaf_weight=33135.354962408543 760805.60907512158 229975.96121503413 633900.20200977474 450667.61808128655 312938.75874755532 175825.66509827226 268267.49423991144 303301.10945081711
leaf_count=242484 3351356 1740140 1407476 1274544 1968596 937872 1199060 831660
internal_value=0 -0.00366964 0.00263113 0.00074986 -0.00217689 -0.000215484 0.00135788 0.00206467
internal_weight=0 1.32344e+06 1.84537e+06 1.21147e+06 1.09347e+06 780530 604704 571569
internal_count=12953188 6919812 6033376 4625900 5179672 3211076 2273204 2030720
is_linear=0
shrinkage=0.01


Tree=49
num_leaves=9
num_cat=0
split_feature=5 15 60 126 52 125 2 92
split_gain=300304 131927 101662 98850 97136.4 87679.7 84133 60746.8
threshold=212.50000000000003 1.0000000180025095e-35 1.0000000180025095e-35 11610.500000000002 1.0000000180025095e-35 644.50000000000011 31.000000000000004 1.0000000180025095e-35
decision_type=2 2 2 2 2 2 2 2
left_child=3 4 6 5 -2 -1 -3 -7
right_child=1 2 -4 -5 -6 7 -8 -9
leaf_value=-0.0073296919563096141 -0.011690553509914605 0.0003396276879243535 -0.014665760845557875 0.0023187019897098148 0.0014592364662162239 -0.0046067819419268784 0.0053002001229996822 0.003265570123551859
leaf_weight=644862.66785200685 104929.19721135497 486097.86491607875 30270.863009221852 221080.02162767947 120901.1161685735 240397.69356372207 1152593.6951206252 165501.80040343106
leaf_count=3970553 786236 1822304 224448 850623 459584 1333454 2931184 574802
internal_value=0 0.00252263 0.00349326 -0.00375914 -0.00465065 -0.00503791 0.00382871 -0.0013969
internal_weight=0 1.89479e+06 1.66896e+06 1.27184e+06 225830 1.05076e+06 1.63869e+06 405899
internal_count=12953188 6223756 4977936 6729432 1245820 5878809 4753488 1908256
is_linear=0
shrinkage=0.01


Tree=50
num_leaves=9
num_cat=0
split_feature=5 12 12 79 62 52 126 92
split_gain=294808 114255 108897 103838 89187.2 87101.3 68057.7 70979.4
threshold=246.50000000000003 1.0000000180025095e-35 1.0000000180025095e-35 1.0000000180025095e-35 1.0000000180025095e-35 1.0000000180025095e-35 11284.500000000002 1.0000000180025095e-35
decision_type=2 2 2 2 2 2 2 2
left_child=1 3 4 6 -2 -4 7 -1
right_child=2 -3 5 -5 -6 -7 -8 -9
leaf_value=-0.0050404567456673087 -0.010515881048518878 -0.0090679602660581164 -0.012093944354624846 -0.0066559185541335336 0.0040593557448651129 0.0016154863464892127 0.0049545614219738271 0.0017672679909432707
leaf_weight=312761.4370270744 43191.327721476555 281382.86321466416 82647.148329138756 334208.11660645902 1500407.4698591754 105501.76506246626 204564.98878055066 300115.66270563751
leaf_count=1643246 277888 2034060 635936 2079484 4211740 385436 619172 1066226
internal_value=0 -0.00335552 0.00277604 -0.0019598 0.00365153 -0.00440658 -3.98143e-05 -0.00170683
internal_weight=0 1.43303e+06 1.73175e+06 1.15165e+06 1.5436e+06 188149 817442 612877
internal_count=12953188 7442188 5511000 5408128 4489628 1021372 3328644 2709472
is_linear=0
shrinkage=0.01


Tree=51
num_leaves=9
num_cat=0
split_feature=6 12 2 79 5 0 62 92
split_gain=289971 132318 119089 106780 103244 66558.9 50735.3 52481.5
threshold=5674.5000000000009 1.0000000180025095e-35 51.000000000000007 1.0000000180025095e-35 703.50000000000011 1.5000000000000002 1.0000000180025095e-35 1.0000000180025095e-35
decision_type=2 2 2 2 2 2 2 2
left_child=1 3 4 5 -2 6 -1 -8
right_child=2 -3 -4 -5 -6 -7 7 -9
leaf_value=-0.010697591551286958 -0.00063567342670479141 -0.010550694486993771 0.0060649302239038317 -0.0071430888004728847 0.0069652928879175473 -0.0056332196017173843 -0.0011396951791621357 0.0049410125147311698
leaf_weight=32799.679241336882 1002505.2264675871 226625.31075341254 632950.35701624304 306754.95575852692 217466.40587984771 173443.1410600394 267037.45232669264 302980.1134762913
leaf_count=240480 4179676 1724776 1413488 1951896 490312 930524 1191712 830324
internal_value=0 -0.00360211 0.0025453 -0.00214809 0.000719239 -0.000174212 0.00139646 0.00209237
internal_weight=0 1.30964e+06 1.85292e+06 1.08302e+06 1.21997e+06 776260 602817 570018
internal_count=12953188 6869712 6083476 5144936 4669988 3193040 2262516 2022036
is_linear=0
shrinkage=0.01


Tree=52
num_leaves=9
num_cat=0
split_feature=5 15 60 125 52 2 126 92
split_gain=284467 126161 98084.9 95809.5 94012.1 81597.1 70195.1 56612.6
threshold=212.50000000000003 1.0000000180025095e-35 1.0000000180025095e-35 694.50000000000011 1.0000000180025095e-35 31.000000000000004 220.50000000000003 1.0000000180025095e-35
decision_type=2 2 2 2 2 2 2 2
left_child=3 4 5 6 -2 -3 -1 -5
right_child=1 2 -4 7 -6 -7 -8 -9
leaf_value=-0.0084712428325713213 -0.011522463860567567 0.00029896838207783073 -0.014458820986963073 -0.002933480568336077 0.0014343455310835945 0.0051864229500219825 -0.00248331488356626 0.0041028460530236907
leaf_weight=438147.07757561654 104339.45266398042 485845.0067974478 30177.028322555125 286090.16305042058 120874.4088504687 1150497.909649685 353906.5061063841 190476.67776247859
leaf_count=2852856 786236 1822304 224448 1480738 459584 2931184 1774848 620990
internal_value=0 0.00245649 0.00340584 -0.00366402 -0.00456842 0.00373529 -0.00579571 -0.000121165
internal_weight=0 1.89173e+06 1.66652e+06 1.26862e+06 225214 1.63634e+06 792054 476567
internal_count=12953188 6223756 4977936 6729432 1245820 4753488 4627704 2101728
is_linear=0
shrinkage=0.01


Tree=53
num_leaves=9
num_cat=0
split_feature=6 12 2 5 79 126 92 62
split_gain=279360 133427 116162 101029 98155.7 63116.6 77840.7 78775
threshold=5749.5000000000009 1.0000000180025095e-35 51.000000000000007 703.50000000000011 1.0000000180025095e-35 11610.500000000002 1.0000000180025095e-35 1.0000000180025095e-35
decision_type=2 2 2 2 2 2 2 2
left_child=1 4 3 -2 5 6 -1 -8
right_child=2 -3 -4 -5 -6 -7 7 -9
leaf_value=-0.0054376669332839005 -0.0006504426495782473 -0.010482217723006228 0.0059949772375750277 0.0068789287798895924 -0.0068104792906169232 0.0048848961573548745 -0.012704635135154983 0.0036287400090037774
leaf_weight=292532.42931503803 992178.30254945904 227412.85389333963 630921.55560121685 217225.69173390418 311112.68648022413 187767.95296456665 33214.129946880043 266077.49990539253
leaf_count=1577776 4135588 1740140 1407476 490312 1968596 574642 258565 800093
internal_value=0 -0.00351451 0.00251656 0.000701937 -0.00206173 -0.000166644 -0.00176935 0.00181613
internal_weight=0 1.31812e+06 1.84033e+06 1.2094e+06 1.0907e+06 779592 591824 299292
internal_count=12953188 6919812 6033376 4625900 5179672 3211076 2636434 1058658
is_linear=0
shrinkage=0.01


Tree=54
num_leaves=9
num_cat=0
split_feature=6 12 19 52 79 62 2 126
split_gain=274082 127907 113759 119248 102469 88088.6 70556.3 70257.9
threshold=5674.5000000000009 1.0000000180025095e-35 1.0000000180025095e-35 1.0000000180025095e-35 1.0000000180025095e-35 1.0000000180025095e-35 63.000000000000007 7193.5000000000009
decision_type=2 2 2 2 2 2 2 2
left_child=1 4 5 -4 -1 -2 7 -7
right_child=2 -3 3 -5 -6 6 -8 -9
leaf_value=-0.00014761874614328525 -0.010400777040995839 -0.01036822939434201 -0.012497148815625461 0.0018317486335259568 -0.0069843321652848876 0.0015483398257207536 0.008953682341115465 0.0067046022596163914
leaf_weight=775538.97190719843 44724.567663662136 224947.20312820375 97038.885342814028 144665.9829556942 305620.31640872359 971039.73712222278 229549.05742281675 363057.37159499526
leaf_count=3193040 289912 1724776 761520 569804 1951896 3275288 360720 826232
internal_value=0 -0.00350763 0.00247562 -0.00392097 -0.00208021 0.00343689 0.00383269 0.00295155
internal_weight=0 1.30611e+06 1.85008e+06 241705 1.08116e+06 1.60837e+06 1.56365e+06 1.3341e+06
internal_count=12953188 6869712 6083476 1331324 5144936 4752152 4462240 4101520
is_linear=0
shrinkage=0.01


Tree=55
num_leaves=9
num_cat=0
split_feature=5 125 12 62 52 2 92 2
split_gain=268974 110670 101663 83893.2 82631.1 71888.3 97752.9 64445.3
threshold=246.50000000000003 6031.5000000000009 1.0000000180025095e-35 1.0000000180025095e-35 1.0000000180025095e-35 39.000000000000007 1.0000000180025095e-35 63.000000000000007
decision_type=2 2 2 2 2 2 2 2
left_child=1 5 3 -2 -4 -1 -7 -5
right_child=2 -3 4 7 -6 6 -8 -9
leaf_value=-0.0069457510293847811 -0.010262107406543432 0.0018691149094981789 -0.011839636811486911 0.0030425043315708612 0.0015494130625347974 -0.0053892847628225493 0.0040023013573133679 0.0089387236919016965
leaf_weight=629498.53445585817 43052.459765858948 329530.43271675706 81865.400228217244 1279719.0389892161 105489.05910283327 287627.99626497924 180302.59138315171 216772.09514445812
leaf_count=3953489 277888 1310223 635936 3875736 385436 1583274 595202 336004
internal_value=0 -0.00321305 0.00265424 0.00350065 -0.00430099 -0.0047391 -0.00177053 0.00389659
internal_weight=0 1.42696e+06 1.7269e+06 1.53954e+06 187354 1.09743e+06 467931 1.49649e+06
internal_count=12953188 7442188 5511000 4489628 1021372 6131965 2178476 4211740
is_linear=0
shrinkage=0.01


Tree=56
num_leaves=9
num_cat=0
split_feature=5 12 52 62 126 125 2 92
split_gain=264423 118738 97891.9 94399.3 92426.2 81987.5 74038.1 55469.7
threshold=212.50000000000003 1.0000000180025095e-35 1.0000000180025095e-35 1.0000000180025095e-35 11610.500000000002 644.50000000000011 31.000000000000004 1.0000000180025095e-35
decision_type=2 2 2 2 2 2 2 2
left_child=4 3 -3 -2 5 -1 -5 -7
right_child=1 2 -4 6 -6 7 -8 -9
leaf_value=-0.0070088903060826968 -0.010714763662066105 -0.012151066236092712 0.001386784365318568 0.00039789288985535764 0.0023433767137956379 -0.0043327145085291464 0.0050677808329641638 0.0032038324019053365
leaf_weight=639793.4099105224 46889.018098965287 95712.163665913045 120860.08583611995 483416.67966075987 220537.72264516354 239216.63308593631 1140402.4819164947 165032.07532895356
leaf_count=3970553 309952 752836 459584 1798924 850623 1333454 2902460 574802
internal_value=0 0.00237053 -0.00459615 0.00327361 -0.00353885 -0.00478138 0.00367754 -0.00125597
internal_weight=0 1.88728e+06 216572 1.67071e+06 1.26458e+06 1.04404e+06 1.62382e+06 404249
internal_count=12953188 6223756 1212420 5011336 6729432 5878809 4701384 1908256
is_linear=0
shrinkage=0.01


Tree=57
num_leaves=9
num_cat=0
split_feature=6 12 2 79 5 0 62 92
split_gain=259590 125389 108320 99019.6 97706.1 63229.6 48767.1 49562.1
threshold=5674.5000000000009 1.0000000180025095e-35 51.000000000000007 1.0000000180025095e-35 703.50000000000011 1.5000000000000002 1.0000000180025095e-35 1.0000000180025095e-35
decision_type=2 2 2 2 2 2 2 2
left_child=1 3 4 5 -2 6 -1 -8
right_child=2 -3 -4 -5 -6 -7 7 -9
leaf_value=-0.010479147393768748 -0.0006483345726693376 -0.010232435729272616 0.0057808802463346701 -0.0068375968373239121 0.0067563583183713975 -0.005433957044538488 -0.0010386079730739129 0.0048728822525799208
leaf_weight=32560.888841934502 1000566.9484225512 223643.97828667611 629077.97623637319 304510.46377393603 216814.30473641306 173118.82608673722 266791.51297071576 302786.87168303132
leaf_count=240480 4179676 1724776 1413488 1951896 490312 930524 1191712 830324
internal_value=0 -0.00341728 0.00241153 -0.00200571 0.000670433 -0.000107806 0.0014235 0.00210393
internal_weight=0 1.30341e+06 1.84646e+06 1.07977e+06 1.21738e+06 775258 602139 569578
internal_count=12953188 6869712 6083476 5144936 4669988 3193040 2262516 2022036
is_linear=0
shrinkage=0.01


Tree=58
num_leaves=9
num_cat=0
split_feature=12 6 52 92 62 6 62 2
split_gain=256023 186016 140795 102255 119190 100416 96219.2 74149.5
threshold=1.0000000180025095e-35 5034.5000000000009 1.0000000180025095e-35 1.0000000180025095e-35 1.0000000180025095e-35 1759.5000000000002 1.0000000180025095e-35 29.000000000000004
decision_type=2 2 2 2 2 2 2 2
left_child=1 3 -2 5 -5 -1 -3 -6
right_child=2 6 -4 4 7 -7 -8 -9
leaf_value=-0.0098937899258706337 -0.011893080832146073 -0.010656455571108187 -0.00082527742333621409 -0.012233861610170775 -0.0086813258834067941 -0.0014634210678588933 0.0036124103873878327 0.0053691968440617655
leaf_weight=240547.15474181622 252890.61654484272 48658.804705940187 210701.78641601652 54222.990748241544 42683.432522237301 342413.11705416441 1642571.7033265755 312897.70785854012
leaf_count=1644616 2020032 323980 1035400 420840 257848 1636600 4783548 830324
internal_value=0 0.00118488 -0.00686279 -0.0022512 0.00157662 -0.00494205 0.00320188 0.00368259
internal_weight=0 2.68399e+06 463592 992764 409804 582960 1.69123e+06 355581
internal_count=12953188 9897756 3055432 4790228 1509012 3281216 5107528 1088172
is_linear=0
shrinkage=0.01


Tree=59
num_leaves=9
num_cat=0
split_feature=12 6 52 92 62 6 62 2
split_gain=251379 182410 138814 100305 117085 98721.5 94387.7 72708.5
threshold=1.0000000180025095e-35 5034.5000000000009 1.0000000180025095e-35 1.0000000180025095e-35 1.0000000180025095e-35 1759.5000000000002 1.0000000180025095e-35 29.000000000000004
decision_type=2 2 2 2 2 2 2 2
left_child=1 3 -2 5 -5 -1 -3 -6
right_child=2 6 -4 4 7 -7 -8 -9
leaf_value=-0.0098126109653561468 -0.011815902685813571 -0.010563587106591624 -0.00081711487051878832 -0.012149912432935917 -0.0085991076066077431 -0.0014490061175676549 0.0035777668729216824 0.0053178465204077284
leaf_weight=240113.98683318496 252001.46559950709 48596.030359700322 210678.60387463123 54052.520530499518 42660.737733267248 342361.55615556985 1641895.2294409424 312760.60926372558
leaf_count=1644616 2020032 323980 1035400 420840 257848 1636600 4783548 830324
internal_value=0 0.0011737 -0.00680767 -0.00223055 0.00156209 -0.00489674 0.00317125 0.00364741
internal_weight=0 2.68244e+06 462680 991949 409474 582476 1.69049e+06 355421
internal_count=12953188 9897756 3055432 4790228 1509012 3281216 5107528 1088172
is_linear=0
shrinkage=0.01


Tree=60
num_leaves=9
num_cat=0
split_feature=12 6 52 92 62 6 62 2
split_gain=246822 178875 136869 98392.5 115021 97060.4 92593.2 71296.8
threshold=1.0000000180025095e-35 5034.5000000000009 1.0000000180025095e-35 1.0000000180025095e-35 1.0000000180025095e-35 1759.5000000000002 1.0000000180025095e-35 29.000000000000004
decision_type=2 2 2 2 2 2 2 2
left_child=1 3 -2 5 -5 -1 -3 -6
right_child=2 6 -4 4 7 -7 -8 -9
leaf_value=-0.009732405820099637 -0.011739707653442734 -0.010471981929266216 -0.00080903234173643028 -0.012067114218117451 -0.0085179255905307259 -0.0014347325050458656 0.0035434640988594884 0.0052670398154021827
leaf_weight=239674.05465742946 251105.18002801389 48531.244324594736 210655.59014485776 53880.031946644187 42636.771813966334 342310.16629744321 1641215.3314343095 312620.4835062027
leaf_count=1644616 2020032 323980 1035400 420840 257848 1636600 4783548 830324
internal_value=0 0.00116264 -0.00675313 -0.00221012 0.00154772 -0.0048519 0.00314093 0.00361261
internal_weight=0 2.68087e+06 461761 991122 409137 581984 1.68975e+06 355257
internal_count=12953188 9897756 3055432 4790228 1509012 3281216 5107528 1088172
is_linear=0
shrinkage=0.01


Tree=61
num_leaves=9
num_cat=0
split_feature=12 6 52 92 62 6 62 2
split_gain=242353 175410 134960 96517.8 112999 95432.3 90835 70267.6
threshold=1.0000000180025095e-35 5034.5000000000009 1.0000000180025095e-35 1.0000000180025095e-35 1.0000000180025095e-35 1759.5000000000002 1.0000000180025095e-35 31.000000000000004
decision_type=2 2 2 2 2 2 2 2
left_child=1 3 -2 5 -5 -1 -3 -8
right_child=2 6 -4 4 -6 -7 7 -9
leaf_value=-0.0096531516159991081 -0.011664468699719774 -0.010381607098491031 -0.00080102931070467431 -0.011985435304179809 0.00357819089254668 -0.001420599023540931 0.00033689642374894402 0.0048595635479268895
leaf_weight=239227.65136026591 250202.15384652466 48464.519770719111 210632.74258569628 53705.620272040367 355089.02047361434 342258.94235564768 489717.01145599782 1150815.2365389764
leaf_count=1644616 2020032 323980 1035400 420840 1088172 1636600 1827648 2955900
internal_value=0 0.00115168 -0.00669914 -0.00218991 0.00153351 -0.00480753 0.0031109 0.0035095
internal_weight=0 2.67928e+06 460835 990281 408795 581487 1.689e+06 1.64053e+06
internal_count=12953188 9897756 3055432 4790228 1509012 3281216 5107528 4783548
is_linear=0
shrinkage=0.01


Tree=62
num_leaves=9
num_cat=0
split_feature=5 125 2 5 2 92 126 126
split_gain=238117 105915 94262.4 82047.3 67459.5 90109.1 57581.2 53986.2
threshold=246.50000000000003 6031.5000000000009 61.000000000000007 703.50000000000011 39.000000000000007 1.0000000180025095e-35 7193.5000000000009 118905.00000000001
decision_type=2 2 2 2 2 2 2 2
left_child=1 4 3 6 -1 7 -2 -6
right_child=2 -3 -4 -5 5 -7 -8 -9
leaf_value=-0.0066836354105417649 -0.00069405519995688499 0.0019458955087174256 0.0082844040641460674 0.0068255458437348066 -0.006930662453851366 0.0038984246640948782 0.0044161019217469942 0.0053899069416855688
leaf_weight=624013.65599935502 943712.05283607543 328191.72610471398 242142.44426633418 246015.68588569015 244528.86137473583 179573.24979223311 287731.59946066886 41617.887716762722
leaf_count=3953489 3759965 1310223 396792 541080 1457531 595202 813163 125743
internal_value=0 -0.00303431 0.00250108 0.00155324 -0.00453419 -0.00165416 0.000499953 -0.00513873
internal_weight=0 1.41793e+06 1.7196e+06 1.47746e+06 1.08973e+06 465720 1.23144e+06 286147
internal_count=12953188 7442188 5511000 5114208 6131965 2178476 4573128 1583274
is_linear=0
shrinkage=0.01


Tree=63
num_leaves=9
num_cat=0
split_feature=12 6 52 92 62 6 62 2
split_gain=236410 168900 133097 93854.5 110592 93684.3 88882.1 69339.7
threshold=1.0000000180025095e-35 5034.5000000000009 1.0000000180025095e-35 1.0000000180025095e-35 1.0000000180025095e-35 1759.5000000000002 1.0000000180025095e-35 29.000000000000004
decision_type=2 2 2 2 2 2 2 2
left_child=1 3 -2 5 -5 -1 -3 -6
right_child=2 6 -4 4 7 -7 -8 -9
leaf_value=-0.0095380488952744452 -0.011573722708772717 -0.010296566756008357 -0.00077202637970226809 -0.011878578476027329 -0.00841960488381077 -0.0013731603798355541 0.0034549888997370722 0.0051805902206603352
leaf_weight=238535.88155132532 249074.53471555561 48389.115777976811 210462.6929711774 53468.896060198545 42600.687532380223 342029.7882791087 1638881.6843876243 312360.81106729805
leaf_count=1644616 2020032 323980 1035400 420840 257848 1636600 4783548 830324
internal_value=0 0.00113727 -0.00662667 -0.00214402 0.00152877 -0.00472785 0.00306061 0.00354836
internal_weight=0 2.67627e+06 459537 988996 408430 580566 1.68727e+06 354961
internal_count=12953188 9897756 3055432 4790228 1509012 3281216 5107528 1088172
is_linear=0
shrinkage=0.01


Tree=64
num_leaves=9
num_cat=0
split_feature=12 6 52 92 62 6 62 126
split_gain=232137 165630 131257 92068.7 108655 92122.8 87198.5 68983
threshold=1.0000000180025095e-35 5034.5000000000009 1.0000000180025095e-35 1.0000000180025095e-35 1.0000000180025095e-35 1759.5000000000002 1.0000000180025095e-35 7193.5000000000009
decision_type=2 2 2 2 2 2 2 2
left_child=1 3 -2 5 -5 -1 -3 -8
right_child=2 6 -4 4 -6 -7 7 -9
leaf_value=-0.0094610535859101091 -0.011500522751145121 -0.010208510994154305 -0.00076438611344230431 -0.011799389910794673 0.0035146147399858054 -0.0013596303513912333 0.0021584295235305044 0.0067547434987206599
leaf_weight=238074.66498113424 248157.88690067828 48318.793546922505 210440.65504846722 53290.358675934374 354787.04606560618 341979.40472149849 1187877.2980178222 450314.25389891118
leaf_count=1644616 2020032 323980 1035400 420840 1088172 1636600 3798618 984930
internal_value=0 0.00112658 -0.00657395 -0.00212447 0.00151478 -0.00468474 0.00303137 0.00342189
internal_weight=0 2.67464e+06 458599 988131 408077 580054 1.68651e+06 1.63819e+06
internal_count=12953188 9897756 3055432 4790228 1509012 3281216 5107528 4783548
is_linear=0
shrinkage=0.01


Tree=65
num_leaves=9
num_cat=0
split_feature=12 6 52 92 62 6 62 2
split_gain=227945 162424 129449 90319.5 106748 90591.6 85549.8 68263.7
threshold=1.0000000180025095e-35 5034.5000000000009 1.0000000180025095e-35 1.0000000180025095e-35 1.0000000180025095e-35 1759.5000000000002 1.0000000180025095e-35 31.000000000000004
decision_type=2 2 2 2 2 2 2 2
left_child=1 3 -2 5 -5 -1 -3 -8
right_child=2 6 -4 4 -6 -7 7 -9
leaf_value=-0.0093849345700575924 -0.011428200413319173 -0.010121595758844679 -0.00075682167962843596 -0.011721221934671035 0.0034803686147017497 -0.0013462325014593308 0.00026191806405240556 0.0047222802800681403
leaf_weight=237607.92185087502 247235.67888244987 48246.737462192774 210418.7715017274 53110.193788588047 354695.75298664719 341929.21331192553 489385.14063633233 1148065.9606650472
leaf_count=1644616 2020032 323980 1035400 420840 1088172 1636600 1827648 2955900
internal_value=0 0.00111597 -0.00652175 -0.00210494 0.0015006 -0.00464207 0.00300252 0.00338921
internal_weight=0 2.67304e+06 457654 987343 407806 579537 1.6857e+06 1.63745e+06
internal_count=12953188 9897756 3055432 4790228 1509012 3281216 5107528 4783548
is_linear=0
shrinkage=0.01


Tree=66
num_leaves=9
num_cat=0
split_feature=12 126 125 52 6 95 83 46
split_gain=223833 160039 140848 127673 99411.5 74027.3 51055.1 46284.4
threshold=1.0000000180025095e-35 6749.5000000000009 7687.0000000000009 1.0000000180025095e-35 6216.5000000000009 1.0000000180025095e-35 1.0000000180025095e-35 1.0000000180025095e-35
decision_type=2 2 2 2 2 2 2 2
left_child=1 2 4 7 5 -1 -6 -2
right_child=3 -3 -4 -5 6 -7 -8 -9
leaf_value=-0.0069933095283014916 -0.011887093664650199 0.0052284901256866266 0.0042031549740960119 -0.00074933146976976692 -0.00085445464115713773 2.1437068389639473e-05 0.0052672742314222075 0.024074354357794588
leaf_weight=460525.32842467725 242675.70146042109 696126.59608253837 505923.91559588164 210397.05656090379 609917.6506003961 223430.64958234131 175418.63601531833 3632.5655067712069
leaf_count=2810114 2016024 1902035 1497908 1035400 2369842 916026 401831 4008
internal_value=0 0.00110551 -0.000347556 -0.00647007 -0.00191451 -0.00470177 0.000512941 -0.0113567
internal_weight=0 2.67134e+06 1.97522e+06 456705 1.46929e+06 683956 785336 246308
internal_count=12953188 9897756 7995721 3055432 6497813 3726140 2771673 2020032
is_linear=0
shrinkage=0.01


Tree=67
num_leaves=9
num_cat=0
split_feature=12 6 92 52 62 2 6 126
split_gain=219792 157510 127774 125932 99300.3 99093.2 79453.3 64969.7
threshold=1.0000000180025095e-35 4155.0000000000009 1.0000000180025095e-35 1.0000000180025095e-35 1.0000000180025095e-35 51.000000000000007 12056.000000000002 11610.500000000002
decision_type=2 2 2 2 2 2 2 2
left_child=1 2 7 -2 -4 6 -3 -1
right_child=3 5 4 -5 -6 -7 -8 -9
leaf_value=-0.007659761577208212 -0.011286244254274155 -0.00095054387837715908 -0.011998876095016174 -0.00074191427939979116 0.0036568069485573228 0.0058678333761076219 0.0046063615829357966 0.0015192704268743537
leaf_weight=386331.94129519165 245373.47466553748 734656.0085209161 45829.596827790141 210375.50471510738 349311.43214826286 661788.76320287585 395995.99061091244 96340.452566646039
leaf_count=2476140 2020032 3065452 368068 1035400 1054104 1463588 1068800 401604
internal_value=0 0.0010949 -0.00237566 -0.00641894 0.00184102 0.00279454 0.000995689 -0.00582764
internal_weight=0 2.67025e+06 877813 455749 395141 1.79244e+06 1.13065e+06 482672
internal_count=12953188 9897756 4299916 3055432 1422172 5597840 4134252 2877744
is_linear=0
shrinkage=0.01


Tree=68
num_leaves=9
num_cat=0
split_feature=6 12 2 126 5 95 125 126
split_gain=215952 112939 96706.1 87102.1 83161.2 71599.3 67440.5 54347.4
threshold=5749.5000000000009 1.0000000180025095e-35 61.000000000000007 11610.500000000002 703.50000000000011 1.0000000180025095e-35 6552.5000000000009 7193.5000000000009
decision_type=2 2 2 2 2 2 2 2
left_child=1 3 4 5 7 6 -1 -2
right_child=2 -3 -4 -5 -6 -7 -8 -9
leaf_value=-0.0071151581269975174 -0.00079944221881818073 -0.009665510417380058 0.0079534382317731061 0.0039102317864949379 0.0066447356339309161 0.00094944914819091982 0.00080896100132917274 0.0040180763493395414
leaf_weight=443273.01399380714 1021722.6966600716 218921.90468659997 253238.58519861102 214849.10466016084 245152.22443870455 280588.00168634206 141748.84266137332 303798.3590862453
leaf_count=2749505 4184814 1740140 426184 729847 541080 1089262 611058 881298
internal_value=0 -0.00311592 0.00221884 -0.00178885 0.00129425 -0.00320339 -0.00519517 0.000304693
internal_weight=0 1.29938e+06 1.82391e+06 1.08046e+06 1.57067e+06 865610 585022 1.32552e+06
internal_count=12953188 6919812 6033376 5179672 5607192 4449825 3360563 5066112
is_linear=0
shrinkage=0.01


Tree=69
num_leaves=9
num_cat=0
split_feature=12 126 125 52 6 95 83 46
split_gain=213053 153267 135978 123876 93892 70299.9 49287.9 45460.9
threshold=1.0000000180025095e-35 6749.5000000000009 7687.0000000000009 1.0000000180025095e-35 6216.5000000000009 1.0000000180025095e-35 1.0000000180025095e-35 1.0000000180025095e-35
decision_type=2 2 2 2 2 2 2 2
left_child=1 2 4 7 5 -1 -6 -2
right_child=3 -3 -4 -5 6 -7 -8 -9
leaf_value=-0.0068372425884238855 -0.011712555159109907 0.0051154181148305427 0.0041291319284341181 -0.00070535510524480979 -0.00086959879409194201 3.6727445194073481e-06 0.0051521107414687116 0.023863790862865452
leaf_weight=459156.18356511742 240275.15372567624 695025.69785558432 505147.24316621572 210144.13868094236 609705.05617082864 223263.45982640237 174921.73056256771 3646.3336315304041
leaf_count=2810114 2016024 1902035 1497908 1035400 2369842 916026 401831 4008
internal_value=0 0.00107739 -0.000345658 -0.00633267 -0.00188646 -0.00459914 0.000472858 -0.0111807
internal_weight=0 2.66722e+06 1.97219e+06 454066 1.46705e+06 682420 784627 243921
internal_count=12953188 9897756 7995721 3055432 6497813 3726140 2771673 2020032
is_linear=0
shrinkage=0.01


Tree=70
num_leaves=9
num_cat=0
split_feature=12 6 92 52 62 2 5 126
split_gain=209215 150870 123636 122201 97260.2 95199.2 76600 61567.8
threshold=1.0000000180025095e-35 4155.0000000000009 1.0000000180025095e-35 1.0000000180025095e-35 1.0000000180025095e-35 51.000000000000007 703.50000000000011 11610.500000000002
decision_type=2 2 2 2 2 2 2 2
left_child=1 2 7 -2 -4 6 -3 -1
right_child=3 5 4 -5 -6 -7 -8 -9
leaf_value=-0.0075223042053685196 -0.011112349469137542 -0.00023888338297714277 -0.011911941657986255 -0.00069837000172826686 0.0036112766690559344 0.0057496945657750384 0.0065803759527554165 0.0014123591982728838
leaf_weight=385151.11260871589 242973.70174793899 929790.63239829242 45638.954109184444 210123.60166241229 349071.3471814692 659822.3156830892 200188.78345393389 96436.564535453916
leaf_count=2476140 2020032 3695376 368068 1035400 1054104 1463588 438876 401604
internal_value=0 0.00106707 -0.00233263 -0.00628287 0.00181638 0.00273158 0.000969226 -0.00573316
internal_weight=0 2.6661e+06 876298 453097 394710 1.7898e+06 1.12998e+06 481588
internal_count=12953188 9897756 4299916 3055432 1422172 5597840 4134252 2877744
is_linear=0
shrinkage=0.01


Tree=71
num_leaves=9
num_cat=0
split_feature=6 12 2 79 5 126 92 62
split_gain=205723 105302 92757.1 85631.7 80239 55857 60728.9 63641.2
threshold=5674.5000000000009 1.0000000180025095e-35 61.000000000000007 1.0000000180025095e-35 703.50000000000011 11610.500000000002 1.0000000180025095e-35 1.0000000180025095e-35
decision_type=2 2 2 2 2 2 2 2
left_child=1 3 4 5 -2 6 -1 -8
right_child=2 -3 -4 -5 -6 -7 7 -9
leaf_value=-0.0048035670082002572 0.0002867844798146329 -0.0094501157492685763 0.0077808920851061402 -0.0063176518059053109 0.0065173467960693843 0.0047662165210583755 -0.011758903473617632 0.0032427024529479106
leaf_weight=288213.00736023486 1334304.2580157593 215204.76782645285 252385.0455095619 299843.34673578292 244583.66931890696 185278.99916119128 31657.277395151556 264990.71443296969
leaf_count=1569576 5114208 1724776 428188 1951896 541080 568146 255893 799425
internal_value=0 -0.00306753 0.00215177 -0.00178381 0.00125195 -1.86193e-05 -0.00153441 0.00164178
internal_weight=0 1.28519e+06 1.83127e+06 1.06998e+06 1.57889e+06 770140 584861 296648
internal_count=12953188 6869712 6083476 5144936 5655288 3193040 2624894 1055318
is_linear=0
shrinkage=0.01


Tree=72
num_leaves=9
num_cat=0
split_feature=12 62 126 125 52 6 92 5
split_gain=203044 148412 135188 121599 120117 80178.7 87105 61761.5
threshold=1.0000000180025095e-35 1.0000000180025095e-35 6749.5000000000009 7687.0000000000009 1.0000000180025095e-35 6216.5000000000009 1.0000000180025095e-35 118.50000000000001
decision_type=2 2 2 2 2 2 2 2
left_child=1 -1 3 5 -2 6 7 -3
right_child=4 2 -4 -5 -6 -7 -8 -9
leaf_value=-0.010708796665939775 -0.011010984439758597 -0.01043941354090441 0.0053482342736331798 0.0044088920356768002 -0.00066890940642721965 0.00084765368032902616 0.0010621662395881037 -0.002724606088454107
leaf_weight=103163.85367054492 241519.83967715502 213134.63654208183 679303.82569418848 493067.99038161337 209904.74772091955 748630.2166524604 223223.48603893071 202227.64003396779
leaf_count=762188 2020032 1542092 1794881 1414240 1035400 2549388 805145 1029822
internal_value=0 0.00105075 0.00152472 0.000143368 -0.0062021 -0.00137276 -0.0039758 -0.0066833
internal_weight=0 2.66275e+06 2.55959e+06 1.88028e+06 451425 1.38722e+06 638586 415362
internal_count=12953188 9897756 9135568 7340687 3055432 5926447 3377059 2571914
is_linear=0
shrinkage=0.01


Tree=73
num_leaves=9
num_cat=0
split_feature=12 62 126 125 52 6 92 2
split_gain=199392 145768 132576 119235 118500 79040.6 85507.1 61933.3
threshold=1.0000000180025095e-35 1.0000000180025095e-35 6749.5000000000009 8182.5000000000009 1.0000000180025095e-35 6216.5000000000009 1.0000000180025095e-35 29.000000000000004
decision_type=2 2 2 2 2 2 2 2
left_child=1 -1 3 5 -2 6 -3 -8
right_child=4 2 -4 -5 -6 -7 7 -9
leaf_value=-0.010628696836519647 -0.01094421365828413 -0.0065950346481417725 0.0052976862873886244 0.0044209814023693887 -0.00066228277353831255 0.00085531867606738121 -0.010398080638538832 0.0034676205456439864
leaf_weight=102903.21163353324 240568.20006842911 417534.915710181 678929.4326030761 483633.12896125764 209885.08809176087 753833.52992099524 38986.675652682781 185428.87657673657
leaf_count=762188 2020032 2585305 1794881 1381978 1035400 2564448 255687 553269
internal_value=0 0.00104082 0.0015102 0.000141988 -0.00615343 -0.00134067 -0.00391938 0.0010588
internal_weight=0 2.66125e+06 2.55835e+06 1.87942e+06 450453 1.39578e+06 641950 224416
internal_count=12953188 9897756 9135568 7340687 3055432 5958709 3394261 808956
is_linear=0
shrinkage=0.01


Tree=74
num_leaves=9
num_cat=0
split_feature=6 2 5 62 92 2 6 2
split_gain=197140 99094.9 88426.6 87474.5 167682 83166.5 80832.1 50468.5
threshold=5034.5000000000009 54.500000000000007 703.50000000000011 1.0000000180025095e-35 1.0000000180025095e-35 25.500000000000004 951.50000000000011 54.500000000000007
decision_type=2 2 2 2 2 2 2 2
left_child=3 2 -2 -1 6 -6 -5 -8
right_child=1 -3 -4 4 5 -7 7 -9
leaf_value=-0.010714073906080234 -0.00061132902720659784 0.0055140571167498036 0.0062429739383637814 -0.011552374121316327 -0.0098973566162455315 0.0045417079670771925 -0.0055215896164909854 0.0013823234523263727
leaf_weight=137424.24306803942 1140328.7723913193 560336.65784016252 225422.80934031308 158937.0095770359 45004.623473696411 351045.56253489852 336142.04726941139 154574.3387690112
leaf_count=1119568 4782212 1243816 511688 1221104 306612 1044084 2090172 633932
internal_value=0 0.00197287 0.000520001 -0.00321345 -0.00222773 0.00290094 -0.00535434 -0.00334688
internal_weight=0 1.92609e+06 1.36575e+06 1.18313e+06 1.0457e+06 396050 649653 490716
internal_count=12953188 6537716 5293900 6415472 5295904 1350696 3945208 2724104
is_linear=0
shrinkage=0.01


Tree=75
num_leaves=9
num_cat=0
split_feature=12 62 126 52 125 6 92 5
split_gain=194100 141925 129487 116578 116399 75881.9 82427.4 60356.2
threshold=1.0000000180025095e-35 1.0000000180025095e-35 6749.5000000000009 1.0000000180025095e-35 7687.0000000000009 6216.5000000000009 1.0000000180025095e-35 118.50000000000001
decision_type=2 2 2 2 2 2 2 2
left_child=1 -1 4 -2 5 6 7 -3
right_child=3 2 -4 -5 -6 -7 -8 -9
leaf_value=-0.010514114228374638 -0.010853539487941252 -0.010254147245441428 0.0052346780317295344 -0.0006400733360098494 0.0043128718071912967 0.00081139090455117457 0.0010157037502998129 -0.0026138908531241206
leaf_weight=102451.30591917783 239225.34441686422 211909.43601231277 678127.9965845421 209736.57531613111 492313.35920067132 748131.99006072432 223001.23168851435 201918.28138709813
leaf_count=762188 2020032 1542092 1794881 1035400 1414240 2549388 805145 1029822
internal_value=0 0.00102664 0.00148934 -0.00608223 0.000136406 -0.00134821 -0.00388525 -0.00652625
internal_weight=0 2.65785e+06 2.5554e+06 448962 1.87727e+06 1.38496e+06 636829 413828
internal_count=12953188 9897756 9135568 3055432 7340687 5926447 3377059 2571914
is_linear=0
shrinkage=0.01


Tree=76
num_leaves=9
num_cat=0
split_feature=6 2 5 62 92 2 6 2
split_gain=190962 96395.1 86376.1 85258.9 162807 81315.6 79098.9 48999.3
threshold=5034.5000000000009 54.500000000000007 703.50000000000011 1.0000000180025095e-35 1.0000000180025095e-35 25.500000000000004 951.50000000000011 54.500000000000007
decision_type=2 2 2 2 2 2 2 2
left_child=3 2 -2 -1 6 -6 -5 -8
right_child=1 -3 -4 4 5 -7 7 -9
leaf_value=-0.010597772317809005 -0.00060889485191242929 0.0054387192859464183 0.00616983265837875 -0.01143012634316432 -0.0098115344449028995 0.0044811228639584288 -0.0054431524324849434 0.0013624416377732004
leaf_weight=136555.40332921594 1139684.5718986019 559214.30333508551 225100.80824171752 158152.72268573195 44901.166670888662 350786.90387242287 335359.95411337912 154546.77930852026
leaf_count=1119568 4782212 1243816 511688 1221104 306612 1044084 2090172 633932
internal_value=0 0.00194194 0.000509154 -0.0031673 -0.00219516 0.00285925 -0.00528124 -0.00329625
internal_weight=0 1.924e+06 1.36479e+06 1.1803e+06 1.04375e+06 395688 648059 489907
internal_count=12953188 6537716 5293900 6415472 5295904 1350696 3945208 2724104
is_linear=0
shrinkage=0.01


Tree=77
num_leaves=9
num_cat=0
split_feature=12 126 125 52 6 95 83 46
split_gain=188958 138424 123487 114699 81266.4 62530.3 46158.1 45052.8
threshold=1.0000000180025095e-35 6749.5000000000009 7687.0000000000009 1.0000000180025095e-35 6216.5000000000009 1.0000000180025095e-35 1.0000000180025095e-35 1.0000000180025095e-35
decision_type=2 2 2 2 2 2 2 2
left_child=1 2 4 7 5 -1 -6 -2
right_child=3 -3 -4 -5 6 -7 -8 -9
leaf_value=-0.0064751579744971926 -0.011305561855897999 0.0048590411361254388 0.003931152182562089 -0.00061827719777617096 -0.00091854242171812153 -2.0708454866816864e-06 0.0049231453604666083 0.02423401274527931
leaf_weight=454999.97746615857 234255.20227841288 691798.89604600519 502773.53697290272 209587.7706393525 608885.24533461779 222070.04518035054 173888.86147852242 3622.1077354550362
leaf_count=2810114 2016024 1902035 1497908 1035400 2369842 916026 401831 4008
internal_value=0 0.00101269 -0.000343105 -0.00601207 -0.00181517 -0.00435207 0.000379156 -0.0107644
internal_weight=0 2.65442e+06 1.96262e+06 447465 1.45984e+06 677070 782774 237877
internal_count=12953188 9897756 7995721 3055432 6497813 3726140 2771673 2020032
is_linear=0
shrinkage=0.01


Tree=78
num_leaves=9
num_cat=0
split_feature=12 62 126 52 125 6 92 5
split_gain=185567 137894 123973 113177 111386 72072.6 78647 59565.6
threshold=1.0000000180025095e-35 1.0000000180025095e-35 6749.5000000000009 1.0000000180025095e-35 8182.5000000000009 6216.5000000000009 1.0000000180025095e-35 118.50000000000001
decision_type=2 2 2 2 2 2 2 2
left_child=1 -1 4 -2 5 6 7 -3
right_child=3 2 -4 -5 -6 -7 -8 -9
leaf_value=-0.010399791794805669 -0.010700587246963678 -0.010062232235884094 0.0051267899929822855 -0.0006121481104087805 0.0042751618315947431 0.00079552064597880796 0.0010036249965127508 -0.0024840212494679731
leaf_weight=101976.62442669272 236908.68632198125 211632.16072422266 676948.67662660033 209569.36024212837 482359.44322032481 752843.19135788828 224065.31968182325 203410.24845010787
leaf_count=762188 2020032 1547935 1794881 1035400 1381978 2564448 808956 1037370
