tree
version=v3
num_class=1
num_tree_per_iteration=1
label_index=0
max_feature_idx=126
objective=binary sigmoid:1
feature_names=Column_0 Column_1 Column_2 Column_3 Column_4 Column_5 Column_6 Column_7 Column_8 Column_9 Column_10 Column_11 Column_12 Column_13 Column_14 Column_15 Column_16 Column_17 Column_18 Column_19 Column_20 Column_21 Column_22 Column_23 Column_24 Column_25 Column_26 Column_27 Column_28 Column_29 Column_30 Column_31 Column_32 Column_33 Column_34 Column_35 Column_36 Column_37 Column_38 Column_39 Column_40 Column_41 Column_42 Column_43 Column_44 Column_45 Column_46 Column_47 Column_48 Column_49 Column_50 Column_51 Column_52 Column_53 Column_54 Column_55 Column_56 Column_57 Column_58 Column_59 Column_60 Column_61 Column_62 Column_63 Column_64 Column_65 Column_66 Column_67 Column_68 Column_69 Column_70 Column_71 Column_72 Column_73 Column_74 Column_75 Column_76 Column_77 Column_78 Column_79 Column_80 Column_81 Column_82 Column_83 Column_84 Column_85 Column_86 Column_87 Column_88 Column_89 Column_90 Column_91 Column_92 Column_93 Column_94 Column_95 Column_96 Column_97 Column_98 Column_99 Column_100 Column_101 Column_102 Column_103 Column_104 Column_105 Column_106 Column_107 Column_108 Column_109 Column_110 Column_111 Column_112 Column_113 Column_114 Column_115 Column_116 Column_117 Column_118 Column_119 Column_120 Column_121 Column_122 Column_123 Column_124 Column_125 Column_126
feature_infos=[1:9] [0:77103] [0:120] [0:134] [20:50] [1:2139] [54:105192] [0:1] [0:1] [0:1] [0:1] [0:1] [0:1] [0:1] [0:1] [0:1] none [0:1] [0:1] [0:1] none [0:1] [0:1] [0:1] none [0:1] [0:1] [0:1] [0:1] [0:1] [0:1] [0:1] [0:1] [0:1] [0:1] [0:1] none [0:1] [0:1] [0:1] [0:1] [0:1] [0:1] [0:1] [0:1] [0:1] [0:1] [0:1] none [0:1] [0:1] [0:1] [0:1] [0:1] [0:1] [0:1] [0:1] none [1:1] none [0:1] [0:1] [0:1] [0:1] [0:1] [0:1] [0:1] [0:1] [0:1] [0:1] [0:1] [0:1] [0:1] [0:1] [0:1] [0:1] [0:1] [0:1] [0:1] [0:1] [0:1] [0:1] [0:1] [0:1] [0:1] [0:1] [0:1] [0:1] [0:1] [0:1] [0:1] [0:1] [0:1] [0:1] [0:1] [0:1] [0:1] [0:1] [0:1] [0:1] [0:1] [0:1] [0:1] [0:1] [0:1] [0:1] [0:1] [0:1] [0:1] [0:1] [0:1] [0:1] [0.02500000037252903:1] [0:1] [0:1] none none none none [0:1] [0:1] [0:1] [0:1] [0:1] [0:1] [0:632878] [0:612759]
tree_sizes=1183 1175 1171 1182 1172 1176 1177 1181 1179 1177 1182 1170 1174 1175 1182 1176 1180 1178 1176 1179 1177 1187 1178 1187 1181 1184 1179 1187 1175 1186 1182 1185 1180 1185 1173 1170 1183 1170 1175 1189 1173 1169 1177 1178 1187 1177 1173 1176 1170 1183 1188 1173 1175 1177 1185 1176 1183 1179 1166 1169 1164 1174 1173 1165 1178 1175 1180 1174 1181 1182 1174 1178 1179 1178 1164 1182 1164 1179 1177 1173 1179 1177 1177 1182 1179 1176 1185 1171 1180 1173 1177 1172 1187 1176 1177 1172 1182 1175 1171 1174 1189 1175 1192 1179 1172 1179 1189 1184 1174 1189 1176 1188 1184 1175 1192 1184 1191 1186 1176 1171 1178 1190 1193 1183 1176 1181 1177 1184 1191 1185 1174 1179 1180 1173 1169 1174 1198 1177 1171 1189 1188 1175 1191 1180 1166 1174 1179 1188 1172 1192 1173 1189 1169 1181 1183 1189 1193 1171 1177 1184 1189 1197 1175 1180 1168 1175 1195 1169 1179 1173 1177 1183 1202 1207 1166 1195 1176 1194 1191 1197 1182 1192 1196 1198 1166 1205 1195 1200 1195 1173 1193 1195 1192 1172 1194 1192 1183 1195 1174 1192 1190 1172 1191 1173 1191 1170 1185 1206 1188 1172 1189 1181 1183 1185 1172 1191 1173 1193 1183 1196 1173 1191 1197 1186 1195 1179 1176 1176 1192 1189 1174 1190 1177 1191 1190 1196 1192 1201 1192 1182 1188 1185 1187 1195 1191 1197 1190 1170 1200 1188 1186 1202 1191 1202 1178 1205 1196 1183 1196 1191 1176 1196 1189 1184 1185 1185 1202 1179 1203 1203 1203 1171 1170 1204 1166 1201 1183 1160 1172 1169 1212 1171 1206 1170 1190 1157 1183 1154 1201 1175 1170 1211 1157 1177 1189 1178 1178 1199 1166 1202 1169 1175 1200 1173 1163 1179 1202 1202 1164 1168 1191 1195 1204 1179 1197 1164 1179 1175 1194 1200 1163 1160 1195 1177 1173 1163 1200 1173 1194 1175 1197 1187 1167 1169 1201 1173 1163 1195 1160 1181 1172 1191 1166 1184 1190 1198 1166 1186 1167 1161 1171 1188 1164 1164 1188 1189 1162 1160 1183 1191 1185 1179 1183 1185 1161 1173 1187 1162 1195 1164 1156 1191 1178 1167 1187 1148 1178 1184 1170 1175 1197 1168 1164 1187 1174 1182 1174 1191 1197 1156 1176 1169 1179 1180 1161 1199 1181 1182 1191 1180 1170 1173 1185 1179 1169 1163 1174 1176 1180 1176 1189 1176 1186 1192 1189 1156 1195 1167 1193 1165 1186 1178 1180 1191 1190 1186 1168 1173 1189 1124 1183 1191 1171 1172 1185 1194 1183 1181 1181 1160 1170 1189 1178 1147 1177 1173 1168 1183 1188 1131 1182 1194 1190 1167 1179 1176 1184 1187 1170 1183 1179 1188 1149 1181 1153 1182 1195 1173 1188 1178 1153 1149 1190 1184 1177 1162 1157 1145 1174 1165 1145 1149 1174 1178 1183 1172 1192 1159 1148 1148 1155 1184 1181 1154 1172 1177 1126 1144 1158 1180 1154 1175 1171 1186 1152 1148 1178 1187 1185 1128 1122 1182 1186 1177 1163 1166 1152 1162 1152 1162 1153 1167 1156 1146 1197 1158 1144 1163 1146 1168 1177 1159 1158 1173 1147 1180 1177 1190 1158 1174 1135 1155 1149 1150 1157 1182 1180 1178 1166 1184 1153 1141 1168 1152 1161 1155 1157 1174 1172 1156 1173 1157 1185 1164 1203 1170 1160 1169 1173 1170 1187 1176 1172 1140 1163 1150 1178 1201 1163 1160 1156 1139 1197 1173 1181 1179 1165 1156 1130 1202 1161 1196 1149 1153 1173 1167 1158 1136 1165 1185 1153 1175 1167 1185 1157 1173 1183 1172 1158 1150 1152 1169 1159 1169 1155 1182 1166 1168 1162 1160 1163 1165 1185 1164 1153 1142 1163 1176 1171 1147 1165 1186 1155 1166 1151 1189 1152 1180 1170 1157 1173 1163 1155 1172 1149 1146 1171 1161 1151 1163 1192 1176 1152 1142 1189 1131 1160 1186 1154 1142 1149 1168 1194 1152 1165 1169 1157 1147 1168 1149 1170 1158 1146 1139 1169 1160 1189 1168 1164 1177 1157 1165 1180 1151 1127 1161 1145 1169 1175 1147 1152 1171 1135 1190 1174 1183 1165 1154 1159 1154 1155 1166 1145 1162 1158 1190 1161 1150 1162 1146 1142 1159 1125 1156 1167 1175 1190 1148 1151 1155 1166 1162 1176 1159 1172 1144 1163 1182 1147 1174 1179 1161 1164 1132 1151 1153 1154 1161 1155 1186 1142 1174 1143 1164 1186 1149 1144 1150 1177 1155 1185 1130 1130 1183 1166 1149 1172 1186 1162 1152 1154 1160 1162 1137 1149 1175 1151 1189 1156 1139 1181 1150 1190 1154 1141 1135 1175 1144 1150 1160 1181 1138 1181 1159 1152 1142 1168 1157 1171 1157 1188 1151 1144 1159 1153 1159 1179 1192 1152 1181 1157 1149 1150 1173 1158 1157 1165 1185 1151 1148 1175 1157 1151 1162 1169 1137 1188 1184 1151 1152 1152 1153 1181 1170 1156 1195 1149 1153 1142 1169 1151 1147 1160 1181 1162 1158 1193 1165 1166 1160 1184 1153 1153 1158 1172 1186 1163 1167 1159 1151 1144 1177 1196 1191 1147 1165 1150 1145 1187 1134 1159 1158 1156 1135 1178 1172 1146 1152 1153 1166 1195 1157 1165 1144 1114 1163 1171 1150 1131 1161 1155 1178 1166 1152 1160 1150 1172 1122 1151 1134 1208 1158 1167 1164 1136 1168 1152 1138 1189 1147 1140 1173 1167 1159 1172 1138 1149 1166 1159 1136 1154 1172 1182 1151 1156 1153 1168 1153 1177 1162 1146 1137 1144 1169 1160 1150 1139 1163 1156 1172 1138 1175 1158 1158 1171 1139 1176 1168 1160 1161 1152 1149 1133 1168 1167 1163 1144 1189 1160 1147 1131 1166 1178 1118 1144 1181 1177 1160 1155 1160 1165 1150 1150 1153 1156 1174 1166 1151 1154 1150 1138 1189 1147 1169 1173 1161 1120 1157 1186 1154 1136 1140 1162 1169 1154 1136 1150 1148 1163 1142 1160 1136 1165 1160 1154 1184 1135 1168 1144 1153

Tree=0
num_leaves=9
num_cat=0
split_feature=5 2 12 79 90 92 62 5
split_gain=765500 275135 257971 224742 168450 117199 182535 111874
threshold=238.50000000000003 51.000000000000007 1.0000000180025095e-35 1.0000000180025095e-35 1.0000000180025095e-35 1.0000000180025095e-35 1.0000000180025095e-35 70.500000000000014
decision_type=2 2 2 2 2 2 2 2
left_child=2 4 3 5 -2 7 -7 -1
right_child=1 -3 -4 -5 -6 6 -8 -9
leaf_value=-0.011302628647099765 -0.0044500848164230741 0.0095588346662285224 -0.013863049912060383 -0.010236885992459052 0.0038452368471287744 -0.015393664090798485 0.0060877644145220164 -0.00030957965373698315
leaf_weight=142469.94670414925 345734.41599261761 640565.71651303768 293856.40317600965 331965.16329795122 838474.49806237221 44833.938844561577 336058.97537779808 264338.00760728121
leaf_count=887104 1686032 1356040 1977948 1997320 2718760 315296 941212 1073476
internal_value=5.5808e-08 0.00427924 -0.00552412 -0.00333556 0.00142339 -0.000427103 0.00355924 -0.0041595
internal_weight=0 1.82477e+06 1.41352e+06 1.11967e+06 1.18421e+06 787701 380893 406808
internal_count=12953188 5760832 7192356 5214408 4404792 3217088 1256508 1960580
is_linear=0
shrinkage=1


Tree=1
num_leaves=9
num_cat=0
split_feature=5 12 12 79 2 52 62 92
split_gain=750502 263072 259162 231678 176384 159654 114079 169887
threshold=244.50000000000003 1.0000000180025095e-35 1.0000000180025095e-35 1.0000000180025095e-35 51.000000000000007 1.0000000180025095e-35 1.0000000180025095e-35 1.0000000180025095e-35
decision_type=2 2 2 2 2 2 2 2
left_child=1 3 4 6 -2 -4 -1 -8
right_child=2 -3 5 -5 -6 -7 7 -9
leaf_value=-0.015364127724266943 0.0030598557080083371 -0.013646193235736702 -0.016338641030822752 -0.010034408634468589 0.009919280197189408 0.0017786309110003093 -0.0034683717311146051 0.0060073869349590563
leaf_weight=47050.249163150787 971022.81919458508 300711.26004245877 89387.583713084459 343902.252066046 610602.877205953 106701.55884662271 432557.69147583842 336308.25662136078
leaf_count=331996 3293908 2019364 645956 2062116 1237804 390112 2028716 943216
internal_value=0 -0.00531125 0.0043636 -0.00315022 0.00570801 -0.00648016 -0.000248583 0.000676403
internal_weight=0 1.46053e+06 1.77771e+06 1.15982e+06 1.58163e+06 196089 815916 768866
internal_count=12953188 7385408 5567780 5366044 4531712 1036068 3303928 2971932
is_linear=0
shrinkage=0.01


Tree=2
num_leaves=9
num_cat=0
split_feature=5 2 12 79 90 92 62 5
split_gain=735944 264313 247803 215826 162951 112775 175351 109657
threshold=238.50000000000003 51.000000000000007 1.0000000180025095e-35 1.0000000180025095e-35 1.0000000180025095e-35 1.0000000180025095e-35 1.0000000180025095e-35 70.500000000000014
decision_type=2 2 2 2 2 2 2 2
left_child=2 4 3 5 -2 7 -7 -1
right_child=1 -3 -4 -5 -6 6 -8 -9
leaf_value=-0.011155170865991878 -0.0043801914810959394 0.0093708201454591796 -0.013590601636314382 -0.01003526633444283 0.0037787157907953283 -0.015089734881998898 0.0059669760858312593 -0.00027138767877600442
leaf_weight=142462.11489315331 345724.20577155054 640507.32283478975 293800.80959971249 331931.06898248196 838464.53955386579 44823.335234671831 336046.69507473707 264337.008931458
leaf_count=887104 1686032 1356040 1977948 1997320 2718760 315296 941212 1073476
internal_value=0 0.0041958 -0.00541677 -0.00327182 0.00139672 -0.000421645 0.00348888 -0.00408292
internal_weight=0 1.8247e+06 1.4134e+06 1.1196e+06 1.18419e+06 787669 380870 406799
internal_count=12953188 5760832 7192356 5214408 4404792 3217088 1256508 1960580
is_linear=0
shrinkage=0.01


Tree=3
num_leaves=9
num_cat=0
split_feature=5 12 12 79 2 52 62 92
split_gain=721435 252858 250383 222702 169464 156392 109716 163225
threshold=244.50000000000003 1.0000000180025095e-35 1.0000000180025095e-35 1.0000000180025095e-35 51.000000000000007 1.0000000180025095e-35 1.0000000180025095e-35 1.0000000180025095e-35
decision_type=2 2 2 2 2 2 2 2
left_child=1 3 4 6 -2 -4 -1 -8
right_child=2 -3 5 -5 -6 -7 7 -9
leaf_value=-0.015071680356507194 0.0030042616430230231 -0.013381166130898788 -0.016138818714137099 -0.0098396400045873463 0.0097281975138818269 0.0017932017104146992 -0.0034002719783398252 0.0058881497567109054
leaf_weight=47029.029066622257 971001.94355401397 300600.57622289658 89374.534629106522 343834.46140408516 610489.75136479735 106700.07307837903 432536.56489366293 336283.96927011013
leaf_count=331996 3293908 2019364 645956 2062116 1237804 390112 2028716 943216
internal_value=0 -0.00520792 0.00427835 -0.00308935 0.00559985 -0.00638055 -0.000244479 0.000662506
internal_weight=0 1.46028e+06 1.77757e+06 1.15968e+06 1.58149e+06 196075 815850 768821
internal_count=12953188 7385408 5567780 5366044 4531712 1036068 3303928 2971932
is_linear=0
shrinkage=0.01


Tree=4
num_leaves=9
num_cat=0
split_feature=5 12 12 79 2 52 5 90
split_gain=707624 254381 238174 207312 177145 160143 109838 108862
threshold=238.50000000000003 1.0000000180025095e-35 1.0000000180025095e-35 1.0000000180025095e-35 51.000000000000007 1.0000000180025095e-35 703.50000000000011 1.0000000180025095e-35
decision_type=2 2 2 2 2 2 2 2
left_child=2 4 3 7 6 -3 -2 -1
right_child=1 5 -4 -5 -6 -7 -8 -9
leaf_value=0.0029074679172321617 0.0011051488407356541 -0.016118328924091162 -0.0133283159568115 -0.009839497606843264 0.0095863233736642305 0.0017141139321583438 0.009320341906693716 -0.0045749884608429431
leaf_weight=437735.2326502353 787217.20179778337 92799.628509968519 293638.44845210016 331831.43408574164 629166.11098058522 110119.10743770003 205164.15845036507 349841.10951840878
leaf_count=1491644 2961912 673344 1977948 1997320 1282560 404140 438876 1725444
internal_value=0 0.00411439 -0.00531234 -0.00320962 0.00543529 -0.00644109 0.00280355 -0.000416236
internal_weight=0 1.82447e+06 1.41305e+06 1.11941e+06 1.62155e+06 202919 992381 787576
internal_count=12953188 5760832 7192356 5214408 4683348 1077484 3400788 3217088
is_linear=0
shrinkage=0.01


Tree=5
num_leaves=9
num_cat=0
split_feature=5 12 12 79 2 52 90 62
split_gain=693779 252960 232181 203374 172397 158184 110265 163654
threshold=236.50000000000003 1.0000000180025095e-35 1.0000000180025095e-35 1.0000000180025095e-35 51.000000000000007 1.0000000180025095e-35 1.0000000180025095e-35 1.0000000180025095e-35
decision_type=2 2 2 2 2 2 2 2
left_child=2 4 3 6 -2 -3 7 -1
right_child=1 5 -4 -5 -6 -7 -8 -9
leaf_value=-0.014886612879022307 0.0027805430331181097 -0.015990206153569827 -0.013263300036703929 -0.0098333042889544846 0.009457891596472737 0.0016040887635217511 -0.0046768967741791052 0.004987256787701279
leaf_weight=46341.655165269971 999851.94513809681 93704.529362499714 290308.8832025528 327685.7775247246 630458.99492838979 112388.48813404143 345070.09373366833 391301.92299674451
leaf_count=326652 3426172 680692 1959912 1978616 1289908 414828 1712084 1164324
internal_value=0 0.00404316 -0.00530081 -0.00321906 0.00536275 -0.00639553 -0.000449978 0.00288283
internal_weight=0 1.8364e+06 1.40071e+06 1.1104e+06 1.63031e+06 206093 782714 437644
internal_count=12953188 5811600 7141588 5181676 4716080 1095520 3203060 1490976
is_linear=0
shrinkage=0.01


Tree=6
num_leaves=9
num_cat=0
split_feature=5 12 12 79 2 52 60 62
split_gain=680263 238450 235799 210076 159680 147443 106052 105947
threshold=244.50000000000003 1.0000000180025095e-35 1.0000000180025095e-35 1.0000000180025095e-35 51.000000000000007 1.0000000180025095e-35 1.0000000180025095e-35 1.0000000180025095e-35
decision_type=2 2 2 2 2 2 2 2
left_child=1 3 4 7 6 -4 -2 -1
right_child=2 -3 5 -5 -6 -7 -8 -9
leaf_value=-0.01481514381853952 0.0034826054657018371 -0.013001072228023269 -0.015674823177843585 -0.009560384676180032 0.0094464256853714137 0.0017420772968367425 -0.016433222775122172 0.0006521991231204495
leaf_weight=46992.193344324827 943428.45614342391 300239.58019827306 89270.514912307262 343614.86674587429 610110.22533619404 106700.67186671495 27517.372010052204 768719.81464594603
leaf_count=331996 3094844 2019364 645956 2062116 1237804 390112 199064 2971932
internal_value=0 -0.0050586 0.00415488 -0.00300168 0.00543735 -0.00619182 0.00291818 -0.000238856
internal_weight=0 1.45957e+06 1.77703e+06 1.15933e+06 1.58106e+06 195971 970946 815712
internal_count=12953188 7385408 5567780 5366044 4531712 1036068 3293908 3303928
is_linear=0
shrinkage=0.01


Tree=7
num_leaves=9
num_cat=0
split_feature=5 12 12 79 2 52 90 62
split_gain=667123 243038 223405 195507 165854 152327 108553 157994
threshold=236.50000000000003 1.0000000180025095e-35 1.0000000180025095e-35 1.0000000180025095e-35 51.000000000000007 1.0000000180025095e-35 1.0000000180025095e-35 1.0000000180025095e-35
decision_type=2 2 2 2 2 2 2 2
left_child=2 4 3 6 -2 -3 7 -1
right_child=1 5 -4 -5 -6 -7 -8 -9
leaf_value=-0.014605367049012857 0.0027261018197265027 -0.015692799068539758 -0.013014607438358241 -0.0096449987344428886 0.0092766356184708111 0.0015781121562275678 -0.0046368583101794392 0.0049312045154522805
leaf_weight=46292.081710755825 999796.96695932746 93598.093619629741 290000.63944256306 327496.2356825918 630124.35844552517 112386.74996972084 345054.71809324622 391274.91509823501
leaf_count=326652 3426172 680692 1959912 1978616 1289908 414828 1712084 1164324
internal_value=0 0.00396509 -0.00519925 -0.00315762 0.00525853 -0.00626967 -0.000442904 0.00286435
internal_weight=0 1.83591e+06 1.40012e+06 1.11012e+06 1.62992e+06 205985 782622 437567
internal_count=12953188 5811600 7141588 5181676 4716080 1095520 3203060 1490976
is_linear=0
shrinkage=0.01


Tree=8
num_leaves=9
num_cat=0
split_feature=5 12 12 79 2 52 60 62
split_gain=654154 229467 226578 202103 153555 141878 103946 101932
threshold=244.50000000000003 1.0000000180025095e-35 1.0000000180025095e-35 1.0000000180025095e-35 51.000000000000007 1.0000000180025095e-35 1.0000000180025095e-35 1.0000000180025095e-35
decision_type=2 2 2 2 2 2 2 2
left_child=1 3 4 7 6 -4 -2 -1
right_child=2 -3 5 -5 -6 -7 -8 -9
leaf_value=-0.014541935519669502 0.0034207359992653825 -0.012758802981238637 -0.01538257372141413 -0.009380150914735071 0.0092650550876069195 0.0017088810802829307 -0.016296736674473355 0.00063856673381381963
leaf_weight=46932.924536988139 943369.04358114302 299878.01491121948 89147.346474856138 343395.27024066448 609727.91506356001 106700.31100523472 27516.385872900486 768665.82512514293
leaf_count=331996 3094844 2019364 645956 2062116 1237804 390112 199064 2971932
internal_value=0 -0.00496194 0.00407483 -0.00294458 0.00533195 -0.00607093 0.00286191 -0.000234982
internal_weight=0 1.45887e+06 1.77646e+06 1.15899e+06 1.58061e+06 195848 970885 815599
internal_count=12953188 7385408 5567780 5366044 4531712 1036068 3293908 3303928
is_linear=0
shrinkage=0.01


Tree=9
num_leaves=9
num_cat=0
split_feature=5 12 12 79 2 52 92 62
split_gain=641562 233529 215072 187986 159612 146775 106966 157495
threshold=236.50000000000003 1.0000000180025095e-35 1.0000000180025095e-35 1.0000000180025095e-35 51.000000000000007 1.0000000180025095e-35 1.0000000180025095e-35 1.0000000180025095e-35
decision_type=2 2 2 2 2 2 2 2
left_child=2 4 3 6 -2 -3 -1 -8
right_child=1 5 -4 -5 -6 -7 7 -9
leaf_value=-0.0040340700084271477 0.0026727723393873987 -0.015408114063386429 -0.012774622799806202 -0.00946190950849524 0.009100323457946766 0.0015525983204462718 -0.014275066536804317 0.0057091533862371237
leaf_weight=401884.03947806358 999722.03059111536 93448.627148702741 289601.57094529271 327250.70258569717 629689.6517380923 112384.10336011648 44681.216786175966 335937.25110882521
leaf_count=1946552 3426172 680692 1959912 1978616 1289908 414828 315296 941212
internal_value=0 0.00388887 -0.00510028 -0.00309759 0.00515671 -0.00614761 -0.000435958 0.00336318
internal_weight=0 1.83524e+06 1.39935e+06 1.10975e+06 1.62941e+06 205833 782503 380618
internal_count=12953188 5811600 7141588 5181676 4716080 1095520 3203060 1256508
is_linear=0
shrinkage=0.01


Tree=10
num_leaves=9
num_cat=0
split_feature=5 12 12 79 2 52 60 62
split_gain=629117 223737 214470 199879 142798 134281 101723 98979.2
threshold=246.50000000000003 1.0000000180025095e-35 1.0000000180025095e-35 1.0000000180025095e-35 51.000000000000007 1.0000000180025095e-35 1.0000000180025095e-35 1.0000000180025095e-35
decision_type=2 2 2 2 2 2 2 2
left_child=1 3 4 7 6 -4 -2 -1
right_child=2 -3 5 -5 -6 -7 -8 -9
leaf_value=-0.014283081309523835 0.003425977527695653 -0.012500839098915946 -0.015050230496841333 -0.0092252631112374091 0.0090740926294377681 0.0016927335405880692 -0.016140568175580353 0.00068251819662826728
leaf_weight=46856.380883306265 937855.23053608835 301866.90973891318 87727.725690364838 345886.59092797339 603140.34948793054 105515.43393263221 27344.609426498413 777549.90915611386
leaf_count=331996 3064784 2034060 635936 2079484 1227116 385436 197728 2996648
internal_value=0 -0.00482492 0.00403214 -0.00284498 0.00525694 -0.00590817 0.00287165 -0.000168074
internal_weight=0 1.47216e+06 1.76158e+06 1.17029e+06 1.56834e+06 193243 965200 824406
internal_count=12953188 7442188 5511000 5408128 4489628 1021372 3262512 3328644
is_linear=0
shrinkage=0.01


Tree=11
num_leaves=9
num_cat=0
split_feature=5 90 12 79 90 62 2 6
split_gain=617121 224838 207148 180762 105488 147511 93295 93105.8
threshold=236.50000000000003 1.0000000180025095e-35 1.0000000180025095e-35 1.0000000180025095e-35 1.0000000180025095e-35 1.0000000180025095e-35 61.000000000000007 1803.5000000000002
decision_type=2 2 2 2 2 2 2 2
left_child=2 -2 3 4 5 -1 -3 -6
right_child=1 6 -4 -5 7 -7 -8 -9
leaf_value=-0.014079229544397994 -0.002839501316804798 0.0044839132018930092 -0.0125430247431741 -0.0092835892388414415 -0.011208747584562747 0.0048263243187695237 0.011193930005785847 -0.00050273056185353164
leaf_weight=46138.77333624661 397699.76051399112 1185638.7999613732 289117.81435218453 326952.17856620252 130875.76002530754 391197.83061955869 251092.85932669044 214143.6482731849
leaf_count=326652 1832324 3576472 1959912 1978616 824312 1164324 402804 887772
internal_value=0 0.00381467 -0.0050041 -0.00303924 -0.000429677 0.0028318 0.0056566 -0.00456383
internal_weight=0 1.83443e+06 1.39843e+06 1.10931e+06 782356 437337 1.43673e+06 345019
internal_count=12953188 5811600 7141588 5181676 3203060 1490976 3979276 1712084
is_linear=0
shrinkage=0.01


Tree=12
num_leaves=9
num_cat=0
split_feature=5 12 12 79 2 52 5 62
split_gain=605165 215575 207514 192407 138669 131869 100132 95292.3
threshold=246.50000000000003 1.0000000180025095e-35 1.0000000180025095e-35 1.0000000180025095e-35 51.000000000000007 1.0000000180025095e-35 703.50000000000011 1.0000000180025095e-35
decision_type=2 2 2 2 2 2 2 2
left_child=1 3 4 7 6 -4 -2 -1
right_child=2 -3 5 -5 -6 -7 -8 -9
leaf_value=-0.01402966572349317 0.001136623286286737 -0.012276482758844534 -0.014893444427351629 -0.0090548245689206688 0.0089236205971728547 0.0017041960638338426 0.0090108542703429568 0.0006686028926747551
leaf_weight=46761.802693977952 760005.36572173238 301333.61699427664 87617.186131626368 345560.39735358953 602650.34723855555 105515.82049742341 205069.50756427646 777465.15608005226
leaf_count=331996 2823636 2034060 635936 2079484 1227116 385436 438876 2996648
internal_value=0 -0.00473417 0.00395512 -0.0027913 0.00516003 -0.00582553 0.00280982 -0.000165291
internal_weight=0 1.47112e+06 1.76086e+06 1.16979e+06 1.56773e+06 193133 965075 824227
internal_count=12953188 7442188 5511000 5408128 4489628 1021372 3262512 3328644
is_linear=0
shrinkage=0.01


Tree=13
num_leaves=9
num_cat=0
split_feature=5 12 12 79 2 52 5 92
split_gain=593649 217121 199606 173848 149408 139206 104357 104145
threshold=236.50000000000003 1.0000000180025095e-35 1.0000000180025095e-35 1.0000000180025095e-35 51.000000000000007 1.0000000180025095e-35 703.50000000000011 1.0000000180025095e-35
decision_type=2 2 2 2 2 2 2 2
left_child=2 4 3 7 6 -3 -2 -1
right_child=1 5 -4 -5 -6 -7 -8 -9
leaf_value=-0.0039735799094711829 0.00092050554663174894 -0.0149843068718736 -0.012319075157514179 -0.0091099952113910931 0.0087841584075832157 0.001548804516149942 0.0089227045983548865 0.0033270470527127479
leaf_weight=401828.34328860044 794472.84087319672 93132.671282783151 288554.31249952316 326604.23227965832 628629.78312151134 112377.22668384016 205024.68563513458 380347.52464810014
leaf_count=1946552 2987296 680692 1959912 1978616 1289908 414828 438876 1256508
internal_value=0 0.00374185 -0.00491031 -0.00298222 0.0049644 -0.00594365 0.00256198 -0.000423515
internal_weight=0 1.83364e+06 1.39733e+06 1.10878e+06 1.62813e+06 205510 999498 782176
internal_count=12953188 5811600 7141588 5181676 4716080 1095520 3426172 3203060
is_linear=0
shrinkage=0.01


Tree=14
num_leaves=9
num_cat=0
split_feature=5 12 12 79 2 52 60 62
split_gain=582088 207757 199438 185234 133461 127057 98818.4 93907.2
threshold=246.50000000000003 1.0000000180025095e-35 1.0000000180025095e-35 1.0000000180025095e-35 51.000000000000007 1.0000000180025095e-35 1.0000000180025095e-35 1.0000000180025095e-35
decision_type=2 2 2 2 2 2 2 2
left_child=1 3 4 7 6 -4 -2 -1
right_child=2 -3 5 -5 -6 -7 -8 -9
leaf_value=-0.013932283077231478 0.0033023009822706023 -0.01205809894351275 -0.014631420462828192 -0.0088883588138455229 0.0087558701182880797 0.0016716848322411257 -0.015985538171155014 0.00066491111257896949
leaf_weight=46720.36844907701 937615.01452516019 300717.24730349332 87399.252448350191 345185.75686301291 602014.64754658937 105514.54634326696 27337.068107962608 777400.23823800683
leaf_count=331996 3064784 2034060 635936 2079484 1227116 385436 197728 2996648
internal_value=0 -0.00464498 0.00387984 -0.00273851 0.00506102 -0.00571441 0.00275588 -0.000162621
internal_weight=0 1.47002e+06 1.75988e+06 1.16931e+06 1.56697e+06 192914 964952 824121
internal_count=12953188 7442188 5511000 5408128 4489628 1021372 3262512 3328644
is_linear=0
shrinkage=0.01


Tree=15
num_leaves=9
num_cat=0
split_feature=5 90 12 79 92 62 5 2
split_gain=571120 209643 192438 167237 102551 145105 102468 88489.3
threshold=236.50000000000003 1.0000000180025095e-35 1.0000000180025095e-35 1.0000000180025095e-35 1.0000000180025095e-35 1.0000000180025095e-35 70.500000000000014 61.000000000000007
decision_type=2 2 2 2 2 2 2 2
left_child=2 -2 3 4 6 -6 -1 -3
right_child=1 7 -4 -5 5 -7 -8 -9
leaf_value=-0.010757747953958665 -0.0027580329907418793 0.0043086211733442707 -0.012102329798268901 -0.0089409116663484185 -0.013672815689261217 0.0055524210124015651 -0.00019956253795261323 0.010849993948075768
leaf_weight=142353.31234875321 397258.80059608817 1184763.0581019372 287916.22365224361 326209.93196457624 44456.053456410766 335814.59252560139 259451.97898222506 250531.70388945937
leaf_count=887104 1832324 3576472 1959912 1978616 315296 941212 1059448 402804
internal_value=0 0.003671 -0.00481843 -0.00292618 -0.000417393 0.00330487 -0.00394016 0.00545042
internal_weight=0 1.83255e+06 1.3962e+06 1.10829e+06 782076 380271 401805 1.43529e+06
internal_count=12953188 5811600 7141588 5181676 3203060 1256508 1946552 3979276
is_linear=0
shrinkage=0.01


Tree=16
num_leaves=9
num_cat=0
split_feature=5 12 12 79 2 52 60 62
split_gain=560020 200344 192992 178374 129656 124831 96266.8 90502.1
threshold=246.50000000000003 1.0000000180025095e-35 1.0000000180025095e-35 1.0000000180025095e-35 51.000000000000007 1.0000000180025095e-35 1.0000000180025095e-35 1.0000000180025095e-35
decision_type=2 2 2 2 2 2 2 2
left_child=1 3 4 7 6 -4 -2 -1
right_child=2 -3 5 -5 -6 -7 -8 -9
leaf_value=-0.013695217261182615 0.0032359556102905984 -0.01184779112302238 -0.014484337323038965 -0.0087265939592965133 0.0086126144886056397 0.0016825407642414184 -0.015805698920271026 0.00065164179243838109
leaf_weight=46605.125510282815 937461.38962765038 300032.05915420502 87257.171172887087 344765.86266803741 601386.22910326719 105515.03112089634 27324.002461493015 777290.19141736627
leaf_count=331996 3064784 2034060 635936 2079484 1227116 385436 197728 2996648
internal_value=0 -0.00455854 0.0038062 -0.00268716 0.0049683 -0.0056353 0.00269667 -0.000159914
internal_weight=0 1.46869e+06 1.75894e+06 1.16866e+06 1.56617e+06 192772 964785 823895
internal_count=12953188 7442188 5511000 5408128 4489628 1021372 3262512 3328644
is_linear=0
shrinkage=0.01


Tree=17
num_leaves=9
num_cat=0
split_feature=5 12 12 79 2 52 5 90
split_gain=549492 201923 185588 160896 139982 132195 101721 101086
threshold=236.50000000000003 1.0000000180025095e-35 1.0000000180025095e-35 1.0000000180025095e-35 51.000000000000007 1.0000000180025095e-35 703.50000000000011 1.0000000180025095e-35
decision_type=2 2 2 2 2 2 2 2
left_child=2 4 3 7 6 -3 -2 -1
right_child=1 5 -4 -5 -6 -7 -8 -9
leaf_value=0.0027833248925073616 0.00083538331313083288 -0.014586884830778885 -0.011892355196880273 -0.0087761262608109843 0.0084830521178280976 0.0015441161655785733 0.0087380239792577384 -0.0044583683845663353
leaf_weight=436928.80959720165 794268.29310423136 92726.611747518182 287208.35882130265 325772.3276976943 627275.14940799773 112368.12643012404 204897.92636469007 344923.92760157585
leaf_count=1490976 2987296 680692 1959912 1978616 1289908 414828 438876 1712084
internal_value=0 0.00360137 -0.00472909 -0.00287164 0.00478045 -0.00574897 0.00245597 -0.000411437
internal_weight=0 1.83154e+06 1.39483e+06 1.10763e+06 1.62644e+06 205095 999166 781853
internal_count=12953188 5811600 7141588 5181676 4716080 1095520 3426172 3203060
is_linear=0
shrinkage=0.01


Tree=18
num_leaves=9
num_cat=0
split_feature=5 90 12 79 92 62 5 2
split_gain=538788 198662 182303 157851 99258.2 140284 100402 84976.6
threshold=236.50000000000003 1.0000000180025095e-35 1.0000000180025095e-35 1.0000000180025095e-35 1.0000000180025095e-35 1.0000000180025095e-35 70.500000000000014 61.000000000000007
decision_type=2 2 2 2 2 2 2 2
left_child=2 -2 3 4 6 -6 -1 -3
right_child=1 7 -4 -5 5 -7 -8 -9
leaf_value=-0.010623666941652588 -0.002694620621683296 0.0041809777008987121 -0.011789151541507626 -0.0086946936879309759 -0.013459613386381275 0.0054639940439936375 -0.00017081443366497349 0.010597153738565268
leaf_weight=142289.40548788011 396898.96731442958 1183997.0327614695 286827.29292137921 325536.38425251842 44349.186421841383 335726.45289498568 259438.13004130125 250003.16586476564
leaf_count=887104 1832324 3576472 1959912 1978616 315296 941212 1059448 402804
internal_value=0 0.00356661 -0.00468406 -0.00284367 -0.000407349 0.00325589 -0.00387315 0.00529957
internal_weight=0 1.8309e+06 1.39417e+06 1.10734e+06 781803 380076 401728 1.434e+06
internal_count=12953188 5811600 7141588 5181676 3203060 1256508 1946552 3979276
is_linear=0
shrinkage=0.01


Tree=19
num_leaves=9
num_cat=0
split_feature=5 12 12 79 2 52 5 62
split_gain=528684 189824 183104 168673 123610 120450 93702.7 87595.4
threshold=246.50000000000003 1.0000000180025095e-35 1.0000000180025095e-35 1.0000000180025095e-35 51.000000000000007 1.0000000180025095e-35 703.50000000000011 1.0000000180025095e-35
decision_type=2 2 2 2 2 2 2 2
left_child=1 3 4 7 6 -4 -2 -1
right_child=2 -3 5 -5 -6 -7 -8 -9
leaf_value=-0.013489782583119865 0.00099589242317200369 -0.011544234948380248 -0.014218108447847329 -0.0084931956350571512 0.0083941236149488816 0.0016772241677096449 0.0086174502046089015 0.00064145199837432193
leaf_weight=46489.539582565427 759713.48379695415 298873.64225980639 86963.421946704388 344058.12385551631 600286.46281885356 105514.79980288446 204795.88384698331 777088.39918065071
leaf_count=331996 2823636 2034060 635936 2079484 1227116 385436 438876 2996648
internal_value=0 -0.00443304 0.00369937 -0.00261282 0.00483149 -0.00550443 0.00261419 -0.000156232
internal_weight=0 1.46651e+06 1.75727e+06 1.16764e+06 1.5648e+06 192478 964509 823578
internal_count=12953188 7442188 5511000 5408128 4489628 1021372 3262512 3328644
is_linear=0
shrinkage=0.01


Tree=20
num_leaves=9
num_cat=0
split_feature=5 90 12 79 92 62 5 2
split_gain=518440 191683 175914 151901 97750.5 135661 98457.5 82546.7
threshold=236.50000000000003 1.0000000180025095e-35 1.0000000180025095e-35 1.0000000180025095e-35 1.0000000180025095e-35 1.0000000180025095e-35 70.500000000000014 61.000000000000007
decision_type=2 2 2 2 2 2 2 2
left_child=2 -2 3 4 6 -6 -1 -3
right_child=1 7 -4 -5 5 -7 -8 -9
leaf_value=-0.010527322050680694 -0.0026525077722978829 0.0040999360941951692 -0.011588630944142274 -0.0085359915789461321 -0.013229902704378172 0.0054040330472018274 -0.00017495731662420269 0.010428254931152124
leaf_weight=142235.96537649632 396699.58790375292 1183458.5636854321 286023.112997666 325038.80572640896 44217.146600812674 335658.86666256189 259438.40960741043 249592.39291653037
leaf_count=887104 1832324 3576472 1959912 1978616 315296 941212 1059448 402804
internal_value=0 0.0034992 -0.00459782 -0.00279088 -0.00040155 0.00323506 -0.00384081 0.00520213
internal_weight=0 1.82975e+06 1.39261e+06 1.10659e+06 781550 379876 401674 1.43305e+06
internal_count=12953188 5811600 7141588 5181676 3203060 1256508 1946552 3979276
is_linear=0
shrinkage=0.01


Tree=21
num_leaves=9
num_cat=0
split_feature=5 12 12 79 62 52 2 62
split_gain=508737 183214 177215 162492 121100 118390 92814.6 84469.2
threshold=246.50000000000003 1.0000000180025095e-35 1.0000000180025095e-35 1.0000000180025095e-35 1.0000000180025095e-35 1.0000000180025095e-35 51.000000000000007 1.0000000180025095e-35
decision_type=2 2 2 2 2 2 2 2
left_child=1 3 4 7 -2 -4 -6 -1
right_child=2 -3 5 -5 6 -7 -8 -9
leaf_value=-0.013268142156144747 -0.011696422691220926 -0.011349300216237375 -0.014080359959652764 -0.0083412038499110861 0.0032228627216676596 0.0016869700230577123 0.0082798437888295748 0.00062870553559339984
leaf_weight=46347.855942346156 43558.121265158057 298025.63430015743 86791.728867560625 343537.49756947905 921474.85078278184 105515.2149604857 598778.55750156194 776946.75038121641
leaf_count=331996 277888 2034060 635936 2079484 2988632 385436 1223108 2996648
internal_value=0 -0.00435153 0.00362962 -0.0025642 0.00474361 -0.00542912 0.00521464 -0.000153626
internal_weight=0 1.46486e+06 1.75612e+06 1.16683e+06 1.56381e+06 192307 1.52025e+06 823295
internal_count=12953188 7442188 5511000 5408128 4489628 1021372 4211740 3328644
is_linear=0
shrinkage=0.01


Tree=22
num_leaves=9
num_cat=0
split_feature=5 12 12 79 2 52 5 90
split_gain=498896 185425 169807 146196 129999 125782 97318.8 96373.2
threshold=236.50000000000003 1.0000000180025095e-35 1.0000000180025095e-35 1.0000000180025095e-35 51.000000000000007 1.0000000180025095e-35 703.50000000000011 1.0000000180025095e-35
decision_type=2 2 2 2 2 2 2 2
left_child=2 4 3 7 6 -3 -2 -1
right_child=1 5 -4 -5 -6 -7 -8 -9
leaf_value=0.0027256719386447061 0.00073981809497028212 -0.014194570934000823 -0.011393964300299922 -0.008381127158041065 0.008139088454733932 0.0015646573296922686 0.0084735620105225312 -0.0043475791884101693
leaf_weight=436486.17861828953 794002.75489206612 92211.761698015034 285160.28537070751 324504.71757244319 625293.16345585138 112357.36351345479 204648.6927651763 344786.51097708941
leaf_count=1490976 2987296 680692 1959912 1978616 1289908 414828 438876 1712084
internal_value=0 0.00343324 -0.00451357 -0.00273923 0.00456348 -0.00553899 0.00232466 -0.000395852
internal_weight=0 1.82851e+06 1.39094e+06 1.10578e+06 1.62394e+06 204569 998651 781273
internal_count=12953188 5811600 7141588 5181676 4716080 1095520 3426172 3203060
is_linear=0
shrinkage=0.01


Tree=23
num_leaves=9
num_cat=0
split_feature=5 12 12 79 62 52 2 62
split_gain=489498 176865 170372 156548 118395 114228 89234.3 83252.5
threshold=246.50000000000003 1.0000000180025095e-35 1.0000000180025095e-35 1.0000000180025095e-35 1.0000000180025095e-35 1.0000000180025095e-35 51.000000000000007 1.0000000180025095e-35
decision_type=2 2 2 2 2 2 2 2
left_child=1 3 4 7 -2 -4 -6 -1
right_child=2 -3 5 -5 6 -7 -8 -9
leaf_value=-0.01317984481373808 -0.011603577168257136 -0.011158808043131404 -0.013848890192147616 -0.0081923587350861502 0.0031673550533154434 0.0016544792771888924 0.0081283887587029341 0.00062518052110284092
leaf_weight=46286.861625395715 43547.189561203122 297113.71196828038 86473.551700800657 342981.27692703158 921272.58522957563 105513.63452297449 597849.76780907065 776855.24750621617
leaf_count=331996 277888 2034060 635936 2079484 2988632 385436 1223108 2996648
internal_value=0 -0.00427111 0.00356153 -0.0025162 0.00465373 -0.00532844 0.00511977 -0.000151103
internal_weight=0 1.46324e+06 1.75466e+06 1.16612e+06 1.56267e+06 191987 1.51912e+06 823142
internal_count=12953188 7442188 5511000 5408128 4489628 1021372 4211740 3328644
is_linear=0
shrinkage=0.01


Tree=24
num_leaves=9
num_cat=0
split_feature=5 12 12 79 2 52 5 92
split_gain=480116 178267 163986 140735 125377 121571 95337.6 95043.3
threshold=236.50000000000003 1.0000000180025095e-35 1.0000000180025095e-35 1.0000000180025095e-35 51.000000000000007 1.0000000180025095e-35 703.50000000000011 1.0000000180025095e-35
decision_type=2 2 2 2 2 2 2 2
left_child=2 4 3 7 6 -3 -2 -1
right_child=1 5 -4 -5 -6 -7 -8 -9
leaf_value=-0.0037813429293567851 0.00071079258333777372 -0.013969175023722236 -0.011204840134687253 -0.0082299429393012068 0.0079923372271332692 0.0015403556136469267 0.0083673613231195695 0.0031977901116337372
leaf_weight=401577.46021525562 793898.44925419986 91862.611110642552 284242.95628966391 323936.66599491239 624321.49964166433 112350.98232237995 204524.66757333279 379553.94035646319
leaf_count=1946552 2987296 680692 1959912 1978616 1289908 414828 438876 1256508
internal_value=0 0.00336912 -0.00443072 -0.00268829 0.00447724 -0.00543639 0.00227922 -0.000390163
internal_weight=0 1.82696e+06 1.38931e+06 1.10507e+06 1.62274e+06 204214 998423 781131
internal_count=12953188 5811600 7141588 5181676 4716080 1095520 3426172 3203060
is_linear=0
shrinkage=0.01


Tree=25
num_leaves=9
num_cat=0
split_feature=5 12 12 79 62 52 2 62
split_gain=471015 170789 163804 150843 115758 110254 85810.5 82086
threshold=246.50000000000003 1.0000000180025095e-35 1.0000000180025095e-35 1.0000000180025095e-35 1.0000000180025095e-35 1.0000000180025095e-35 51.000000000000007 1.0000000180025095e-35
decision_type=2 2 2 2 2 2 2 2
left_child=1 3 4 7 -2 -4 -6 -1
right_child=2 -3 5 -5 6 -7 -8 -9
leaf_value=-0.013094741649731123 -0.011511761400831671 -0.010973630960077235 -0.013625597060865507 -0.0080469937813758136 0.0031129049054709414 0.0016225633090901804 0.0079805012937216799 0.00062183179587123273
leaf_weight=46225.654565930367 43534.169071346521 296147.61297374219 86128.677021786571 342391.8522561118 921055.16704031825 105511.55084992945 596861.75953786075 776757.84326622635
leaf_count=331996 277888 2034060 635936 2079484 2988632 385436 1223108 2996648
internal_value=0 -0.00419243 0.00349491 -0.00246918 0.00456579 -0.0052304 0.0050269 -0.000148606
internal_weight=0 1.46152e+06 1.75309e+06 1.16538e+06 1.56145e+06 191640 1.51792e+06 822983
internal_count=12953188 7442188 5511000 5408128 4489628 1021372 4211740 3328644
is_linear=0
shrinkage=0.01


Tree=26
num_leaves=9
num_cat=0
split_feature=5 90 12 79 90 62 6 2
split_gain=462073 171882 158414 135496 93622.8 123561 86290.1 77019.2
threshold=236.50000000000003 1.0000000180025095e-35 1.0000000180025095e-35 1.0000000180025095e-35 1.0000000180025095e-35 1.0000000180025095e-35 1803.5000000000002 61.000000000000007
decision_type=2 2 2 2 2 2 2 2
left_child=2 -2 3 4 5 -1 -6 -3
right_child=1 7 -4 -5 6 -7 -8 -9
leaf_value=-0.012907655758111281 -0.0025271201632488761 0.0038565859731364534 -0.011020959411943946 -0.0080822821457750132 -0.010685163707913918 0.0045085919711655223 -0.00037174996017429982 0.0099835910364395944
leaf_weight=45475.804107196629 395619.98008026928 1181397.7009852231 283275.00271788239 323337.04450897127 130617.45036643744 390790.02589501441 214101.62174390256 248282.06153537333
leaf_count=326652 1832324 3576472 1959912 1978616 824312 1164324 887772 402804
internal_value=0 0.00330638 -0.00434968 -0.00263839 -0.000384558 0.00269314 -0.0042796 0.00492062
internal_weight=0 1.8253e+06 1.3876e+06 1.10432e+06 780985 436266 344719 1.42968e+06
internal_count=12953188 5811600 7141588 5181676 3203060 1490976 1712084 3979276
is_linear=0
shrinkage=0.01


Tree=27
num_leaves=9
num_cat=0
split_feature=5 12 12 79 62 52 2 62
split_gain=453325 164994 158559 145375 112601 108432 83443.7 79152.5
threshold=246.50000000000003 1.0000000180025095e-35 1.0000000180025095e-35 1.0000000180025095e-35 1.0000000180025095e-35 1.0000000180025095e-35 51.000000000000007 1.0000000180025095e-35
decision_type=2 2 2 2 2 2 2 2
left_child=1 3 4 7 -2 -4 -6 -1
right_child=2 -3 5 -5 6 -7 -8 -9
leaf_value=-0.012882889519688667 -0.011376844406068136 -0.010794521156989857 -0.013500225399600291 -0.0079054305719046918 0.0030514545897808777 0.0016315992642580589 0.0078539723349871863 0.00060930441090076195
leaf_weight=46059.838641621172 43515.231400758028 295138.76395212114 85917.3893455863 341771.67279540747 920813.23962597549 105512.19175510108 595932.17080936581 776604.11627667397
leaf_count=331996 277888 2034060 635936 2079484 2988632 385436 1223108 2996648
internal_value=0 -0.00411622 0.00342951 -0.00242353 0.00448335 -0.00515986 0.00493837 -0.000146105
internal_weight=0 1.45957e+06 1.75169e+06 1.16444e+06 1.56026e+06 191430 1.51675e+06 822664
internal_count=12953188 7442188 5511000 5408128 4489628 1021372 4211740 3328644
is_linear=0
shrinkage=0.01


Tree=28
num_leaves=9
num_cat=0
split_feature=5 12 12 79 2 52 5 92
split_gain=444736 165901 153059 130457 117707 115778 93144.3 92515.6
threshold=236.50000000000003 1.0000000180025095e-35 1.0000000180025095e-35 1.0000000180025095e-35 51.000000000000007 1.0000000180025095e-35 703.50000000000011 1.0000000180025095e-35
decision_type=2 2 2 2 2 2 2 2
left_child=2 4 3 7 6 -3 -2 -1
right_child=1 5 -4 -5 -6 -7 -8 -9
leaf_value=-0.0037247956064419565 0.00063494897106460241 -0.013630421156978743 -0.010842035272823243 -0.0079380000520186053 0.0077267017560031575 0.0015330864349163663 0.008206481879659111 0.0031629871536040036
leaf_weight=401470.06244340539 793594.66433256865 91258.025438226759 282260.09687969089 322708.0948253721 622327.64241762459 112337.37000256777 204303.5744201839 379203.82257726789
leaf_count=1946552 2987296 680692 1959912 1978616 1289908 414828 438876 1256508
internal_value=0 0.0032445 -0.00427088 -0.00258989 0.00431362 -0.00526369 0.0021851 -0.00037913
internal_weight=0 1.82382e+06 1.38564e+06 1.10338e+06 1.62023e+06 203595 997898 780674
internal_count=12953188 5811600 7141588 5181676 4716080 1095520 3426172 3203060
is_linear=0
shrinkage=0.01


Tree=29
num_leaves=9
num_cat=0
split_feature=5 12 12 79 62 52 2 62
split_gain=436255 159417 152465 140112 110105 104717 81121.9 78058.6
threshold=246.50000000000003 1.0000000180025095e-35 1.0000000180025095e-35 1.0000000180025095e-35 1.0000000180025095e-35 1.0000000180025095e-35 61.000000000000007 1.0000000180025095e-35
decision_type=2 2 2 2 2 2 2 2
left_child=1 3 4 7 -2 -4 -6 -1
right_child=2 -3 5 -5 6 -7 -8 -9
leaf_value=-0.012801870731944926 -0.011287557056883633 -0.010619108141428069 -0.013288801396043886 -0.0077665911446140583 0.0038192217325002742 0.0015999898295180541 0.010046323141787491 0.00060608648334130658
leaf_weight=45992.379872582853 43497.449632644653 294076.34295580536 85534.085970774293 341122.86033476889 1264749.9478315562 105509.74321785569 250664.43200633675 776497.4688802436
leaf_count=331996 277888 2034060 635936 2079484 3818288 385436 393452 2996648
internal_value=0 -0.00404089 0.00336569 -0.00237839 0.00439899 -0.00506602 0.00484925 -0.000143666
internal_weight=0 1.45769e+06 1.74996e+06 1.16361e+06 1.55891e+06 191044 1.51541e+06 822490
internal_count=12953188 7442188 5511000 5408128 4489628 1021372 4211740 3328644
is_linear=0
shrinkage=0.01


Tree=30
num_leaves=9
num_cat=0
split_feature=5 90 12 79 92 62 5 2
split_gain=428067 159675 147943 125630 91090.2 121729 94822.9 72888.9
threshold=236.50000000000003 1.0000000180025095e-35 1.0000000180025095e-35 1.0000000180025095e-35 1.0000000180025095e-35 1.0000000180025095e-35 70.500000000000014 61.000000000000007
decision_type=2 2 2 2 2 2 2 2
left_child=2 -2 3 4 6 -6 -1 -3
right_child=1 7 -4 -5 5 -7 -8 -9
leaf_value=-0.010261347266962602 -0.0024437948097350733 0.0037070672713030821 -0.010667819324615127 -0.0077969627844657755 -0.012552747198244967 0.0051878087949522164 -9.6992713066288466e-05 0.0096790082500305703
leaf_weight=142038.96639398485 394854.35513796657 1179996.6553174704 281201.81281335652 322052.05865486711 43719.697678998113 335362.25077468157 259392.57571807504 247189.51217309386
leaf_count=887104 1832324 3576472 1959912 1978616 315296 941212 1059448 402804
internal_value=0 0.00318431 -0.00419327 -0.00254199 -0.000373699 0.00314178 -0.00369346 0.00474141
internal_weight=0 1.82204e+06 1.38377e+06 1.10257e+06 780513 379082 401432 1.42719e+06
internal_count=12953188 5811600 7141588 5181676 3203060 1256508 1946552 3979276
is_linear=0
shrinkage=0.01


Tree=31
num_leaves=9
num_cat=0
split_feature=5 12 12 79 62 52 2 126
split_gain=419912 154086 147595 135064 107122 103018 78751.6 75570.9
threshold=246.50000000000003 1.0000000180025095e-35 1.0000000180025095e-35 1.0000000180025095e-35 1.0000000180025095e-35 1.0000000180025095e-35 51.000000000000007 11254.500000000002
decision_type=2 2 2 2 2 2 2 2
left_child=1 3 4 7 -2 -4 -6 -1
right_child=2 -3 5 -5 6 -7 -8 -9
leaf_value=-0.0018924971161014103 -0.011157271106848167 -0.010449209940371271 -0.013170140871235239 -0.0076313012281035621 0.0029320459021525925 0.001608417574522342 0.0076029481470961105 0.0051075892463343852
leaf_weight=616452.35850454122 43472.058158531785 292979.04292591661 85302.162314191461 340447.74282677472 920268.79752019048 105510.44382873178 593909.35255094618 205678.54810829461
leaf_count=2708832 277888 2034060 635936 2079484 2988632 385436 1223108 619812
internal_value=0 -0.00396794 0.00330288 -0.00233461 0.00431978 -0.00499829 0.00476412 -0.000141234
internal_weight=0 1.45556e+06 1.74846e+06 1.16258e+06 1.55765e+06 190813 1.51418e+06 822131
internal_count=12953188 7442188 5511000 5408128 4489628 1021372 4211740 3328644
is_linear=0
shrinkage=0.01


Tree=32
num_leaves=9
num_cat=0
split_feature=5 12 12 79 2 52 5 90
split_gain=412007 154417 143033 120996 111327 110360 91020.6 89444.9
threshold=236.50000000000003 1.0000000180025095e-35 1.0000000180025095e-35 1.0000000180025095e-35 51.000000000000007 1.0000000180025095e-35 703.50000000000011 1.0000000180025095e-35
decision_type=2 2 2 2 2 2 2 2
left_child=2 4 3 7 6 -3 -2 -1
right_child=1 5 -4 -5 -6 -7 -8 -9
leaf_value=0.0026425433656937568 0.00055524339583613836 -0.013309742892479343 -0.010498063618169099 -0.0076590406028023842 0.0074830659530596179 0.0015250546666857824 0.0080440844705076918 -0.0041757259190982731
leaf_weight=435727.1915134415 793232.62881939113 90593.888762354851 280103.43116033077 321370.95020190626 620233.83306685835 112322.21625205874 204044.98229183257 344535.01163159311
leaf_count=1490976 2987296 680692 1959912 1978616 1289908 414828 438876 1712084
internal_value=0 0.00312485 -0.00411742 -0.00249507 0.00415641 -0.00509809 0.00208748 -0.000368153
internal_weight=0 1.82043e+06 1.38174e+06 1.10163e+06 1.61751e+06 202916 997278 780262
internal_count=12953188 5811600 7141588 5181676 4716080 1095520 3426172 3203060
is_linear=0
shrinkage=0.01


Tree=33
num_leaves=9
num_cat=0
split_feature=5 12 12 79 62 52 2 62
split_gain=404122 148961 141936 130208 104758 99537.3 76905.5 75605.7
threshold=246.50000000000003 1.0000000180025095e-35 1.0000000180025095e-35 1.0000000180025095e-35 1.0000000180025095e-35 1.0000000180025095e-35 61.000000000000007 1.0000000180025095e-35
decision_type=2 2 2 2 2 2 2 2
left_child=1 3 4 7 -2 -4 -6 -1
right_child=2 -3 5 -5 6 -7 -8 -9
leaf_value=-0.012619795828113319 -0.011070310111313025 -0.010282587937919615 -0.012969458182573841 -0.0074984838035831768 0.0036765159418533813 0.0015771243208613636 0.0097522119886186334 0.00059807866288333377
leaf_weight=45829.486602075398 43449.745352447033 291834.35192480683 84884.674605742097 339748.09101649374 1263259.7271322906 105507.6420326978 249480.9634873718 776208.7295152545
leaf_count=331996 277888 2034060 635936 2079484 3818288 385436 393452 2996648
internal_value=0 -0.00389547 0.00324169 -0.00229106 0.0042388 -0.00490834 0.00467852 -0.000138832
internal_weight=0 1.45362e+06 1.74658e+06 1.16179e+06 1.55619e+06 190392 1.51274e+06 822038
internal_count=12953188 7442188 5511000 5408128 4489628 1021372 4211740 3328644
is_linear=0
shrinkage=0.01


Tree=34
num_leaves=9
num_cat=0
split_feature=5 15 12 92 62 6 2 6
split_gain=396827 162410 129331 129383 157588 136072 118095 109984
threshold=215.50000000000003 1.0000000180025095e-35 1.0000000180025095e-35 1.0000000180025095e-35 1.0000000180025095e-35 1759.5000000000002 49.000000000000007 12056.000000000002
decision_type=2 2 2 2 2 2 2 2
left_child=2 -2 3 5 -5 -1 7 -3
right_child=1 6 -4 4 -6 -7 -8 -9
leaf_value=-0.011333962192205876 -0.0050379172436464982 -0.00099180994783533709 -0.010524155686765568 -0.013611291405437903 0.0041057593213839833 -0.0017555798951425785 0.0071476004166021144 0.0058432393229478075
leaf_weight=246591.0842698887 226275.4816481173 586068.11783549935 262818.61814451963 58357.969581976533 359322.24607367069 372143.60464971513 693167.51245120168 393482.20688962936
leaf_count=1644616 1231792 2412148 1856372 434868 1102868 1734796 1500996 1034732
internal_value=0 0.00291337 -0.00425879 -0.00266999 0.00163035 -0.00557296 0.00398897 0.00175381
internal_weight=0 1.89899e+06 1.29923e+06 1.03641e+06 417680 618735 1.67272e+06 979550
internal_count=12953188 6179668 6773520 4917148 1537736 3379412 4947876 3446880
is_linear=0
shrinkage=0.01


Tree=35
num_leaves=9
num_cat=0
split_feature=5 15 12 92 62 6 2 6
split_gain=389198 159251 127215 126877 154699 133621 115944 107839
threshold=215.50000000000003 1.0000000180025095e-35 1.0000000180025095e-35 1.0000000180025095e-35 1.0000000180025095e-35 1759.5000000000002 49.000000000000007 12056.000000000002
decision_type=2 2 2 2 2 2 2 2
left_child=2 -2 3 5 -5 -1 7 -3
right_child=1 6 -4 4 -6 -7 -8 -9
leaf_value=-0.011233432478290745 -0.0049898674893911251 -0.0009818690586297881 -0.010441302970435799 -0.013505897192585839 0.0040653063394124819 -0.00173823914991033 0.0070824792926814286 0.0057868862338510312
leaf_weight=246311.28294737637 226170.38167952001 586081.63645118475 262257.88188834488 58225.896918609738 359269.05593017489 372097.92797923833 692548.69641871005 393341.54476945102
leaf_count=1644616 1231792 2412148 1856372 434868 1102868 1734796 1500996 1034732
internal_value=0 0.00288554 -0.00421972 -0.00264462 0.00161474 -0.00552016 0.00395086 0.0017365
internal_weight=0 1.89814e+06 1.29816e+06 1.0359e+06 417495 618409 1.67197e+06 979423
internal_count=12953188 6179668 6773520 4917148 1537736 3379412 4947876 3446880
is_linear=0
shrinkage=0.01


Tree=36
num_leaves=9
num_cat=0
split_feature=5 12 12 79 62 52 2 126
split_gain=381852 141671 133809 125481 102064 98103.9 74140.3 73928.6
threshold=246.50000000000003 1.0000000180025095e-35 1.0000000180025095e-35 1.0000000180025095e-35 1.0000000180025095e-35 1.0000000180025095e-35 61.000000000000007 11254.500000000002
decision_type=2 2 2 2 2 2 2 2
left_child=1 3 4 7 -2 -4 -6 -1
right_child=2 -3 5 -5 6 -7 -8 -9
leaf_value=-0.0018495205754798785 -0.010993878244271685 -0.010042402887008819 -0.012797909194631476 -0.0073485327464642468 0.0035725704404040615 0.0016615342870796004 0.0095476324692073747 0.0050771688314284269
leaf_weight=615841.46217761934 43425.019723266363 290070.22183110565 84500.589815884829 338904.1789392978 1262007.2613810971 105514.02782346308 248571.34137275815 205502.42136725038
leaf_count=2708832 277888 2034060 635936 2079484 3818288 385436 393452 619812
internal_value=0 -0.00379164 0.00315269 -0.00222891 0.00412127 -0.00476866 0.00455579 -0.000116444
internal_weight=0 1.45032e+06 1.74402e+06 1.16025e+06 1.554e+06 190015 1.51058e+06 821344
internal_count=12953188 7442188 5511000 5408128 4489628 1021372 4211740 3328644
is_linear=0
shrinkage=0.01


Tree=37
num_leaves=9
num_cat=0
split_feature=5 15 12 92 62 6 2 6
split_gain=375095 156517 120361 128518 151833 126871 115468 106690
threshold=212.50000000000003 1.0000000180025095e-35 1.0000000180025095e-35 1.0000000180025095e-35 1.0000000180025095e-35 1759.5000000000002 49.000000000000007 12056.000000000002
decision_type=2 2 2 2 2 2 2 2
left_child=2 -2 3 5 -5 -1 7 -3
right_child=1 6 -4 4 -6 -7 -8 -9
leaf_value=-0.011107185593803491 -0.0049658065763598528 -0.0010214698359343225 -0.010258252150473046 -0.013374541971370297 0.0040775825343775888 -0.0018145988904077497 0.006992129901927803 0.0057028786907798133
leaf_weight=245891.4411829412 227584.19494282454 590237.78590717912 259415.24690258503 57904.980337202549 358382.40712361783 365034.26765336096 694827.87298294157 393095.10005451739
leaf_count=1644616 1245820 2436196 1843012 433532 1096856 1711416 1507008 1034732
internal_value=0 0.00281625 -0.004172 -0.00263497 0.00165002 -0.00555477 0.00387161 0.00166664
internal_weight=0 1.90574e+06 1.28663e+06 1.02721e+06 416287 610926 1.67816e+06 983333
internal_count=12953188 6223756 6729432 4886420 1530388 3356032 4977936 3470928
is_linear=0
shrinkage=0.01


Tree=38
num_leaves=9
num_cat=0
split_feature=5 15 12 92 62 6 2 52
split_gain=367900 153477 118412 126036 149064 124614 113371 106070
threshold=212.50000000000003 1.0000000180025095e-35 1.0000000180025095e-35 1.0000000180025095e-35 1.0000000180025095e-35 1759.5000000000002 49.000000000000007 1.0000000180025095e-35
decision_type=2 2 2 2 2 2 2 2
left_child=2 7 3 5 -5 -1 -3 -2
right_child=1 6 -4 4 -6 -7 -8 -9
leaf_value=-0.011009966830506457 -0.012196271376770262 0.0016502150701168325 -0.010178488915990269 -0.013272988977991269 0.0040374685412979264 -0.0017966923567907431 0.0069287229208710201 0.0014886870018993963
leaf_weight=245583.60067228973 106501.84246051311 983192.84778875113 258836.56696493924 57765.238904163241 358323.98464299738 364985.94796081632 694177.87452117354 120968.98136219382
leaf_count=1644616 786236 3470928 1843012 433532 1096856 1711416 1507008 459584
internal_value=0 0.00278942 -0.00413397 -0.00261005 0.00163428 -0.00550246 0.00383472 -0.00491861
internal_weight=0 1.90484e+06 1.2855e+06 1.02666e+06 416089 610570 1.67737e+06 227471
internal_count=12953188 6223756 6729432 4886420 1530388 3356032 4977936 1245820
is_linear=0
shrinkage=0.01


Tree=39
num_leaves=9
num_cat=0
split_feature=5 12 12 79 62 52 126 92
split_gain=361133 134769 126275 121006 99393.2 95053.6 72320.1 84473.6
threshold=246.50000000000003 1.0000000180025095e-35 1.0000000180025095e-35 1.0000000180025095e-35 1.0000000180025095e-35 1.0000000180025095e-35 11254.500000000002 1.0000000180025095e-35
decision_type=2 2 2 2 2 2 2 2
left_child=1 3 4 6 -2 -4 7 -1
right_child=2 -3 5 -5 -6 -7 -8 -9
leaf_value=-0.0054414803572184391 -0.010911417110382002 -0.009811308458660347 -0.012578083849086763 -0.0072054827558863093 0.0044380811651488321 0.0016796750027197724 0.0050423779282049849 0.0019703732219423522
leaf_weight=313935.52061457932 43399.820893533528 288235.72067070007 83970.901567339897 338027.48403069377 1508362.9938100502 105514.91030319035 205356.08136633039 301394.24416854978
leaf_count=1642882 277888 2034060 635936 2079484 4211740 385436 619812 1065950
internal_value=0 -0.00369229 0.00306775 -0.00217015 0.00400879 -0.00463867 -9.61779e-05 -0.00181109
internal_weight=0 1.44695e+06 1.74125e+06 1.15871e+06 1.55176e+06 189486 820686 615330
internal_count=12953188 7442188 5511000 5408128 4489628 1021372 3328644 2708832
is_linear=0
shrinkage=0.01


Tree=40
num_leaves=9
num_cat=0
split_feature=5 15 12 92 62 6 2 6
split_gain=354810 147617 114536 121551 146022 122348 111026 104273
threshold=212.50000000000003 1.0000000180025095e-35 1.0000000180025095e-35 1.0000000180025095e-35 1.0000000180025095e-35 1759.5000000000002 49.000000000000007 12056.000000000002
decision_type=2 2 2 2 2 2 2 2
left_child=2 -2 3 5 -5 -1 7 -3
right_child=1 6 -4 4 -6 -7 -8 -9
leaf_value=-0.010873056363723835 -0.0048290068354093609 -0.0010537411629302827 -0.010023998698412346 -0.013171978967518832 0.0039796575758058016 -0.0017373527083063131 0.0068300753769789738 0.0055960537441497541
leaf_weight=245093.2675941065 226925.45405697078 590067.90384022892 257675.58514124155 57622.314081415534 358184.77464857697 364759.49533414841 693100.09297326207 392763.01757010818
leaf_count=1644616 1245820 2436196 1843012 433532 1096856 1711416 1507008 1034732
internal_value=0 0.00274022 -0.00406372 -0.00256632 0.00160279 -0.00540889 0.00376511 0.00160368
internal_weight=0 1.90286e+06 1.28334e+06 1.02566e+06 415807 609853 1.67593e+06 982831
internal_count=12953188 6223756 6729432 4886420 1530388 3356032 4977936 3470928
is_linear=0
shrinkage=0.01


Tree=41
num_leaves=9
num_cat=0
split_feature=5 2 5 12 92 62 6 2
split_gain=348017 144804 119349 112696 119210 143373 120196 83505.9
threshold=212.50000000000003 51.000000000000007 476.50000000000006 1.0000000180025095e-35 1.0000000180025095e-35 1.0000000180025095e-35 1759.5000000000002 29.000000000000004
decision_type=2 2 2 2 2 2 2 2
left_child=3 2 -2 4 6 -6 -1 -7
right_child=1 -3 -4 -5 5 7 -8 -9
leaf_value=-0.010779146714870425 -0.0015970334908031226 0.0065407241194909618 0.0048330108325148466 -0.0099469801150345628 -0.013073709768325928 -0.0090541650762141161 -0.0017202099602454844 0.0057349737369340797
leaf_weight=244757.9544929564 799518.42855136842 650625.62379450351 451772.72373663634 257077.04514662921 57475.619044259191 43451.724415943027 364710.86842931062 314669.00831158459
leaf_count=1644616 3508336 1440876 1274544 1843012 433532 261188 1711416 835668
internal_value=0 0.00271417 0.000724503 -0.00402687 -0.00254216 0.00158755 -0.00535821 0.00394057
internal_weight=0 1.90192e+06 1.25129e+06 1.28214e+06 1.02507e+06 415596 609469 358121
internal_count=12953188 6223756 4782880 6729432 4886420 1530388 3356032 1096856
is_linear=0
shrinkage=0.01


Tree=42
num_leaves=9
num_cat=0
split_feature=5 15 12 92 62 6 60 52
split_gain=341357 143700 110883 116913 140787 118090 108780 102786
threshold=212.50000000000003 1.0000000180025095e-35 1.0000000180025095e-35 1.0000000180025095e-35 1.0000000180025095e-35 1759.5000000000002 1.0000000180025095e-35 1.0000000180025095e-35
decision_type=2 2 2 2 2 2 2 2
left_child=2 7 3 5 -5 -1 -3 -2
right_child=1 6 -4 4 -6 -7 -8 -9
leaf_value=-0.010686533656074242 -0.011977735725122564 0.004046726789281873 -0.0098708423026408372 -0.012977000151689939 0.0039025380120917812 -0.0017032362613776484 -0.015037337922307383 0.001516509870615285
leaf_weight=244412.05174945295 105856.16297131032 1643920.9563740715 256472.42589598894 57325.659069210291 357995.13655292243 364662.17781347036 30420.688474297523 120932.20667763054
leaf_count=1644616 786236 4753488 1843012 433532 1096856 1711416 224448 459584
internal_value=0 0.00268815 -0.00399061 -0.00251841 0.0015727 -0.00530809 0.00369999 -0.00478209
internal_weight=0 1.90113e+06 1.28087e+06 1.0244e+06 415321 609074 1.67434e+06 226788
internal_count=12953188 6223756 6729432 4886420 1530388 3356032 4977936 1245820
is_linear=0
shrinkage=0.01


Tree=43
num_leaves=9
num_cat=0
split_feature=6 12 2 79 5 92 62 5
split_gain=335341 151069 133770 113765 112377 72809.8 107009 83582.1
threshold=5749.5000000000009 1.0000000180025095e-35 51.000000000000007 1.0000000180025095e-35 703.50000000000011 1.0000000180025095e-35 1.0000000180025095e-35 70.500000000000014
decision_type=2 2 2 2 2 2 2 2
left_child=1 3 4 5 -2 7 -7 -1
right_child=2 -3 -4 -5 -6 6 -8 -9
leaf_value=-0.0093940992454196754 -0.00062072424296556814 -0.011141998603156662 0.0064651445186115868 -0.0073529443292595798 0.0073018600376788404 -0.011936158035373299 0.0048359363063368516 0.00014258597168284248
leaf_weight=141007.08333341777 994827.54721535742 233056.40994459391 636710.52153595537 314796.00215933472 218329.67808634788 42925.064059764147 334301.70559479296 263888.58579851687
leaf_count=887104 4135588 1740140 1407476 1968596 490312 317300 938540 1068132
internal_value=0 -0.00383022 0.00275324 -0.00227673 0.000805089 -0.000233603 0.00292742 -0.00317862
internal_weight=0 1.32997e+06 1.84987e+06 1.09692e+06 1.21316e+06 782122 377227 404896
internal_count=12953188 6919812 6033376 5179672 4625900 3211076 1255840 1955236
is_linear=0
shrinkage=0.01


Tree=44
num_leaves=9
num_cat=0
split_feature=5 12 12 79 62 52 126 92
split_gain=329223 124368 117588 113341 94955.5 91820.5 70719.5 77415.9
threshold=246.50000000000003 1.0000000180025095e-35 1.0000000180025095e-35 1.0000000180025095e-35 1.0000000180025095e-35 1.0000000180025095e-35 11254.500000000002 1.0000000180025095e-35
decision_type=2 2 2 2 2 2 2 2
left_child=1 3 4 6 -2 -4 7 -1
right_child=2 -3 5 -5 -6 -7 -8 -9
leaf_value=-0.0052443994974162586 -0.010755668055494818 -0.0094501015097850985 -0.012358942339882479 -0.0069624285503959091 0.0042600885464713087 0.001681045599441002 0.0050168299537483117 0.0018581500482954642
leaf_weight=313362.59416793287 43326.487626686692 285088.40564180166 83398.871092885733 336403.12999057025 1504808.6206341013 105512.60336734354 205030.84182693064 300745.89112731814
leaf_count=1642882 277888 2034060 635936 2079484 4211740 385436 619812 1065950
internal_value=0 -0.00353474 0.00293099 -0.00207534 0.00383985 -0.0045172 -6.8319e-05 -0.00176608
internal_weight=0 1.44063e+06 1.73705e+06 1.15554e+06 1.54814e+06 188911 819139 614108
internal_count=12953188 7442188 5511000 5408128 4489628 1021372 3328644 2708832
is_linear=0
shrinkage=0.01


Tree=45
num_leaves=9
num_cat=0
split_feature=6 12 2 5 79 92 62 5
split_gain=323578 146695 130377 109922 109696 70302.5 104976 81843.4
threshold=5749.5000000000009 1.0000000180025095e-35 51.000000000000007 476.50000000000006 1.0000000180025095e-35 1.0000000180025095e-35 1.0000000180025095e-35 70.500000000000014
decision_type=2 2 2 2 2 2 2 2
left_child=1 4 3 -2 5 7 -7 -1
right_child=2 -3 -4 -5 -6 6 -8 -9
leaf_value=-0.0092822052985266201 -0.0015360782250653079 -0.010992659262255107 0.0063734900734065134 0.0046933009294481843 -0.0072294551366804197 -0.011862468786491037 0.0047648980715704172 0.00015895160984365396
leaf_weight=140822.08854249865 761233.98478040844 231867.88929814845 635633.51861053705 451145.54264390469 314021.03846038133 42838.423221856356 334136.30220916867 263865.37185354531
leaf_count=887104 3351356 1740140 1407476 1274544 1968596 317300 938540 1068132
internal_value=0 -0.00376655 0.0027052 0.000781972 -0.00223736 -0.000231867 0.00287541 -0.00312636
internal_weight=0 1.32755e+06 1.84801e+06 1.21238e+06 1.09568e+06 781662 376975 404687
internal_count=12953188 6919812 6033376 4625900 5179672 3211076 1255840 1955236
is_linear=0
shrinkage=0.01


Tree=46
num_leaves=9
num_cat=0
split_feature=6 12 2 5 79 92 62 5
split_gain=317400 144394 127985 108328 107682 68934.8 103048 80322
threshold=5749.5000000000009 1.0000000180025095e-35 51.000000000000007 703.50000000000011 1.0000000180025095e-35 1.0000000180025095e-35 1.0000000180025095e-35 70.500000000000014
decision_type=2 2 2 2 2 2 2 2
left_child=1 4 3 -2 5 7 -7 -1
right_child=2 -3 -4 -5 -6 6 -8 -9
leaf_value=-0.0091987003081935859 -0.00062551758951680681 -0.010913517378151539 0.0063162483128801341 0.0071584057889542696 -0.0071663591711021834 -0.01177405891042693 0.0047188253122334867 0.00015736150812040536
leaf_weight=140680.15975476056 994219.99752440304 231217.10751653463 634983.33592025191 217991.56606493145 313619.96867030859 42729.04068672657 334025.24849870801 263866.16353815794
leaf_count=887104 4135588 1740140 1407476 490312 1968596 317300 938540 1068132
internal_value=0 -0.0037329 0.00267935 0.000774263 -0.00221656 -0.000229668 0.00284831 -0.00309619
internal_weight=0 1.32614e+06 1.84719e+06 1.21221e+06 1.09492e+06 781301 376754 404546
internal_count=12953188 6919812 6033376 4625900 5179672 3211076 1255840 1955236
is_linear=0
shrinkage=0.01


Tree=47
num_leaves=9
num_cat=0
split_feature=5 15 60 12 92 62 6 52
split_gain=311642 135493 103993 101910 106168 131622 112230 98985.7
threshold=212.50000000000003 1.0000000180025095e-35 1.0000000180025095e-35 1.0000000180025095e-35 1.0000000180025095e-35 1.0000000180025095e-35 1759.5000000000002 1.0000000180025095e-35
decision_type=2 2 2 2 2 2 2 2
left_child=3 7 -3 4 6 -6 -1 -2
right_child=1 2 -4 -5 5 -7 -8 -9
leaf_value=-0.010342380308387071 -0.011786180565024205 0.0038921320157968811 -0.014796014882462197 -0.009501644240510641 -0.01265557983840845 0.0037338678779769382 -0.0015659463469913674 0.0014776660320423331
leaf_weight=242998.48672796041 105239.67644196749 1640157.9213329107 30326.86874909699 253351.12449350953 56785.272508561611 357425.44928079844 363904.6043606177 120902.6690876931
leaf_count=1644616 786236 4753488 224448 1843012 433532 1096856 1711416 459584
internal_value=0 0.00256944 0.00355286 -0.00382463 -0.0024161 0.00148699 -0.00507995 -0.00469492
internal_weight=0 1.89663e+06 1.67048e+06 1.27446e+06 1.02111e+06 414211 606903 226142
internal_count=12953188 6223756 4977936 6729432 4886420 1530388 3356032 1245820
is_linear=0
shrinkage=0.01


Tree=48
num_leaves=9
num_cat=0
split_feature=6 12 2 5 79 0 62 92
split_gain=305971 140217 124819 105729 104923 66452 52107.3 55184.5
threshold=5749.5000000000009 1.0000000180025095e-35 51.000000000000007 476.50000000000006 1.0000000180025095e-35 1.5000000000000002 1.0000000180025095e-35 1.0000000180025095e-35
decision_type=2 2 2 2 2 2 2 2
left_child=1 4 3 -2 5 6 -1 -8
right_child=2 -3 -4 -5 -6 -7 7 -9
leaf_value=-0.010833883609952381 -0.001523825792147587 -0.010767199955683638 0.0062265090058853069 0.0045882406732403007 -0.007069024177179562 -0.0056266415357425813 -0.0012392407606441644 0.0049869396215303395
leaf_weight=33135.337992116809 760805.61332536489 229975.96121503413 633900.23758919537 450667.617804721 312938.75868229568 175825.65197939426 268267.47460439801 303301.09699036181
leaf_count=242484 3351356 1740140 1407476 1274544 1968596 937872 1199060 831660
internal_value=0 -0.00366964 0.00263113 0.000749861 -0.0021769 -0.00021549 0.00135787 0.00206466
internal_weight=0 1.32344e+06 1.84537e+06 1.21147e+06 1.09347e+06 780530 604704 571569
internal_count=12953188 6919812 6033376 4625900 5179672 3211076 2273204 2030720
is_linear=0
shrinkage=0.01


Tree=49
num_leaves=9
num_cat=0
split_feature=5 15 60 126 52 125 2 92
split_gain=300305 131927 101662 98807.9 97136.4 87889.8 84133.2 60160.9
threshold=212.50000000000003 1.0000000180025095e-35 1.0000000180025095e-35 11575.500000000002 1.0000000180025095e-35 686.50000000000011 31.000000000000004 1.0000000180025095e-35
decision_type=2 2 2 2 2 2 2 2
left_child=3 4 6 5 -2 -1 -3 -7
right_child=1 2 -4 -5 -6 7 -8 -9
leaf_value=-0.0073124268356533385 -0.011690553076164054 0.00033962697936438044 -0.014665760274916296 0.0023134166228972568 0.0014592364485469869 -0.0045647960876360446 0.005300206173906293 0.0033178418559809643
leaf_weight=649251.05341665447 104929.19746020436 486097.86490299553 30270.862625993788 221319.88280066848 120901.1161685735 238092.10017584264 1152593.7422006726 163179.07353688776
leaf_count=3994214 786236 1822304 224448 851786 459584 1318606 2931184 564826
internal_value=0 0.00252264 0.00349327 -0.00375914 -0.00465065 -0.00503848 0.00382871 -0.00135928
internal_weight=0 1.89479e+06 1.66896e+06 1.27184e+06 225830 1.05052e+06 1.63869e+06 401271
internal_count=12953188 6223756 4977936 6729432 1245820 5877646 4753488 1883432
is_linear=0
shrinkage=0.01


Tree=50
num_leaves=9
num_cat=0
split_feature=5 12 12 79 62 52 126 92
split_gain=294808 114256 108897 103842 89187.2 87101.3 67948.4 71023.3
threshold=246.50000000000003 1.0000000180025095e-35 1.0000000180025095e-35 1.0000000180025095e-35 1.0000000180025095e-35 1.0000000180025095e-35 11254.500000000002 1.0000000180025095e-35
decision_type=2 2 2 2 2 2 2 2
left_child=1 3 4 6 -2 -4 7 -1
right_child=2 -3 5 -5 -6 -7 -8 -9
leaf_value=-0.0050412988672111393 -0.010515881144305664 -0.0090679711295460815 -0.012093944354624846 -0.0066559918080763194 0.0040593553415952935 0.0016154863464892127 0.0049484808044014759 0.0017692417385409523
leaf_weight=312683.01990883052 43191.327721476555 281382.97791722417 82647.148329138756 334208.69688161463 1500407.4693793133 105501.76506246626 204694.74984906614 300065.04791050404
leaf_count=1642882 277888 2034060 635936 2079484 4211740 385436 619812 1065950
internal_value=0 -0.00335552 0.00277604 -0.0019598 0.00365153 -0.00440658 -3.97739e-05 -0.00170615
internal_weight=0 1.43303e+06 1.73175e+06 1.15165e+06 1.5436e+06 188149 817443 612748
internal_count=12953188 7442188 5511000 5408128 4489628 1021372 3328644 2708832
is_linear=0
shrinkage=0.01


Tree=51
num_leaves=9
num_cat=0
split_feature=6 12 2 79 5 0 62 92
split_gain=289972 132319 119089 106784 103244 66563.2 50734.5 52487.6
threshold=5674.5000000000009 1.0000000180025095e-35 51.000000000000007 1.0000000180025095e-35 703.50000000000011 1.5000000000000002 1.0000000180025095e-35 1.0000000180025095e-35
decision_type=2 2 2 2 2 2 2 2
left_child=1 3 4 5 -2 6 -1 -8
right_child=2 -3 -4 -5 -6 -7 7 -9
leaf_value=-0.010697438091225231 -0.00063566917891262208 -0.010550713063603653 0.0060649363988086527 -0.0071431665479650946 0.0069652928879175473 -0.0056333581721897102 -0.001139808449602372 0.0049412477368803
leaf_weight=32799.520378276706 1002505.169528611 226625.48807643354 632950.40485840291 306755.54496113956 217466.40587984771 173443.24593235552 267037.62176275253 302980.69092472643
leaf_count=240480 4179676 1724776 1413488 1951896 490312 930524 1191712 830324
internal_value=0 -0.00360211 0.00254531 -0.00214809 0.000719243 -0.000174178 0.00139654 0.00209244
internal_weight=0 1.30964e+06 1.85292e+06 1.08302e+06 1.21997e+06 776261 602818 570018
internal_count=12953188 6869712 6083476 5144936 4669988 3193040 2262516 2022036
is_linear=0
shrinkage=0.01


Tree=52
num_leaves=9
num_cat=0
split_feature=5 15 60 125 52 2 126 92
split_gain=284468 126162 98084.9 96016.9 94012.1 81597.4 70277.1 56787.5
threshold=212.50000000000003 1.0000000180025095e-35 1.0000000180025095e-35 686.50000000000011 1.0000000180025095e-35 31.000000000000004 221.50000000000003 1.0000000180025095e-35
decision_type=2 2 2 2 2 2 2 2
left_child=3 4 5 6 -2 -3 -1 -5
right_child=1 2 -4 7 -6 -7 -8 -9
leaf_value=-0.0084786025404078209 -0.011522463272613604 0.00029896820739193629 -0.014458820486314474 -0.0029370834651968 0.0014343455310835945 0.0051864311666246056 -0.0024841480084447426 0.0041040461546791385
leaf_weight=437804.67042414844 104339.45301734656 485845.0063457489 30177.027949281037 286486.8303084746 120874.4088504687 1150497.974814266 353482.8793888092 190847.46315781772
leaf_count=2851154 786236 1822304 224448 1483072 459584 2931184 1772842 622364
internal_value=0 0.00245649 0.00340584 -0.00366403 -0.00456842 0.0037353 -0.00580077 -0.000121904
internal_weight=0 1.89173e+06 1.66652e+06 1.26862e+06 225214 1.63634e+06 791288 477334
internal_count=12953188 6223756 4977936 6729432 1245820 4753488 4623996 2105436
is_linear=0
shrinkage=0.01


Tree=53
num_leaves=9
num_cat=0
split_feature=6 12 2 5 79 126 92 62
split_gain=279361 133429 116162 101029 98159.5 63163.2 77756 78749.1
threshold=5749.5000000000009 1.0000000180025095e-35 51.000000000000007 703.50000000000011 1.0000000180025095e-35 11575.500000000002 1.0000000180025095e-35 1.0000000180025095e-35
decision_type=2 2 2 2 2 2 2 2
left_child=1 4 3 -2 5 6 -1 -8
right_child=2 -3 -4 -5 -6 -7 7 -9
leaf_value=-0.0054373678377494083 -0.00065043650503448115 -0.010482269577365455 0.0059949835557309783 0.0068789287370366716 -0.0068105582434326677 0.0048839045812013974 -0.012704597877111333 0.0036264584970576532
leaf_weight=292473.85922950506 992178.17595715076 227413.30253430456 630921.61013182998 217225.69173390418 311113.27017955482 187931.67038987577 33214.077788412571 265972.9118886888
leaf_count=1577438 4135588 1740140 1407476 490312 1968596 575163 258565 799910
internal_value=0 -0.00351451 0.00251656 0.000701942 -0.00206172 -0.000166599 -0.00177081 0.00181348
internal_weight=0 1.31812e+06 1.84033e+06 1.2094e+06 1.09071e+06 779593 591661 299187
internal_count=12953188 6919812 6033376 4625900 5179672 3211076 2635913 1058475
is_linear=0
shrinkage=0.01


Tree=54
num_leaves=9
num_cat=0
split_feature=6 12 19 52 79 62 2 126
split_gain=274083 127909 113758 119249 102472 88088.6 70556.3 70511
threshold=5674.5000000000009 1.0000000180025095e-35 1.0000000180025095e-35 1.0000000180025095e-35 1.0000000180025095e-35 1.0000000180025095e-35 63.000000000000007 7353.5000000000009
decision_type=2 2 2 2 2 2 2 2
left_child=1 4 5 -4 -1 -2 7 -7
right_child=2 -3 3 -5 -6 6 -8 -9
leaf_value=-0.00014757422077670929 -0.010400773642460335 -0.010368281517577791 -0.012497153629805644 0.0018317887689416985 -0.0069844113930054002 0.0015513007169910146 0.0089536870140543307 0.0067260869755732793
leaf_weight=775539.56883830577 44724.563056387007 224947.66773226112 97038.906220152974 144665.83470232785 305620.9060228467 973101.92972065508 229549.07456198335 360995.22183118761
leaf_count=3193040 289912 1724776 761520 569804 1951896 3281646 360720 819874
internal_value=0 -0.00350764 0.00247562 -0.00392095 -0.0020802 0.00343689 0.00383269 0.00295155
internal_weight=0 1.30611e+06 1.85008e+06 241705 1.08116e+06 1.60837e+06 1.56365e+06 1.3341e+06
internal_count=12953188 6869712 6083476 1331324 5144936 4752152 4462240 4101520
is_linear=0
shrinkage=0.01


Tree=55
num_leaves=9
num_cat=0
split_feature=5 125 12 62 52 2 92 2
split_gain=268975 110660 101663 83893.2 82631 72171.3 99426 64445.2
threshold=246.50000000000003 6187.5000000000009 1.0000000180025095e-35 1.0000000180025095e-35 1.0000000180025095e-35 39.000000000000007 1.0000000180025095e-35 63.000000000000007
decision_type=2 2 2 2 2 2 2 2
left_child=1 5 3 -2 -4 -1 -7 -5
right_child=2 -3 4 7 -6 6 -8 -9
leaf_value=-0.0069394765812893344 -0.010262107513584631 0.0018987401929971474 -0.011839636810319763 0.0030425064580686702 0.001549412238176392 -0.0054080667775766259 0.0040456242592457588 0.0089387235990954234
leaf_weight=630868.57005894929 43052.459785267711 326570.99097691476 81865.400253102183 1279718.9073466584 105489.05910283327 288414.24649579823 181107.30196119845 216772.08524817973
leaf_count=3960929 277888 1296574 635936 3875736 385436 1588692 595993 336004
internal_value=0 -0.00321305 0.00265424 0.00350065 -0.00430099 -0.00473011 -0.00176152 0.00389659
internal_weight=0 1.42696e+06 1.7269e+06 1.53954e+06 187354 1.10039e+06 469522 1.49649e+06
internal_count=12953188 7442188 5511000 4489628 1021372 6145614 2184685 4211740
is_linear=0
shrinkage=0.01


Tree=56
num_leaves=9
num_cat=0
split_feature=5 12 52 62 126 125 2 92
split_gain=264425 118738 97891.5 94399.6 92382.1 82183.9 74037.7 54911.1
threshold=212.50000000000003 1.0000000180025095e-35 1.0000000180025095e-35 1.0000000180025095e-35 11575.500000000002 686.50000000000011 31.000000000000004 1.0000000180025095e-35
decision_type=2 2 2 2 2 2 2 2
left_child=4 3 -3 -2 5 -1 -5 -7
right_child=1 2 -4 6 -6 7 -8 -9
leaf_value=-0.0069920761263742547 -0.01071477364779754 -0.012151057628856848 0.0013867699266799508 0.0003979106872423544 0.0023381084859579516 -0.0042913933306594192 0.0050677883586429254 0.0032533084562934005
leaf_weight=644158.66128623486 46889.029660008848 95712.134080760181 120860.11546453834 483416.73142182082 220776.44908720255 236926.15956969559 1140402.3600951284 162718.59455312043
leaf_count=3994214 309952 752836 459584 1798924 851786 1318606 2902460 564826
internal_value=0 0.00237054 -0.00459615 0.00327362 -0.00353886 -0.00478191 0.00367755 -0.00121951
internal_weight=0 1.88728e+06 216572 1.67071e+06 1.26458e+06 1.0438e+06 1.62382e+06 399645
internal_count=12953188 6223756 1212420 5011336 6729432 5877646 4701384 1883432
is_linear=0
shrinkage=0.01


Tree=57
num_leaves=9
num_cat=0
split_feature=6 12 2 79 5 0 62 92
split_gain=259592 125393 108318 99023.2 97704.9 63233.5 48766.4 49566.9
threshold=5674.5000000000009 1.0000000180025095e-35 51.000000000000007 1.0000000180025095e-35 703.50000000000011 1.5000000000000002 1.0000000180025095e-35 1.0000000180025095e-35
decision_type=2 2 2 2 2 2 2 2
left_child=1 3 4 5 -2 6 -1 -8
right_child=2 -3 -4 -5 -6 -7 7 -9
leaf_value=-0.010478999052561382 -0.00064830352767407797 -0.010232538947912427 0.0057808645519888714 -0.0068376636237043511 0.006756343586262579 -0.0054340677539051301 -0.0010386707104704837 0.0048731050694321449
leaf_weight=32560.711873531342 1000566.9841114059 223644.92259731889 629077.78905370831 304510.97373853624 216814.25292152911 173118.80883366615 266791.48359584808 302787.24502841383
leaf_count=240480 4179676 1724776 1413488 1951896 490312 930524 1191712 830324
internal_value=0 -0.00341728 0.00241154 -0.00200569 0.000670456 -0.000107754 0.00142359 0.00210402
internal_weight=0 1.30341e+06 1.84646e+06 1.07977e+06 1.21738e+06 775258 602139 569579
internal_count=12953188 6869712 6083476 5144936 4669988 3193040 2262516 2022036
is_linear=0
shrinkage=0.01


Tree=58
num_leaves=9
num_cat=0
split_feature=12 6 52 92 62 6 62 2
split_gain=256028 186014 140799 102262 119193 100412 96219.4 74146.5
threshold=1.0000000180025095e-35 5034.5000000000009 1.0000000180025095e-35 1.0000000180025095e-35 1.0000000180025095e-35 1759.5000000000002 1.0000000180025095e-35 29.000000000000004
decision_type=2 2 2 2 2 2 2 2
left_child=1 3 -2 5 -5 -1 -3 -6
right_child=2 6 -4 4 7 -7 -8 -9
leaf_value=-0.0098937354589236463 -0.011893176828700801 -0.010656464018100982 -0.00082524311467834129 -0.012233881350820935 -0.0086809355476161389 -0.0014635720540045437 0.0036124120508428908 0.0053693442133434391
leaf_weight=240546.98792377114 252891.72490707785 48658.819673888385 210701.54398822039 54223.011274695396 42683.152912259102 342413.72529336065 1642571.75025969 312898.02703329176
leaf_count=1644616 2020032 323980 1035400 420840 257848 1636600 4783548 830324
internal_value=0 0.00118489 -0.00686284 -0.00225117 0.00157678 -0.00494211 0.00320188 0.00368278
internal_weight=0 2.684e+06 463593 992765 409804 582961 1.69123e+06 355581
internal_count=12953188 9897756 3055432 4790228 1509012 3281216 5107528 1088172
is_linear=0
shrinkage=0.01


Tree=59
num_leaves=9
num_cat=0
split_feature=12 6 52 92 62 6 62 2
split_gain=251383 182409 138817 100312 117088 98716.7 94387.8 72705.6
threshold=1.0000000180025095e-35 5034.5000000000009 1.0000000180025095e-35 1.0000000180025095e-35 1.0000000180025095e-35 1759.5000000000002 1.0000000180025095e-35 29.000000000000004
decision_type=2 2 2 2 2 2 2 2
left_child=1 3 -2 5 -5 -1 -3 -6
right_child=2 6 -4 4 7 -7 -8 -9
leaf_value=-0.0098125572367140229 -0.011815997306916314 -0.010563595572259186 -0.00081708133565136986 -0.012149932088425781 -0.0085987224427752779 -0.0014491557330238223 0.0035777687146089547 0.0053179923977196208
leaf_weight=240113.81515185535 252002.58706235886 48596.044558309019 210678.36238603294 54052.541259273887 42660.451442345977 342362.16588420421 1641895.2776959836 312760.93571344018
leaf_count=1644616 2020032 323980 1035400 420840 257848 1636600 4783548 830324
internal_value=0 0.00117371 -0.00680772 -0.00223052 0.00156225 -0.0048968 0.00317125 0.0036476
internal_weight=0 2.68244e+06 462681 991950 409474 582476 1.69049e+06 355421
internal_count=12953188 9897756 3055432 4790228 1509012 3281216 5107528 1088172
is_linear=0
shrinkage=0.01


Tree=60
num_leaves=9
num_cat=0
split_feature=12 6 52 92 62 6 62 2
split_gain=246827 178874 136873 98399.2 115024 97055.8 92593.4 71294
threshold=1.0000000180025095e-35 5034.5000000000009 1.0000000180025095e-35 1.0000000180025095e-35 1.0000000180025095e-35 1759.5000000000002 1.0000000180025095e-35 29.000000000000004
decision_type=2 2 2 2 2 2 2 2
left_child=1 3 -2 5 -5 -1 -3 -6
right_child=2 6 -4 4 7 -7 -8 -9
leaf_value=-0.0097323526649182816 -0.011739800684000372 -0.010471990296165858 -0.00080899921725009869 -0.012067133713305136 -0.0085175451748072378 -0.0014348804224568127 0.0035434657980401652 0.0052671840930563945
leaf_weight=239673.87902859598 251106.31206982583 48531.258950755 210655.34801711142 53880.05379255116 42636.479161582887 342310.77166745812 1641215.372854203 312620.82164204866
leaf_count=1644616 2020032 323980 1035400 420840 257848 1636600 4783548 830324
internal_value=0 0.00116265 -0.00675318 -0.00221009 0.00154788 -0.00485196 0.00314093 0.0036128
internal_weight=0 2.68087e+06 461762 991122 409137 581985 1.68975e+06 355257
internal_count=12953188 9897756 3055432 4790228 1509012 3281216 5107528 1088172
is_linear=0
shrinkage=0.01


Tree=61
num_leaves=9
num_cat=0
split_feature=12 6 52 92 62 6 62 2
split_gain=242357 175408 134964 96524.4 113002 95427.7 90835.2 70267.4
threshold=1.0000000180025095e-35 5034.5000000000009 1.0000000180025095e-35 1.0000000180025095e-35 1.0000000180025095e-35 1759.5000000000002 1.0000000180025095e-35 31.000000000000004
decision_type=2 2 2 2 2 2 2 2
left_child=1 3 -2 5 -5 -1 -3 -8
right_child=2 6 -4 4 -6 -7 7 -9
leaf_value=-0.0096530991599552991 -0.011664561387752971 -0.010381615421316189 -0.00080099648886315644 -0.011985454371192019 0.0035783730167716979 -0.0014207454614633913 0.00033690431466149652 0.0048595632087415404
leaf_weight=239227.47037258744 250203.28757853061 48464.534407429397 210632.50189492106 53705.64303354919 355089.06884675473 342259.54862862825 489717.14088831842 1150815.1581571028
leaf_count=1644616 2020032 323980 1035400 420840 1088172 1636600 1827648 2955900
internal_value=0 0.00115169 -0.00669919 -0.00218988 0.00153367 -0.00480759 0.0031109 0.0035095
internal_weight=0 2.67928e+06 460836 990282 408795 581487 1.689e+06 1.64053e+06
internal_count=12953188 9897756 3055432 4790228 1509012 3281216 5107528 4783548
is_linear=0
shrinkage=0.01


Tree=62
num_leaves=9
num_cat=0
split_feature=5 125 2 5 2 92 126 126
split_gain=238117 105912 94262.2 82046.3 67725.5 91681.9 57661.6 54191.3
threshold=246.50000000000003 6187.5000000000009 61.000000000000007 703.50000000000011 39.000000000000007 1.0000000180025095e-35 7353.5000000000009 119027.50000000001
decision_type=2 2 2 2 2 2 2 2
left_child=1 4 3 6 -1 7 -2 -6
right_child=2 -3 -4 -5 5 -7 -8 -9
leaf_value=-0.0066774929009889607 -0.00068974484317537463 0.0019750829977662658 0.0082844006738797011 0.0068255184756374409 -0.006947116751626535 0.0039411314355080294 0.0044357554243802059 0.0053948953940382537
leaf_weight=625375.21483640373 945606.81056862324 325247.07402223349 242142.41468792409 246015.54073705524 245318.14744359255 180376.14097554237 285836.85367950797 41610.416903018951
leaf_count=3960929 3766506 1296574 396792 541080 1463008 595993 806622 125684
internal_value=0 -0.00303431 0.00250108 0.00155325 -0.00452541 -0.00164536 0.000499962 -0.00515728
internal_weight=0 1.41793e+06 1.7196e+06 1.47746e+06 1.09268e+06 467305 1.23144e+06 286929
internal_count=12953188 7442188 5511000 5114208 6145614 2184685 4573128 1588692
is_linear=0
shrinkage=0.01


Tree=63
num_leaves=9
num_cat=0
split_feature=12 6 52 92 62 6 62 2
split_gain=236417 168898 133099 93850 110593 93677.5 88882.9 69334.3
threshold=1.0000000180025095e-35 5034.5000000000009 1.0000000180025095e-35 1.0000000180025095e-35 1.0000000180025095e-35 1759.5000000000002 1.0000000180025095e-35 29.000000000000004
decision_type=2 2 2 2 2 2 2 2
left_child=1 3 -2 5 -5 -1 -3 -6
right_child=2 6 -4 4 7 -7 -8 -9
leaf_value=-0.0095378006682934266 -0.0115738244389393 -0.01029661219258555 -0.00077206601273546531 -0.011878682432140407 -0.0084192184082024866 -0.001373193694245314 0.003454996965777969 0.0051804902341966831
leaf_weight=238534.56628990173 249075.81208161265 48389.173141546547 210462.75125284493 53469.101399689913 42600.335589684546 342029.92784219235 1638881.7321264893 312360.39168940485
leaf_count=1644616 2020032 323980 1035400 420840 257848 1636600 4783548 830324
internal_value=0 0.00113729 -0.00662676 -0.00214399 0.00152872 -0.00472776 0.00306062 0.00354833
internal_weight=0 2.67627e+06 459539 988994 408430 580564 1.68727e+06 354961
internal_count=12953188 9897756 3055432 4790228 1509012 3281216 5107528 1088172
is_linear=0
shrinkage=0.01


Tree=64
num_leaves=9
num_cat=0
split_feature=12 6 52 92 62 6 62 126
split_gain=232144 165628 131258 92064.2 108657 92116.2 87199.2 69014.2
threshold=1.0000000180025095e-35 5034.5000000000009 1.0000000180025095e-35 1.0000000180025095e-35 1.0000000180025095e-35 1759.5000000000002 1.0000000180025095e-35 7353.5000000000009
decision_type=2 2 2 2 2 2 2 2
left_child=1 3 -2 5 -5 -1 -3 -8
right_child=2 6 -4 4 -6 -7 7 -9
leaf_value=-0.0094608080799596789 -0.011500622752079448 -0.010208556041460119 -0.00076442605027996109 -0.011799492762879789 0.0035145834074368277 -0.0013596631218352816 0.0021629241368051576 0.0067681399392170447
leaf_weight=238073.33360359818 248159.17101307213 48318.850903816521 210440.71031663567 53290.565578348935 354786.26582053304 341979.54605496675 1190343.7500007525 447847.84465748817
leaf_count=1644616 2020032 323980 1035400 420840 1088172 1636600 3805641 977907
internal_value=0 0.00112659 -0.00657403 -0.00212444 0.00151473 -0.00468465 0.00303138 0.0034219
internal_weight=0 2.67464e+06 458600 988130 408077 580053 1.68651e+06 1.63819e+06
internal_count=12953188 9897756 3055432 4790228 1509012 3281216 5107528 4783548
is_linear=0
shrinkage=0.01


Tree=65
num_leaves=9
num_cat=0
split_feature=12 6 52 92 62 6 62 2
split_gain=227952 162422 129451 90315.2 106749 90585.1 85550.6 68262.6
threshold=1.0000000180025095e-35 5034.5000000000009 1.0000000180025095e-35 1.0000000180025095e-35 1.0000000180025095e-35 1759.5000000000002 1.0000000180025095e-35 31.000000000000004
decision_type=2 2 2 2 2 2 2 2
left_child=1 3 -2 5 -5 -1 -3 -8
right_child=2 6 -4 4 -6 -7 7 -9
leaf_value=-0.0093846919362834368 -0.011428299559970117 -0.010121639780900476 -0.00075686077491321242 -0.011721323454461634 0.0034803378503890162 -0.0013462650984841318 0.00026195188693329136 0.0047222795344229896
leaf_weight=237606.5715278089 247236.9688866511 48246.796686381102 210418.82920508832 53110.403425484896 354694.97049555928 341929.35525425524 489385.33880137652 1148065.3414683938
leaf_count=1644616 2020032 323980 1035400 420840 1088172 1636600 1827648 2955900
internal_value=0 0.00111599 -0.00652184 -0.0021049 0.00150055 -0.00464198 0.00300252 0.00338922
internal_weight=0 2.67304e+06 457656 987341 407805 579536 1.6857e+06 1.63745e+06
internal_count=12953188 9897756 3055432 4790228 1509012 3281216 5107528 4783548
is_linear=0
shrinkage=0.01


Tree=66
num_leaves=9
num_cat=0
split_feature=12 126 125 52 6 95 83 46
split_gain=223839 160023 140609 127675 99397.9 74023.9 51755.6 46284.6
threshold=1.0000000180025095e-35 6721.5000000000009 8141.0000000000009 1.0000000180025095e-35 6216.5000000000009 1.0000000180025095e-35 1.0000000180025095e-35 1.0000000180025095e-35
decision_type=2 2 2 2 2 2 2 2
left_child=1 2 4 7 5 -1 -6 -2
right_child=3 -3 -4 -5 6 -7 -8 -9
leaf_value=-0.0069614996980337206 -0.011887190148190119 0.0052250697464528897 0.004251643490910794 -0.0007493698182821539 -0.00085330865243355271 3.6400605995109674e-05 0.0052833781366245624 0.024074289654654326
leaf_weight=463037.33835924417 242676.99214354157 696933.94758243859 497133.86874635518 210397.11167402565 612632.77108409256 224423.42397776246 177179.26719796658 3632.5698649585247
leaf_count=2821781 2016024 1904883 1466654 1035400 2379949 919196 405293 4008
internal_value=0 0.00110553 -0.000348605 -0.00647015 -0.00189669 -0.00467702 0.00052334 -0.0113568
internal_weight=0 2.67134e+06 1.97441e+06 456707 1.47727e+06 687461 789812 246310
internal_count=12953188 9897756 7992873 3055432 6526219 3740977 2785242 2020032
is_linear=0
shrinkage=0.01


Tree=67
num_leaves=9
num_cat=0
split_feature=12 6 92 52 62 2 6 126
split_gain=219799 157507 127766 125933 99303.3 99082.7 79454.1 64857.1
threshold=1.0000000180025095e-35 4155.0000000000009 1.0000000180025095e-35 1.0000000180025095e-35 1.0000000180025095e-35 51.000000000000007 12056.000000000002 11575.500000000002
decision_type=2 2 2 2 2 2 2 2
left_child=1 2 7 -2 -4 6 -3 -1
right_child=3 5 4 -5 -6 -7 -8 -9
leaf_value=-0.0076590615746082308 -0.01128634146025298 -0.00095045039536919976 -0.011999082406287467 -0.00074195242531849758 0.0036567702851628336 0.0058676844048174562 0.004606478861852629 0.0015089013487486792
leaf_weight=386243.80942171812 245374.77707502991 734656.58457123488 45830.012597613037 210375.56029553711 349310.71012720466 661785.34909706563 395996.60023282468 96427.655956096947
leaf_count=2475557 2020032 3065452 368068 1035400 1054104 1463588 1068800 402187
internal_value=0 0.00109492 -0.0023756 -0.00641902 0.00184094 0.00279454 0.000995792 -0.00582749
internal_weight=0 2.67025e+06 877812 455750 395141 1.79244e+06 1.13065e+06 482671
internal_count=12953188 9897756 4299916 3055432 1422172 5597840 4134252 2877744
is_linear=0
shrinkage=0.01


Tree=68
num_leaves=9
num_cat=0
split_feature=6 12 2 126 5 95 125 126
split_gain=215947 112946 96698.8 87073.1 83162.1 71596.6 67006.2 54481.2
threshold=5749.5000000000009 1.0000000180025095e-35 61.000000000000007 11575.500000000002 703.50000000000011 1.0000000180025095e-35 6507.5000000000009 7353.5000000000009
decision_type=2 2 2 2 2 2 2 2
left_child=1 3 4 5 7 6 -1 -2
right_child=2 -3 -4 -5 -6 -7 -8 -9
leaf_value=-0.0071115979387150379 -0.00079630876303257714 -0.0096656344907860067 0.0079532181091651593 0.0039060081839255639 0.0066447767293709437 0.0009491724738551749 0.00078463273621869945 0.0040377945219349709
leaf_weight=442979.53826479614 1023620.6662518308 218923.26781050116 253236.97574792057 215051.68620885909 245152.35433179885 280536.95792236179 141889.64180128276 301899.56522068381
leaf_count=2747344 4191568 1740140 426184 730705 541080 1089110 612513 874544
internal_value=0 -0.00311588 0.00221882 -0.00178877 0.00129427 -0.00320391 -0.00519597 0.000304703
internal_weight=0 1.29938e+06 1.82391e+06 1.08046e+06 1.57067e+06 865406 584869 1.32552e+06
internal_count=12953188 6919812 6033376 5179672 5607192 4448967 3359857 5066112
is_linear=0
shrinkage=0.01


Tree=69
num_leaves=9
num_cat=0
split_feature=12 126 125 52 6 95 83 46
split_gain=213060 153258 135763 123877 93875.7 70298.3 49971.2 45460.9
threshold=1.0000000180025095e-35 6721.5000000000009 8141.0000000000009 1.0000000180025095e-35 6216.5000000000009 1.0000000180025095e-35 1.0000000180025095e-35 1.0000000180025095e-35
decision_type=2 2 2 2 2 2 2 2
left_child=1 2 4 7 5 -1 -6 -2
right_child=3 -3 -4 -5 6 -7 -8 -9
leaf_value=-0.0068061049178524211 -0.011712649985973874 0.0051121507711560368 0.0041770927594462597 -0.00070541524391701141 -0.00086860748416235634 1.8438945644160039e-05 0.0051682420191589045 0.023863674904850363
leaf_weight=461668.42382195592 240276.48493329436 695832.69126991183 496364.29685870558 210144.22462365776 612417.90955667198 224255.54907314479 176677.4035513252 3646.3412709385157
leaf_count=2821781 2016024 1904883 1466654 1035400 2379949 919196 405293 4008
internal_value=0 0.00107741 -0.000346715 -0.00633276 -0.00186904 -0.00457489 0.000483035 -0.0111808
internal_weight=0 2.66722e+06 1.97138e+06 454067 1.47502e+06 685924 789095 243923
internal_count=12953188 9897756 7992873 3055432 6526219 3740977 2785242 2020032
is_linear=0
shrinkage=0.01


Tree=70
num_leaves=9
num_cat=0
split_feature=12 6 92 52 62 2 5 126
split_gain=209222 150867 123627 122203 97264.5 95181.1 76600.7 61458.9
threshold=1.0000000180025095e-35 4155.0000000000009 1.0000000180025095e-35 1.0000000180025095e-35 1.0000000180025095e-35 51.000000000000007 703.50000000000011 11575.500000000002
decision_type=2 2 2 2 2 2 2 2
left_child=1 2 7 -2 -4 6 -3 -1
right_child=3 5 4 -5 -6 -7 -8 -9
leaf_value=-0.0075215533632835979 -0.011112445061561217 -0.00023870847139890702 -0.011912230947187786 -0.00069842994254148527 0.0036112414780288316 0.0057494318962165282 0.0065805728087704376 0.0014021803680223052
leaf_weight=385063.63385719061 242975.04791390896 929791.85781095922 45639.577508971095 210123.68574581295 349070.83786117285 659816.19844532758 200189.51488462836 96523.742400959134
leaf_count=2475557 2020032 3695376 368068 1035400 1054104 1463588 438876 402187
internal_value=0 0.00106709 -0.00233257 -0.00628297 0.00181629 0.00273158 0.000969408 -0.00573298
internal_weight=0 2.6661e+06 876298 453099 394710 1.7898e+06 1.12998e+06 481587
internal_count=12953188 9897756 4299916 3055432 1422172 5597840 4134252 2877744
is_linear=0
shrinkage=0.01


Tree=71
num_leaves=9
num_cat=0
split_feature=6 12 2 79 5 126 92 62
split_gain=205713 105309 92745.2 85640.6 80242.7 55896.9 60643 63621.4
threshold=5674.5000000000009 1.0000000180025095e-35 61.000000000000007 1.0000000180025095e-35 703.50000000000011 11575.500000000002 1.0000000180025095e-35 1.0000000180025095e-35
decision_type=2 2 2 2 2 2 2 2
left_child=1 3 4 5 -2 6 -1 -8
right_child=2 -3 -4 -5 -6 -7 7 -9
leaf_value=-0.0048026266258664151 0.00028677531659667852 -0.0094502377733038795 0.0077805216304857698 -0.0063177514596526509 0.0065174758109558884 0.0047654530264678446 -0.011759184131871657 0.0032403152240320049
leaf_weight=288157.06162877381 1334302.5098311305 215206.14720706642 252382.21918171644 299844.41409249604 244584.20635761321 185437.54233430326 31657.669340446591 264886.4438405484
leaf_count=1569269 5114208 1724776 428188 1951896 541080 568636 255893 799242
internal_value=0 -0.00306746 0.00215172 -0.00178368 0.00125197 -1.83988e-05 -0.00153559 0.00163904
internal_weight=0 1.28519e+06 1.83127e+06 1.06998e+06 1.57889e+06 770139 584701 296544
internal_count=12953188 6869712 6083476 5144936 5655288 3193040 2624404 1055135
is_linear=0
shrinkage=0.01


Tree=72
num_leaves=9
num_cat=0
split_feature=12 62 126 125 52 6 92 5
split_gain=203050 148420 135145 121631 120118 80118.8 87147.9 62277.9
threshold=1.0000000180025095e-35 1.0000000180025095e-35 6721.5000000000009 8141.0000000000009 1.0000000180025095e-35 6216.5000000000009 1.0000000180025095e-35 118.50000000000001
decision_type=2 2 2 2 2 2 2 2
left_child=1 -1 3 5 -2 6 7 -3
right_child=4 2 -4 -5 -6 -7 -8 -9
leaf_value=-0.010709023114517286 -0.011011078100271344 -0.01042170264968266 0.0053445849631167386 0.0044597816085264926 -0.00066896799078298779 0.0008562142384337557 0.0010749137868396013 -0.0026964779552317432
leaf_weight=103164.80808211863 241521.19533145428 213866.14680732042 680110.20326261967 484384.52099183202 209904.82923793048 753067.90830293298 224358.92626620084 203794.89067902416
leaf_count=762188 2020032 1546415 1797729 1383749 1035400 2562772 808499 1036404
internal_value=0 0.00105077 0.00152475 0.0001425 -0.00620219 -0.00135649 -0.00395192 -0.00665223
internal_weight=0 2.66275e+06 2.55958e+06 1.87947e+06 451426 1.39509e+06 642020 417661
internal_count=12953188 9897756 9135568 7337839 3055432 5954090 3391318 2582819
is_linear=0
shrinkage=0.01


Tree=73
num_leaves=9
num_cat=0
split_feature=12 62 126 125 52 6 92 2
split_gain=199399 145775 132534 119264 118501 78603.3 85571.9 61973.2
threshold=1.0000000180025095e-35 1.0000000180025095e-35 6721.5000000000009 8141.0000000000009 1.0000000180025095e-35 6216.5000000000009 1.0000000180025095e-35 29.000000000000004
decision_type=2 2 2 2 2 2 2 2
left_child=1 -1 3 5 -2 6 -3 -8
right_child=4 2 -4 -5 -6 -7 7 -9
leaf_value=-0.010628920434026424 -0.010944306232858284 -0.0065946978268174644 0.0052940670082942164 0.0044170797855572217 -0.00066234108133311417 0.00084774448177637465 -0.010396636867608786 0.0034745341685529841
leaf_weight=102904.17372941226 240569.55973105133 417095.84022601694 679735.95127363503 484177.65547915548 209885.1673328504 752986.11923421919 38982.795744366944 185361.52106046677
leaf_count=762188 2020032 2582819 1797729 1383749 1035400 2562772 255657 552842
internal_value=0 0.00104084 0.00151023 0.000141129 -0.00615352 -0.00134358 -0.00391598 0.00106423
internal_weight=0 2.66124e+06 2.55834e+06 1.8786e+06 450455 1.39443e+06 641440 224344
internal_count=12953188 9897756 9135568 7337839 3055432 5954090 3391318 808499
is_linear=0
shrinkage=0.01


Tree=74
num_leaves=9
num_cat=0
split_feature=6 2 5 62 92 2 6 2
split_gain=197140 99079.8 88428.4 87477.6 167672 83160.7 80828.6 50465
threshold=5034.5000000000009 54.500000000000007 703.50000000000011 1.0000000180025095e-35 1.0000000180025095e-35 25.500000000000004 951.50000000000011 54.500000000000007
decision_type=2 2 2 2 2 2 2 2
left_child=3 2 -2 -1 6 -6 -5 -8
right_child=1 -3 -4 4 5 -7 7 -9
leaf_value=-0.010714177876727404 -0.00061122190252689134 0.0055138129118531302 0.00624314236602652 -0.011552130808646087 -0.0098971131618111226 0.0045415132323095714 -0.0055214394550163878 0.0013822274357589521
leaf_weight=137425.03545212746 1140329.4475928098 560330.97048851103 225423.52213412523 158936.51533691585 45004.140196926892 351045.98471607268 336142.42605739087 154574.61840510368
leaf_count=1119568 4782212 1243816 511688 1221104 306612 1044084 2090172 633932
internal_value=0 0.00197287 0.000520121 -0.00321344 -0.0022277 0.00290082 -0.00535422 -0.0033468
internal_weight=0 1.92608e+06 1.36575e+06 1.18313e+06 1.0457e+06 396050 649654 490717
internal_count=12953188 6537716 5293900 6415472 5295904 1350696 3945208 2724104
is_linear=0
shrinkage=0.01


Tree=75
num_leaves=9
num_cat=0
split_feature=12 62 126 52 125 6 92 5
split_gain=194107 141932 129447 116580 116409 75817.6 82455.8 60858.1
threshold=1.0000000180025095e-35 1.0000000180025095e-35 6721.5000000000009 1.0000000180025095e-35 8141.0000000000009 6216.5000000000009 1.0000000180025095e-35 118.50000000000001
decision_type=2 2 2 2 2 2 2 2
left_child=1 -1 4 -2 5 6 7 -3
right_child=3 2 -4 -5 -6 -7 -8 -9
leaf_value=-0.010514334010738473 -0.010853631174182228 -0.010236435303392171 0.0052311092320133949 -0.00064013157809151417 0.0043623349488004165 0.00081986140830862656 0.0010281516437832953 -0.0025860478620171315
leaf_weight=102452.28451661766 239226.72019828856 212638.51300471276 678934.16317340732 209736.64235627651 483638.85880935192 752565.07467342913 224135.30479155481 203484.52554394305
leaf_count=762188 2020032 1546415 1797729 1035400 1383749 2562772 808499 1036404
internal_value=0 0.00102666 0.00148937 -0.00608232 0.000135552 -0.00133214 -0.00386162 -0.00649539
internal_weight=0 2.65785e+06 2.5554e+06 448963 1.87646e+06 1.39282e+06 640258 416123
internal_count=12953188 9897756 9135568 3055432 7337839 5954090 3391318 2582819
is_linear=0
shrinkage=0.01


Tree=76
num_leaves=9
num_cat=0
split_feature=6 2 5 62 92 2 6 2
split_gain=190959 96381.2 86379 85262.5 162793 81310.5 79093.6 48995.3
threshold=5034.5000000000009 54.500000000000007 703.50000000000011 1.0000000180025095e-35 1.0000000180025095e-35 25.500000000000004 951.50000000000011 54.500000000000007
decision_type=2 2 2 2 2 2 2 2
left_child=3 2 -2 -1 6 -6 -5 -8
right_child=1 -3 -4 4 5 -7 7 -9
leaf_value=-0.010597873070201951 -0.00060881869724320112 0.0054384797294804513 0.0061700132091915914 -0.011429759510804027 -0.0098113681249403038 0.0044809004260252649 -0.0054429501766642121 0.0013623585317966117
leaf_weight=136556.20424920321 1139684.8813815191 559208.07362553477 225101.59442878515 158151.7238169387 44900.705742239952 350787.22024831176 335360.208211869 154547.07107207179
leaf_count=1119568 4782212 1243816 511688 1221104 306612 1044084 2090172 633932
internal_value=0 0.00194193 0.000509251 -0.00316727 -0.0021951 0.00285908 -0.00528106 -0.00329613
internal_weight=0 1.92399e+06 1.36479e+06 1.1803e+06 1.04375e+06 395688 648059 489907
internal_count=12953188 6537716 5293900 6415472 5295904 1350696 3945208 2724104
is_linear=0
shrinkage=0.01


Tree=77
num_leaves=9
num_cat=0
split_feature=12 126 125 52 6 95 83 46
split_gain=188965 138419 123283 114700 81227.5 62511 46809.7 45052.9
threshold=1.0000000180025095e-35 6721.5000000000009 8141.0000000000009 1.0000000180025095e-35 6216.5000000000009 1.0000000180025095e-35 1.0000000180025095e-35 1.0000000180025095e-35
decision_type=2 2 2 2 2 2 2 2
left_child=1 2 4 7 5 -1 -6 -2
right_child=3 -3 -4 -5 6 -7 -8 -9
leaf_value=-0.0064447400653482876 -0.011305650726300503 0.004855962359580677 0.0039768716992790313 -0.00061833523057076172 -0.00091792869178983065 1.1886446863892196e-05 0.004939175599951052 0.024233899351381365
leaf_weight=457504.76671520621 234256.58260696381 692604.67973743379 494017.16643540561 209587.83014348894 611591.95182668418 223057.95327729732 175633.62753935158 3622.1151425093412
leaf_count=2821781 2016024 1904883 1466654 1035400 2379949 919196 405293 4008
internal_value=0 0.00101271 -0.000344131 -0.00601216 -0.00179846 -0.00432855 0.000388818 -0.0107645
internal_weight=0 2.65441e+06 1.96181e+06 447467 1.46779e+06 680563 787226 237879
internal_count=12953188 9897756 7992873 3055432 6526219 3740977 2785242 2020032
is_linear=0
shrinkage=0.01


Tree=78
num_leaves=9
num_cat=0
split_feature=12 62 126 52 125 6 92 5
split_gain=185574 137903 123935 113178 111357 71656 78698.1 59466.3
threshold=1.0000000180025095e-35 1.0000000180025095e-35 6721.5000000000009 1.0000000180025095e-35 8141.0000000000009 6216.5000000000009 1.0000000180025095e-35 118.50000000000001
decision_type=2 2 2 2 2 2 2 2
left_child=1 -1 4 -2 5 6 7 -3
right_child=3 2 -4 -5 -6 -7 -8 -9
leaf_value=-0.010400072562456526 -0.010700677359242492 -0.010059976214063245 0.0051232955498176028 -0.00061220601318373656 0.0042703784368303636 0.00078834388601263863 0.0010091851270068151 -0.0024840635461842596
leaf_weight=101977.9417091608 236910.08021195978 211411.90237703919 677754.61678416282 209569.41902960092 482897.13345888257 752001.26068159193 223994.93869782239 203190.20362322032
leaf_count=762188 2020032 1546415 1797729 1035400 1383749 2562772 808499 1036404
