{"learner":{"attributes":{"best_iteration":"19","best_ntree_limit":"20","scikit_learn":"{\"use_label_encoder\": null, \"n_estimators\": 20, \"objective\": \"binary:logistic\", \"max_depth\": 6, \"max_leaves\": null, \"max_bin\": null, \"grow_policy\": null, \"learning_rate\": 0.3, \"verbosity\": null, \"booster\": null, \"tree_method\": null, \"gamma\": null, \"min_child_weight\": null, \"max_delta_step\": null, \"subsample\": null, \"sampling_method\": null, \"colsample_bytree\": null, \"colsample_bylevel\": null, \"colsample_bynode\": null, \"reg_alpha\": null, \"reg_lambda\": null, \"scale_pos_weight\": null, \"base_score\": null, \"missing\": NaN, \"num_parallel_tree\": null, \"random_state\": null, \"n_jobs\": null, \"monotone_constraints\": null, \"interaction_constraints\": null, \"importance_type\": null, \"gpu_id\": null, \"validate_parameters\": null, \"predictor\": null, \"enable_categorical\": false, \"feature_types\": null, \"max_cat_to_onehot\": null, \"max_cat_threshold\": null, \"eval_metric\": null, \"early_stopping_rounds\": null, \"callbacks\": null, \"classes_\": [0, 1], \"n_classes_\": 2, \"_estimator_type\": \"classifier\"}"},"feature_names":[],"feature_types":[],"gradient_booster":{"model":{"gbtree_model_param":{"num_parallel_tree":"1","num_trees":"20","size_leaf_vector":"0"},"tree_info":[0,0,0,0,0,0,0,0,0,0,0,0,0,0,0,0,0,0,0,0],"trees":[{"base_weights":[1.9467489E-8,-5.655816E-1,4.2852396E-1,-3.3118764E-1,-1.4896659E0,1.3650417E-1,9.6211135E-1,-3.9226815E-2,-1.0305616E0,-1.7855937E0,-9.8496103E-1,-1.6106507E-1,6.4375454E-1,1.0049369E0,-1.2986728E0,3.082778E-1,-4.8078182E-1,-1.4598265E0,-5.248014E-1,-1.8391352E0,-8.080648E-1,-1.6233615E0,-4.9994892E-1,-1.1011924E-1,-1.8450986E0,6.947409E-1,-1.37333E0,1.0640601E0,7.0823036E-2,4.5564187E-1,-1.9973881E0,-1.4633574E0,5.225349E-1,-1.1533031E0,-7.5052045E-2,-1.5319363E0,-3.3693168E-1,-7.0590293E-1,3.9423716E-1,-1.8948734E0,-1.2809172E0,-1.995701E0,7.5468534E-1,-1.7240841E0,5.660155E-1,8.357879E-1,-6.4965475E-1,4.858497E-2,-6.526718E-1,-1.9191746E0,1.7101547E-1,4.0088922E-1,9.505245E-1,-1.9973365E0,8.7365943E-1,9.016773E-1,1.3149695E0,2.4432345E-1,-1.5369942E0,-1.9638748E0,9.867459E-1,-1.6556951E0,-1.4743052E-4,-1.4356686E0,6.00724E-1,-1.3836939E0,-1.4601344E-1,3.0149978E-1,-6.3777715E-1,-1.5977039E0,-5.7093567E-1,-1.9899534E0,1.0311345E-1,-8.398558E-1,5.898142E-1,-6.0841775E-1,6.401833E-1,-1.9208701E0,-1.6320126E0,-1.5096672E0,8.574446E-1,-1.9778012E0,1.6809111E0,-1.773596E0,-5.899807E-1,1.6425413E0,-1.9622443E0,1.1603093E0,-1.0267832E0,-1.5743461E0,-2.542587E-1,-6.002666E-2,6.627816E-1,-1.6647091E0,3.241373E-1,-5.0161535E-1,-1.9579273E0,-1.937168E0,1.8843801E0,7.5732666E-1,-1.8825567E-1,8.6505276E-1,1.800037E0,1.7606999E0,-1.9602618E0,7.3963225E-1,1.2794576E0,1.3291817E0,-1.9778012E0,-1.9822015E0,3.2976374E-1,-1.9929363E0,1.3270819E0,1.425817E0,-1.9397864E0],"categories":[],"categories_nodes":[],"categories_segments":[],"categories_sizes":[],"default_left":[1,1,1,1,1,1,1,1,1,1,1,1,1,1,1,1,1,1,1,1,1,1,1,1,1,1,1,1,1,1,0,1,1,1,1,1,1,1,1,1,1,0,1,1,1,1,1,1,1,1,1,1,1,0,1,1,1,1,1,0,1,0,0,0,0,0,0,0,0,0,0,0,0,0,0,0,0,0,0,0,0,0,0,0,0,0,0,0,0,0,0,0,0,0,0,0,0,0,0,0,0,0,0,0,0,0,0,0,0,0,0,0,0,0,0],"id":0,"left_children":[1,3,5,7,9,11,13,15,17,19,21,23,25,27,29,31,33,35,37,39,41,43,45,47,49,51,53,55,57,59,-1,61,63,65,67,69,71,73,75,77,79,-1,81,83,85,87,89,91,93,95,97,99,101,-1,103,105,107,109,111,-1,113,-1,-1,-1,-1,-1,-1,-1,-1,-1,-1,-1,-1,-1,-1,-1,-1,-1,-1,-1,-1,-1,-1,-1,-1,-1,-1,-1,-1,-1,-1,-1,-1,-1,-1,-1,-1,-1,-1,-1,-1,-1,-1,-1,-1,-1,-1,-1,-1,-1,-1,-1,-1,-1,-1],"loss_changes":[6.932113E4,2.6704707E4,2.5355586E4,2.0081695E4,3.724004E3,1.5874799E4,5.5739023E3,1.0646681E4,6.2876426E3,8.214844E2,2.8547705E3,5.6868E3,4.0000781E3,3.1195938E3,1.3130331E3,1.4739295E4,8.337916E3,1.2680391E3,2.21378E3,4.61375E2,1.520248E3,8.789092E2,1.0488351E3,5.540136E3,2.910088E2,2.850332E3,1.3464215E3,2.163289E3,9.386518E2,3.947913E2,0E0,1.1790244E3,5.3045293E3,2.668212E3,4.0389768E3,9.295E2,6.8880347E2,1.9288452E3,5.4041833E2,8.947266E1,6.647732E2,0E0,8.994452E2,2.1268652E2,4.8184888E2,3.2080188E2,1.7233265E3,3.3208518E3,1.4395393E4,1.0215576E2,2.5612405E2,3.7069424E3,1.4706973E3,0E0,5.291811E2,1.9736289E3,9.793125E2,5.78354E2,4.3062988E2,0E0,3.2574713E2,0E0,0E0,0E0,0E0,0E0,0E0,0E0,0E0,0E0,0E0,0E0,0E0,0E0,0E0,0E0,0E0,0E0,0E0,0E0,0E0,0E0,0E0,0E0,0E0,0E0,0E0,0E0,0E0,0E0,0E0,0E0,0E0,0E0,0E0,0E0,0E0,0E0,0E0,0E0,0E0,0E0,0E0,0E0,0E0,0E0,0E0,0E0,0E0,0E0,0E0,0E0,0E0,0E0,0E0],"parents":[2147483647,0,0,1,1,2,2,3,3,4,4,5,5,6,6,7,7,8,8,9,9,10,10,11,11,12,12,13,13,14,14,15,15,16,16,17,17,18,18,19,19,20,20,21,21,22,22,23,23,24,24,25,25,26,26,27,27,28,28,29,29,31,31,32,32,33,33,34,34,35,35,36,36,37,37,38,38,39,39,40,40,42,42,43,43,44,44,45,45,46,46,47,47,48,48,49,49,50,50,51,51,52,52,54,54,55,55,56,56,57,57,58,58,60,60],"right_children":[2,4,6,8,10,12,14,16,18,20,22,24,26,28,30,32,34,36,38,40,42,44,46,48,50,52,54,56,58,60,-1,62,64,66,68,70,72,74,76,78,80,-1,82,84,86,88,90,92,94,96,98,100,102,-1,104,106,108,110,112,-1,114,-1,-1,-1,-1,-1,-1,-1,-1,-1,-1,-1,-1,-1,-1,-1,-1,-1,-1,-1,-1,-1,-1,-1,-1,-1,-1,-1,-1,-1,-1,-1,-1,-1,-1,-1,-1,-1,-1,-1,-1,-1,-1,-1,-1,-1,-1,-1,-1,-1,-1,-1,-1,-1,-1],"split_conditions":[2.365E2,5E-1,5.1E1,5E-1,5E-1,4.825E2,5E-1,5E-1,1.195E2,6.50435E4,8.75E1,5E-1,5E-1,5E-1,5.3E1,5E-1,7.15E1,2.0673E4,9.591E3,5E-1,5E-1,2.0001E4,3.3895E3,5E-1,5.128205E-1,1.7569E4,7.5E0,6.7E1,5E-1,7.571429E-1,-5.9921646E-1,5E-1,2.9E1,1.436E4,5E-1,1.5608E4,9.47E2,3.45E1,3.9625E3,5E-1,7.875E-1,-5.987103E-1,5E-1,5E-1,3.05E1,6E0,5E-1,1.8187E4,5E-1,1.3858321E-1,2.396E3,5.295E2,5.5E0,-5.9920096E-1,1.8571429E-1,4.365E2,4.55E2,5E-1,8.555E2,-5.8916247E-1,8.1428576E-1,-4.9670854E-1,-4.4229157E-5,-4.307006E-1,1.802172E-1,-4.151082E-1,-4.3804035E-2,9.044994E-2,-1.9133316E-1,-4.793112E-1,-1.7128071E-1,-5.9698606E-1,3.0934036E-2,-2.5195676E-1,1.7694426E-1,-1.8252534E-1,1.92055E-1,-5.7626104E-1,-4.896038E-1,-4.5290017E-1,2.5723338E-1,-5.933404E-1,5.0427336E-1,-5.3207886E-1,-1.7699422E-1,4.9276242E-1,-5.886733E-1,3.480928E-1,-3.08035E-1,-4.7230384E-1,-7.627761E-2,-1.8008E-2,1.988345E-1,-4.9941275E-1,9.724119E-2,-1.504846E-1,-5.873782E-1,-5.811504E-1,5.6531405E-1,2.27198E-1,-5.64767E-2,2.5951585E-1,5.400111E-1,5.2821E-1,-5.8807856E-1,2.2188969E-1,3.8383728E-1,3.987545E-1,-5.933404E-1,-5.9466046E-1,9.892913E-2,-5.978809E-1,3.981246E-1,4.2774513E-1,-5.8193594E-1],"split_indices":[5,12,2,79,52,5,12,90,5,125,5,60,77,97,2,62,5,126,125,83,95,126,6,12,107,6,0,3,21,110,0,14,3,126,81,125,6,2,6,75,112,0,21,78,2,125,82,126,52,103,1,5,0,0,109,5,5,81,5,0,110,0,0,0,0,0,0,0,0,0,0,0,0,0,0,0,0,0,0,0,0,0,0,0,0,0,0,0,0,0,0,0,0,0,0,0,0,0,0,0,0,0,0,0,0,0,0,0,0,0,0,0,0,0,0],"split_type":[0,0,0,0,0,0,0,0,0,0,0,0,0,0,0,0,0,0,0,0,0,0,0,0,0,0,0,0,0,0,0,0,0,0,0,0,0,0,0,0,0,0,0,0,0,0,0,0,0,0,0,0,0,0,0,0,0,0,0,0,0,0,0,0,0,0,0,0,0,0,0,0,0,0,0,0,0,0,0,0,0,0,0,0,0,0,0,0,0,0,0,0,0,0,0,0,0,0,0,0,0,0,0,0,0,0,0,0,0,0,0,0,0,0,0],"sum_hessian":[2.8601725E5,1.23291836E5,1.6272542E5,9.8347375E4,2.4944457E4,1.0516975E5,5.7555664E4,6.9383555E4,2.896382E4,1.572295E4,9.221506E3,6.6285336E4,3.8884414E4,5.6486215E4,1.0694508E3,3.8826965E4,3.0556592E4,1.5665669E4,1.3298151E4,1.4905652E4,8.172971E2,3.9801975E3,5.2413086E3,6.4339973E4,1.9453646E3,3.7926395E4,9.5801984E2,5.3123695E4,3.3625164E3,3.0471896E2,7.647318E2,4.188397E3,3.463857E4,1.1497296E4,1.9059295E4,1.4720018E4,9.4565155E2,1.1109246E4,2.1889058E3,1.3550263E4,1.3553905E3,4.6422507E2,3.5307208E2,3.8053445E3,1.7485309E2,5.277675E2,4.713541E3,4.9779645E4,1.456033E4,1.8764677E3,6.8896904E1,1.765099E4,2.0275404E4,7.498826E2,2.0813718E2,3.2254148E4,2.0869549E4,3.0357727E3,3.2674377E2,5.4363033E1,2.5035593E2,3.7016824E3,4.8671454E2,1.329311E3,3.3309258E4,9.356801E3,2.1404946E3,1.1418789E4,7.6405063E3,1.3776535E4,9.434818E2,1.9807271E2,7.475788E2,1.0068685E4,1.0405614E3,4.308746E2,1.7580312E3,1.232502E4,1.2252426E3,1.2246755E3,1.3071494E2,8.909497E1,2.639771E2,3.6456226E3,1.5972183E2,1.2288103E2,5.1972065E1,4.4977832E2,7.798921E1,1.4109193E3,3.3026218E3,4.230035E4,7.4792925E3,7.1508667E3,7.4094634E3,5.0304337E1,1.8261633E3,3.0830887E1,3.8066013E1,1.0997269E4,6.6537217E3,1.842376E4,1.8516454E3,1.5880775E2,4.932942E1,2.2574152E4,9.679997E3,2.0780453E4,8.909497E1,1.1136871E2,2.924404E3,2.8213406E2,4.4609715E1,2.181408E2,3.221513E1],"tree_param":{"num_deleted":"0","num_feature":"127","num_nodes":"115","size_leaf_vector":"0"}},{"base_weights":[-1.4439893E-3,-4.1178656E-1,3.0604142E-1,-2.3904346E-1,-1.1222229E0,9.631612E-2,6.9492173E-1,-2.91803E-2,-7.514554E-1,-1.2586097E0,-3.7134266E-1,-1.1539821E-1,4.5969233E-1,7.253579E-1,-9.986966E-1,-3.0893615E-1,2.69979E-1,-1.1011982E0,-3.8698927E-1,-1.4526541E0,-1.1280074E0,-1.2417972E0,9.272695E-2,-3.9750314E-1,5.734463E-2,-9.5238096E-1,5.030344E-1,6.2929475E-1,1.047959E0,3.347947E-1,-1.5470316E0,1.3878057E-2,-7.781406E-1,-1.1087017E0,4.5006943E-1,-1.1588005E0,-2.1615362E-1,-8.7211555E-1,-1.4165463E-1,-7.2812945E-1,-1.476997E0,-1.2427605E0,-3.5387322E-1,-5.310775E-1,-1.6037087E0,4.9047565E-1,-9.7640324E-1,-6.5331036E-1,1.9072834E-1,-3.8734023E-2,6.08509E-1,-1.708672E0,2.216737E-2,2.838226E-1,7.0451987E-1,4.475579E-1,8.670498E-1,9.820446E-1,1.3070259E0,-1.524249E0,7.292043E-1,-2.5263602E-1,4.9001715E-1,-9.381066E-1,3.3085698E-1,-1.2431365E0,5.56687E-1,-1.0424863E0,5.1593393E-1,-1.1783612E0,1.9114608E0,-1.8748331E0,9.546917E-2,-5.51323E-1,-1.5674275E0,-6.28017E-2,-1.3958269E0,-1.2047029E0,7.6224387E-1,-1.3835055E0,-1.5575463E0,-1.2945489E0,-2.4466543E-1,-1.6302929E0,-2.600058E-3,-1.3183656E0,1.1183264E0,8.418662E-1,-7.269488E-1,-1.4500778E0,5.367298E-1,-2.9060987E-1,-1.2434614E0,2.7648905E-1,-1.4855995E0,-3.604417E-1,1.8680494E-1,7.855528E-1,2.384812E-1,-2.0799088E0,-1.5458041E0,-1.4804292E0,4.9445975E-1,3.403939E-1,-1.364644E0,5.316203E-1,9.6809745E-1,1.7564762E-1,8.841681E-1,8.903214E-1,-8.8289076E-1,1.0316745E0,5.538488E-1,-2.2145262E0,1.3279423E0,-2.046514E0,1.0302562E0],"categories":[],"categories_nodes":[],"categories_segments":[],"categories_sizes":[],"default_left":[1,1,1,1,1,1,1,1,1,1,1,1,1,1,1,1,1,1,1,1,1,1,1,1,1,1,1,1,1,1,0,1,1,1,1,1,1,1,1,1,1,1,1,1,0,1,1,1,1,1,1,1,1,1,1,1,1,1,1,0,1,0,0,0,0,0,0,0,0,0,0,0,0,0,0,0,0,0,0,0,0,0,0,0,0,0,0,0,0,0,0,0,0,0,0,0,0,0,0,0,0,0,0,0,0,0,0,0,0,0,0,0,0,0,0,0,0],"id":1,"left_children":[1,3,5,7,9,11,13,15,17,19,21,23,25,27,29,31,33,35,37,39,41,43,45,47,49,51,53,55,57,59,-1,61,63,65,67,69,71,73,75,77,79,81,83,85,-1,87,89,91,93,95,97,99,101,103,105,107,109,111,113,-1,115,-1,-1,-1,-1,-1,-1,-1,-1,-1,-1,-1,-1,-1,-1,-1,-1,-1,-1,-1,-1,-1,-1,-1,-1,-1,-1,-1,-1,-1,-1,-1,-1,-1,-1,-1,-1,-1,-1,-1,-1,-1,-1,-1,-1,-1,-1,-1,-1,-1,-1,-1,-1,-1,-1,-1,-1],"loss_changes":[3.5278168E4,1.4697953E4,1.30354375E4,1.0360375E4,2.3985234E3,7.9882334E3,2.887248E3,5.7204756E3,3.5678604E3,5.0075586E2,1.4552524E3,3.1972786E3,2.3399849E3,1.7040918E3,7.236698E2,5.349992E3,8.201555E3,7.2799023E2,1.631575E3,1.3952148E2,1.0525586E3,3.213711E2,1.0000317E3,3.7495425E3,2.1549312E3,8.3931287E2,1.6379111E3,1.8312422E3,2.1422852E2,2.1301303E2,0E0,2.6555767E3,2.5542676E3,8.551367E2,2.8725703E3,8.076992E2,4.5199634E2,1.0261438E3,9.004794E2,1.863687E2,5.5916016E1,5.3326855E2,6.867478E2,5.522841E2,0E0,7.3378E2,4.578305E2,3.7167515E3,1.086199E3,2.5144373E3,3.9554297E2,3.5551147E1,3.5453232E2,1.6570996E3,8.801621E2,2.8523584E3,7.48624E2,2.1331836E2,1.9126562E2,0E0,2.0190369E2,0E0,0E0,0E0,0E0,0E0,0E0,0E0,0E0,0E0,0E0,0E0,0E0,0E0,0E0,0E0,0E0,0E0,0E0,0E0,0E0,0E0,0E0,0E0,0E0,0E0,0E0,0E0,0E0,0E0,0E0,0E0,0E0,0E0,0E0,0E0,0E0,0E0,0E0,0E0,0E0,0E0,0E0,0E0,0E0,0E0,0E0,0E0,0E0,0E0,0E0,0E0,0E0,0E0,0E0,0E0,0E0],"parents":[2147483647,0,0,1,1,2,2,3,3,4,4,5,5,6,6,7,7,8,8,9,9,10,10,11,11,12,12,13,13,14,14,15,15,16,16,17,17,18,18,19,19,20,20,21,21,22,22,23,23,24,24,25,25,26,26,27,27,28,28,29,29,31,31,32,32,33,33,34,34,35,35,36,36,37,37,38,38,39,39,40,40,41,41,42,42,43,43,45,45,46,46,47,47,48,48,49,49,50,50,51,51,52,52,53,53,54,54,55,55,56,56,57,57,58,58,60,60],"right_children":[2,4,6,8,10,12,14,16,18,20,22,24,26,28,30,32,34,36,38,40,42,44,46,48,50,52,54,56,58,60,-1,62,64,66,68,70,72,74,76,78,80,82,84,86,-1,88,90,92,94,96,98,100,102,104,106,108,110,112,114,-1,116,-1,-1,-1,-1,-1,-1,-1,-1,-1,-1,-1,-1,-1,-1,-1,-1,-1,-1,-1,-1,-1,-1,-1,-1,-1,-1,-1,-1,-1,-1,-1,-1,-1,-1,-1,-1,-1,-1,-1,-1,-1,-1,-1,-1,-1,-1,-1,-1,-1,-1,-1,-1,-1,-1,-1,-1],"split_conditions":[2.365E2,5E-1,5.1E1,5E-1,5.773E3,4.825E2,5E-1,5E-1,1.135E2,5E-1,5E-1,5E-1,5E-1,5.75635E4,5.3E1,5E-1,5E-1,2.0673E4,2.9E1,2.3E1,4.3E1,2.1E1,4.5E1,5E-1,1.2936E4,5E-1,1.7569E4,6.1E1,2.68152E5,7.571429E-1,-4.641095E-1,3.564E3,5.175E3,5E-1,2.9E1,5E-1,5E-1,5E-1,2.5E0,1.3325E3,3.9E1,1.851E4,5E-1,7.909E3,-4.8111263E-1,8.35E1,1.75E2,5E-1,5E-1,3.1E1,3.9E1,5E-1,3.1E1,4.1E1,3.45E1,1.09215E4,3.5E0,1.5E0,2.49E2,-4.572747E-1,1.736111E-1,-7.579081E-2,1.4700516E-1,-2.81432E-1,9.92571E-2,-3.7294096E-1,1.670061E-1,-3.127459E-1,1.5478018E-1,-3.5350835E-1,5.734382E-1,-5.6244993E-1,2.8640753E-2,-1.653969E-1,-4.7022828E-1,-1.884051E-2,-4.187481E-1,-3.6141086E-1,2.2867317E-1,-4.1505167E-1,-4.672639E-1,-3.8836467E-1,-7.339963E-2,-4.8908788E-1,-7.800174E-4,-3.955097E-1,3.3549795E-1,2.5255987E-1,-2.1808465E-1,-4.3502334E-1,1.6101895E-1,-8.718296E-2,-3.730384E-1,8.294672E-2,-4.4567987E-1,-1.0813252E-1,5.6041483E-2,2.3566584E-1,7.1544364E-2,-6.2397265E-1,-4.6374127E-1,-4.4412878E-1,1.4833793E-1,1.0211817E-1,-4.0939322E-1,1.594861E-1,2.9042923E-1,5.2694287E-2,2.6525044E-1,2.6709643E-1,-2.6486725E-1,3.0950236E-1,1.6615465E-1,-6.643579E-1,3.983827E-1,-6.1395425E-1,3.0907685E-1],"split_indices":[5,12,2,79,6,5,12,92,5,92,82,90,41,126,2,81,62,126,2,2,2,2,4,52,125,82,6,2,126,110,0,6,6,75,3,10,90,92,0,125,3,126,29,6,0,125,125,12,40,2,3,77,2,2,3,6,0,0,5,0,108,0,0,0,0,0,0,0,0,0,0,0,0,0,0,0,0,0,0,0,0,0,0,0,0,0,0,0,0,0,0,0,0,0,0,0,0,0,0,0,0,0,0,0,0,0,0,0,0,0,0,0,0,0,0,0,0],"split_type":[0,0,0,0,0,0,0,0,0,0,0,0,0,0,0,0,0,0,0,0,0,0,0,0,0,0,0,0,0,0,0,0,0,0,0,0,0,0,0,0,0,0,0,0,0,0,0,0,0,0,0,0,0,0,0,0,0,0,0,0,0,0,0,0,0,0,0,0,0,0,0,0,0,0,0,0,0,0,0,0,0,0,0,0,0,0,0,0,0,0,0,0,0,0,0,0,0,0,0,0,0,0,0,0,0,0,0,0,0,0,0,0,0,0,0,0,0],"sum_hessian":[2.7959653E5,1.1976651E5,1.5983002E5,9.634217E4,2.342433E4,1.0383336E5,5.599666E4,6.834989E4,2.7992287E4,1.9823072E4,3.6012573E3,6.560849E4,3.822487E4,5.5008664E4,9.879935E2,3.5320363E4,3.3029523E4,1.4283641E4,1.3708646E4,7.9705605E3,1.1852513E4,1.2517244E3,2.349533E3,2.4916406E4,4.0692082E4,1.1377067E3,3.7087164E4,4.238912E4,1.2619547E4,2.8799945E2,6.999941E2,2.092492E4,1.4395444E4,3.8154238E3,2.92141E4,1.341052E4,8.7312036E2,4.6033667E3,9.10528E3,2.6009763E2,7.710463E3,1.0321855E4,1.5306569E3,4.23171E2,8.2855334E2,1.7128444E3,6.366886E2,1.7364785E4,7.551622E3,3.465242E4,6.03966E3,6.40161E2,4.9754562E2,1.7763393E4,1.9323773E4,2.4026477E4,1.8362643E4,1.0063806E4,2.5557407E3,4.990559E1,2.3809387E2,1.3415948E4,7.5089727E3,1.2580884E4,1.81456E3,3.5306716E3,2.847522E2,1.2340673E3,2.7980031E4,1.3326234E4,8.428513E1,1.3729924E2,7.3582117E2,3.1512727E3,1.4520938E3,8.56766E3,5.3762006E2,1.9722356E2,6.2874073E1,3.5769534E3,4.13351E3,9.812421E3,5.0943478E2,3.29546E2,1.2011108E3,2.8658154E2,1.3658946E2,1.3294329E3,3.834115E2,4.849275E2,1.5176111E2,1.0755848E4,6.6089365E3,7.1848794E3,3.6674246E2,1.4281195E4,2.0371227E4,4.0843408E3,1.9553195E3,1.9161917E2,4.4854184E2,1.1847698E2,3.7906863E2,1.717479E4,5.886031E2,1.1670963E4,7.6528105E3,1.4806653E4,9.219822E3,1.8122137E4,2.4050563E2,9.017254E3,1.0465519E3,1.4471031E1,2.5412698E3,2.2729404E1,2.1536447E2],"tree_param":{"num_deleted":"0","num_feature":"127","num_nodes":"117","size_leaf_vector":"0"}},{"base_weights":[-3.4931218E-3,1.0573233E-1,-6.7280936E-1,-1.664187E-1,3.1345382E-1,-1.1223594E0,-1.9148922E-1,-3.1974548E-1,2.9441115E-1,-8.484882E-1,3.4744114E-1,-1.1877682E0,2.8473456E0,-9.7557104E-1,2.6224874E-2,-4.3974322E-1,3.33793E-1,-8.0488396E-1,3.388107E-1,-1.2327775E0,9.6702695E-1,4.8012736E-1,1.4847983E-1,-1.2006398E0,-3.0762818E-1,-1.3064448E0,3.0114505E0,-1.0651708E0,6.3480556E-1,1.8258464E0,-1.3647811E-2,-6.405766E-1,-2.5225848E-2,-1.4424593E0,4.1181502E-1,-1.5386555E0,-1.644698E-1,2.3838551E-1,8.348449E-1,-4.7468817E-1,-1.4464853E0,1.1270455E0,-2.4720876E0,6.08439E-1,2.8391403E-1,5.036414E-1,-1.4369744E-2,-9.3600106E-1,-1.2460871E0,-7.29069E-1,1.7378917E0,3.0591276E0,-1.0837969E0,-1.136771E0,4.964415E-1,-1.7905368E0,1.1445067E0,1.9959422E0,-1.5720983E0,-9.955312E-1,5.6431383E-2,-7.889593E-1,-3.03261E-1,1.74739E-1,-6.2533426E-1,-1.5836724E0,-5.3523767E-1,4.4722524E-1,-1.92722E0,-1.4958283E0,-1.7659348E0,-9.313768E-1,2.8234644E0,8.2316086E-2,5.3802675E-1,9.242858E-1,-1.1403673E0,-1.3088604E0,4.2472756E-1,-1.5610721E0,-6.449613E-1,2.245594E-1,1.3610204E0,6.179551E-1,-1.8743366E0,5.174705E-3,6.6907835E-1,-1.0880482E0,5.349798E-1,-3.423451E-1,2.8510165E-1,-1.0470371E0,6.058782E-1,-1.1175842E0,-1.3164161E0,-1.4195576E0,1.2172405E0,2.2592041E0,-1.3008361E0,-9.076557E-1,3.0857115E0,-4.6054485E-1,-1.2137634E0,1.2870809E0,-1.4916021E0,-2.2741804E0,-1.301712E0,-1.7185376E0,1.408015E0,-1.2253435E0,2.0694594E0,9.5710665E-1,-1.1211607E0,1.171818E-1,-1.1256543E0],"categories":[],"categories_nodes":[],"categories_segments":[],"categories_sizes":[],"default_left":[1,1,1,1,1,1,1,1,1,1,1,1,1,1,1,1,1,1,1,1,1,1,1,1,1,0,1,1,1,1,1,1,1,1,1,1,1,1,1,1,1,1,0,1,1,1,1,1,1,1,1,1,0,1,1,1,1,1,0,1,1,0,0,0,0,0,0,0,0,0,0,0,0,0,0,0,0,0,0,0,0,0,0,0,0,0,0,0,0,0,0,0,0,0,0,0,0,0,0,0,0,0,0,0,0,0,0,0,0,0,0,0,0,0,0],"id":2,"left_children":[1,3,5,7,9,11,13,15,17,19,21,23,25,27,29,31,33,35,37,39,41,43,45,47,49,-1,51,53,55,57,59,61,63,65,67,69,71,73,75,77,79,81,-1,83,85,87,89,91,93,95,97,99,-1,101,103,105,107,109,-1,111,113,-1,-1,-1,-1,-1,-1,-1,-1,-1,-1,-1,-1,-1,-1,-1,-1,-1,-1,-1,-1,-1,-1,-1,-1,-1,-1,-1,-1,-1,-1,-1,-1,-1,-1,-1,-1,-1,-1,-1,-1,-1,-1,-1,-1,-1,-1,-1,-1,-1,-1,-1,-1,-1,-1],"loss_changes":[1.9647145E4,1.3061316E4,8.1580586E3,7.066699E3,5.1749385E3,5.065371E3,3.108532E3,5.8853394E3,1.2189622E3,2.5994502E3,3.3608213E3,2.1691602E2,2.1954858E2,5.716919E2,1.0227816E3,5.278216E3,1.6140306E3,4.5538867E2,1.1953611E3,4.973286E2,3.6112128E2,1.9226738E3,2.9460186E3,2.261836E2,2.4074748E2,0E0,6.2786377E1,4.1977197E2,2.606734E2,1.8170984E2,9.596298E2,2.1374727E3,2.483404E3,6.1937744E1,9.246161E2,1.7556152E0,1.1915941E3,9.334198E2,7.148699E2,5.0885406E2,2.1918945E2,1.3121991E2,0E0,1.0921348E3,3.242191E3,7.9932153E2,3.4302808E3,4.7564185E2,1.4429688E2,3.1223096E2,7.858559E1,3.4578857E1,0E0,1.861001E2,2.6136945E2,5.7211914E0,1.333051E2,7.232007E1,0E0,2.2897943E2,9.3493207E2,0E0,0E0,0E0,0E0,0E0,0E0,0E0,0E0,0E0,0E0,0E0,0E0,0E0,0E0,0E0,0E0,0E0,0E0,0E0,0E0,0E0,0E0,0E0,0E0,0E0,0E0,0E0,0E0,0E0,0E0,0E0,0E0,0E0,0E0,0E0,0E0,0E0,0E0,0E0,0E0,0E0,0E0,0E0,0E0,0E0,0E0,0E0,0E0,0E0,0E0,0E0,0E0,0E0,0E0],"parents":[2147483647,0,0,1,1,2,2,3,3,4,4,5,5,6,6,7,7,8,8,9,9,10,10,11,11,12,12,13,13,14,14,15,15,16,16,17,17,18,18,19,19,20,20,21,21,22,22,23,23,24,24,26,26,27,27,28,28,29,29,30,30,31,31,32,32,33,33,34,34,35,35,36,36,37,37,38,38,39,39,40,40,41,41,43,43,44,44,45,45,46,46,47,47,48,48,49,49,50,50,51,51,53,53,54,54,55,55,56,56,57,57,59,59,60,60],"right_children":[2,4,6,8,10,12,14,16,18,20,22,24,26,28,30,32,34,36,38,40,42,44,46,48,50,-1,52,54,56,58,60,62,64,66,68,70,72,74,76,78,80,82,-1,84,86,88,90,92,94,96,98,100,-1,102,104,106,108,110,-1,112,114,-1,-1,-1,-1,-1,-1,-1,-1,-1,-1,-1,-1,-1,-1,-1,-1,-1,-1,-1,-1,-1,-1,-1,-1,-1,-1,-1,-1,-1,-1,-1,-1,-1,-1,-1,-1,-1,-1,-1,-1,-1,-1,-1,-1,-1,-1,-1,-1,-1,-1,-1,-1,-1,-1],"split_conditions":[5E-1,6.1905E3,5E-1,7.779E3,5E-1,5E-1,1.085E2,1.95185E4,5E-1,3.9956E4,5E-1,4.75E1,1.910225E5,3.5E0,1.105E2,5E-1,2.25E1,3.1E1,1.455785E5,2.55E1,1.132E3,5E-1,5E-1,1.0416667E-1,6.731602E-1,-3.9193344E-1,2.78E2,2.0001E4,2.8846157E-1,3.1E1,5.291E3,4.0615E3,1.1765E3,5E-1,4.55E1,5E-1,5E-1,5.336E3,5E-1,4.5E2,2.21695E4,3.65E1,-7.416263E-1,1.72E2,1.0921E4,2.25E1,1.20915E4,5E-1,2.216E3,5.655E2,7.8571427E-1,1.5714286E-1,-3.2513908E-1,1.1428572E-1,3.05E1,5E0,3.1568086E-1,5E-1,-4.716295E-1,3.3895E3,5E-1,-2.3668781E-1,-9.097831E-2,5.2421704E-2,-1.8760028E-1,-4.7510174E-1,-1.605713E-1,1.3416758E-1,-5.78166E-1,-4.487485E-1,-5.2978045E-1,-2.7941304E-1,8.4703934E-1,2.4694826E-2,1.6140804E-1,2.7728575E-1,-3.421102E-1,-3.9265814E-1,1.2741828E-1,-4.6832165E-1,-1.934884E-1,6.736782E-2,4.0830615E-1,1.8538654E-1,-5.62301E-1,1.5524115E-3,2.0072351E-1,-3.2641447E-1,1.6049396E-1,-1.02703534E-1,8.55305E-2,-3.1411114E-1,1.8176346E-1,-3.352753E-1,-3.9492485E-1,-4.258673E-1,3.6517215E-1,6.7776126E-1,-3.9025083E-1,-2.7229673E-1,9.257135E-1,-1.3816346E-1,-3.64129E-1,3.8612428E-1,-4.4748065E-1,-6.8225414E-1,-3.9051363E-1,-5.155613E-1,4.2240453E-1,-3.6760306E-1,6.2083787E-1,2.87132E-1,-3.3634824E-1,3.515454E-2,-3.376963E-1],"split_indices":[12,6,52,125,62,46,5,126,62,6,79,4,125,0,5,95,4,2,125,3,5,22,73,108,111,0,5,126,107,2,6,6,6,89,1,75,74,126,66,5,6,2,0,1,6,4,6,66,6,5,110,109,0,109,2,0,103,21,0,6,40,0,0,0,0,0,0,0,0,0,0,0,0,0,0,0,0,0,0,0,0,0,0,0,0,0,0,0,0,0,0,0,0,0,0,0,0,0,0,0,0,0,0,0,0,0,0,0,0,0,0,0,0,0,0],"split_type":[0,0,0,0,0,0,0,0,0,0,0,0,0,0,0,0,0,0,0,0,0,0,0,0,0,0,0,0,0,0,0,0,0,0,0,0,0,0,0,0,0,0,0,0,0,0,0,0,0,0,0,0,0,0,0,0,0,0,0,0,0,0,0,0,0,0,0,0,0,0,0,0,0,0,0,0,0,0,0,0,0,0,0,0,0,0,0,0,0,0,0,0,0,0,0,0,0,0,0,0,0,0,0,0,0,0,0,0,0,0,0,0,0,0,0],"sum_hessian":[2.687454E5,2.3104252E5,3.7702895E4,1.0001102E5,1.310315E5,1.9494148E4,1.8208744E4,7.504308E4,2.496794E4,3.7231248E3,1.27308375E5,1.917884E4,3.153089E2,3.956437E3,1.4252308E4,6.340201E4,1.1641066E4,9.686198E2,2.399932E4,3.072988E3,6.501369E2,7.6373734E4,5.0934645E4,1.8902041E4,2.767984E2,1.171899E1,3.035899E2,3.7482278E3,2.0820901E2,3.079606E2,1.3944347E4,4.2708992E4,2.0693021E4,4.890835E2,1.1151982E4,4.5075388E2,5.178659E2,1.9959812E4,4.0395083E3,6.7648914E2,2.3964988E3,6.21874E2,2.826289E1,4.6175586E4,3.0198148E4,1.6011903E4,3.4922742E4,2.773509E3,1.6128532E4,2.3004544E2,4.6752953E1,3.0034625E2,3.243649E0,3.5841653E3,1.640626E2,3.5721287E1,1.7248773E2,2.9367242E2,1.4288185E1,9.280588E2,1.3016288E4,2.9660297E4,1.3048694E4,1.5521682E4,5.171341E3,4.2256393E2,6.651957E1,1.098647E4,1.6551338E2,3.8566312E2,6.5090775E1,4.1264215E2,1.0522374E2,1.3124918E4,6.8348945E3,3.8650254E3,1.7448285E2,3.507382E2,3.2575095E2,2.0959165E3,3.005823E2,1.2843509E2,4.934389E2,4.6000027E4,1.7555878E2,1.7520072E4,1.2678076E4,3.0851608E2,1.5703387E4,1.6668059E4,1.8254682E4,2.5874954E3,1.8601358E2,5.710818E3,1.0417715E4,1.7000406E2,6.004138E1,4.0125675E1,6.6272783E0,1.7787752E0,2.9856747E2,3.6707965E2,3.2170857E3,1.1763292E2,4.642969E1,1.61199E1,1.9601389E1,1.4072022E1,1.5841571E2,6.2031493E0,2.8746927E2,5.5700302E1,8.723585E2,1.2380902E4,6.3538544E2],"tree_param":{"num_deleted":"0","num_feature":"127","num_nodes":"115","size_leaf_vector":"0"}},{"base_weights":[-5.4675145E-3,7.603765E-2,-5.438696E-1,-8.538568E-1,1.1104091E-1,-9.645675E-1,-1.4633845E-1,-9.7963727E-1,7.801721E-1,-6.9448136E-2,2.6058558E-1,-1.023594E0,1.5844375E0,-8.2082117E-1,1.6764285E-2,-1.05556E0,5.627533E-3,-1.9291878E-1,1.1340352E0,-2.1836263E-1,2.5320393E-1,1.6734023E-1,5.1807517E-1,-1.0585731E0,-6.2115407E-1,-1.1623497E0,1.6606499E0,-8.979561E-1,4.9631327E-1,4.7049126E-1,-1.14172824E-1,-1.1318277E0,-4.7009036E-1,5.706655E-1,-1.5286889E0,-2.323403E0,8.9589196E-1,-2.5526128E0,1.1610563E0,-9.625039E-1,-7.404238E-2,4.0399337E-1,-3.0793723E-1,4.1740872E-2,4.1840097E-1,4.7759318E-1,9.362328E-1,-1.1001052E0,-6.4156485E-1,-1.1898292E0,9.14788E-1,1.6822098E0,-1.3393294E0,-9.588198E-1,4.004433E-1,-1.4391195E0,9.015035E-1,-1.3928984E-1,7.87137E-1,-3.8170123E-1,2.338303E-1,-1.2399857E0,-6.4035857E-1,5.1133156E-1,-1.0293561E0,-1.578527E0,1.2424781E0,-2.7222788E0,-1.666919E0,1.3199863E0,-2.037937E0,1.179242E0,-2.2270775E0,-1.1741042E0,-2.726395E-1,-2.0201612E-1,2.581096E-1,-2.3021472E0,4.2773446E-1,-5.909973E-1,6.008669E-1,-1.227551E-1,2.842442E-1,3.7239078E-1,7.5765055E-1,4.0812942E-1,8.218296E-1,-4.1566712E-1,9.745028E-1,-1.1154492E0,-2.3540133E-1,-4.4548288E-2,-1.2844244E0,3.9315383E0,-1.2696577E0,-1.2575988E0,1.6399728E0,1.7030487E0,-9.310571E-1,-1.0125275E0,8.887728E-2,1.0340271E0,-1.3021775E0,1.1605742E0,-1.7377665E0,-1.3101679E0,1.4766051E-1,9.2179215E-1,-6.562715E-2,-2.6557046E-1,-1.2732028E0,-5.5485505E-1,3.7559077E-1],"categories":[],"categories_nodes":[],"categories_segments":[],"categories_sizes":[],"default_left":[1,1,1,1,1,1,1,1,1,1,1,1,1,1,1,1,1,1,1,1,1,1,1,1,1,0,1,1,1,1,1,1,1,1,0,1,1,0,1,1,1,1,1,1,1,1,1,1,1,1,1,1,0,1,1,0,1,1,1,1,1,0,0,0,0,0,0,0,0,0,0,0,0,0,0,0,0,0,0,0,0,0,0,0,0,0,0,0,0,0,0,0,0,0,0,0,0,0,0,0,0,0,0,0,0,0,0,0,0,0,0,0,0],"id":3,"left_children":[1,3,5,7,9,11,13,15,17,19,21,23,25,27,29,31,33,35,37,39,41,43,45,47,49,-1,51,53,55,57,59,61,63,65,-1,67,69,-1,71,73,75,77,79,81,83,85,87,89,91,93,95,97,-1,99,101,-1,103,105,107,109,111,-1,-1,-1,-1,-1,-1,-1,-1,-1,-1,-1,-1,-1,-1,-1,-1,-1,-1,-1,-1,-1,-1,-1,-1,-1,-1,-1,-1,-1,-1,-1,-1,-1,-1,-1,-1,-1,-1,-1,-1,-1,-1,-1,-1,-1,-1,-1,-1,-1,-1,-1,-1],"loss_changes":[1.1335785E4,7.3027686E3,5.680005E3,1.6735723E3,5.8360244E3,2.4843408E3,1.9212241E3,5.6535645E2,2.0072357E2,4.7074595E3,2.8389697E3,2.263789E2,8.019238E1,3.4595435E2,8.3560315E2,3.127954E2,4.7051056E2,3.6426605E2,4.551532E1,7.199185E3,2.6180273E3,2.7374038E3,5.3169824E2,2.562578E2,1.1297097E3,0E0,2.5807312E1,2.542915E2,1.4934563E2,6.0830865E2,1.01631E3,3.291787E2,4.453626E2,5.746538E2,0E0,9.362854E0,1.3215042E2,0E0,2.8796387E1,1.5892168E3,2.3866968E3,1.5677495E3,1.6862493E3,2.3083013E3,4.5155762E2,6.85063E2,1.4390723E2,1.7874805E2,5.1663025E2,3.9069653E2,5.5298267E2,2.130017E1,0E0,1.7280396E2,1.5730542E2,0E0,1.0917417E2,3.6220435E2,2.3815222E2,6.386078E2,5.3069006E2,0E0,0E0,0E0,0E0,0E0,0E0,0E0,0E0,0E0,0E0,0E0,0E0,0E0,0E0,0E0,0E0,0E0,0E0,0E0,0E0,0E0,0E0,0E0,0E0,0E0,0E0,0E0,0E0,0E0,0E0,0E0,0E0,0E0,0E0,0E0,0E0,0E0,0E0,0E0,0E0,0E0,0E0,0E0,0E0,0E0,0E0,0E0,0E0,0E0,0E0,0E0,0E0],"parents":[2147483647,0,0,1,1,2,2,3,3,4,4,5,5,6,6,7,7,8,8,9,9,10,10,11,11,12,12,13,13,14,14,15,15,16,16,17,17,18,18,19,19,20,20,21,21,22,22,23,23,24,24,26,26,27,27,28,28,29,29,30,30,31,31,32,32,33,33,35,35,36,36,38,38,39,39,40,40,41,41,42,42,43,43,44,44,45,45,46,46,47,47,48,48,49,49,50,50,51,51,53,53,54,54,56,56,57,57,58,58,59,59,60,60],"right_children":[2,4,6,8,10,12,14,16,18,20,22,24,26,28,30,32,34,36,38,40,42,44,46,48,50,-1,52,54,56,58,60,62,64,66,-1,68,70,-1,72,74,76,78,80,82,84,86,88,90,92,94,96,98,-1,100,102,-1,104,106,108,110,112,-1,-1,-1,-1,-1,-1,-1,-1,-1,-1,-1,-1,-1,-1,-1,-1,-1,-1,-1,-1,-1,-1,-1,-1,-1,-1,-1,-1,-1,-1,-1,-1,-1,-1,-1,-1,-1,-1,-1,-1,-1,-1,-1,-1,-1,-1,-1,-1,-1,-1,-1,-1],"split_conditions":[5E-1,5E-1,5E-1,3.9956E4,6.4025E3,5E-1,1.085E2,5E-1,3.65E1,5E-1,7.4895E3,5.3117E4,1.910225E5,3.5E0,1.25E-1,1.4595E4,3.65E1,4.5670995E-1,2.0804676E-1,9.575E2,1.1535E3,4.269E3,2.68152E5,5E-1,5E-1,-3.4870493E-1,3.9583334E-1,2.0001E4,2.8846157E-1,5E-1,8.5E0,2.292E3,3.4285715E-1,7.875E2,-4.586067E-1,1.1175E3,4.2E1,-7.6578385E-1,7.38652E-1,5E-1,9.122E3,5E-1,1.89615E4,4.1E1,2.69007E5,1.7771E4,4.3E1,4.75E1,3.108E3,5.34455E4,5E-1,2.78E2,-4.017988E-1,5E-1,3.05E1,-4.3173584E-1,5E-1,7.7845E3,4.5E1,2.5E0,5E-1,-3.7199572E-1,-1.9210757E-1,1.5339947E-1,-3.0880684E-1,-4.735581E-1,3.7274346E-1,-8.166837E-1,-5.000757E-1,3.9599591E-1,-6.113811E-1,3.537726E-1,-6.6812325E-1,-3.5223126E-1,-8.1791855E-2,-6.0604837E-2,7.7432886E-2,-6.9064415E-1,1.2832035E-1,-1.7729919E-1,1.8026008E-1,-3.6826532E-2,8.5273266E-2,1.1171724E-1,2.2729518E-1,1.2243883E-1,2.4654889E-1,-1.2470014E-1,2.9235086E-1,-3.3463478E-1,-7.06204E-2,-1.3364487E-2,-3.8532734E-1,1.1794616E0,-3.8089734E-1,-3.7727964E-1,4.9199185E-1,5.109146E-1,-2.7931714E-1,-3.0375826E-1,2.6663186E-2,3.1020814E-1,-3.9065328E-1,3.4817228E-1,-5.2133E-1,-3.930504E-1,4.4298153E-2,2.7653766E-1,-1.9688146E-2,-7.9671144E-2,-3.8196084E-1,-1.6645652E-1,1.1267724E-1],"split_indices":[12,62,52,6,6,46,5,14,2,92,126,125,125,0,108,6,5,111,103,6,6,125,126,83,95,0,108,126,107,21,125,125,110,6,0,5,3,0,103,99,125,49,125,2,125,6,2,4,6,125,21,5,0,78,2,0,120,6,4,0,61,0,0,0,0,0,0,0,0,0,0,0,0,0,0,0,0,0,0,0,0,0,0,0,0,0,0,0,0,0,0,0,0,0,0,0,0,0,0,0,0,0,0,0,0,0,0,0,0,0,0,0,0],"split_type":[0,0,0,0,0,0,0,0,0,0,0,0,0,0,0,0,0,0,0,0,0,0,0,0,0,0,0,0,0,0,0,0,0,0,0,0,0,0,0,0,0,0,0,0,0,0,0,0,0,0,0,0,0,0,0,0,0,0,0,0,0,0,0,0,0,0,0,0,0,0,0,0,0,0,0,0,0,0,0,0,0,0,0,0,0,0,0,0,0,0,0,0,0,0,0,0,0,0,0,0,0,0,0,0,0,0,0,0,0,0,0,0,0],"sum_hessian":[2.5831903E5,2.243561E5,3.396294E4,8.1380386E3,2.1621806E5,1.6499979E4,1.7462965E4,7.556753E3,5.812857E2,9.797283E4,1.1824523E5,1.6127125E4,3.7285257E2,3.399772E3,1.4063193E4,7.016038E3,5.4071497E2,1.5513463E2,4.2615106E2,6.703452E4,3.0938303E4,8.681012E4,3.143511E4,1.4835986E4,1.2911387E3,9.681148E0,3.6317142E2,3.2119875E3,1.8778444E2,3.1489097E3,1.0914284E4,6.206588E3,8.0944995E2,3.956414E2,1.4507355E2,5.2085213E1,1.0304941E2,2.420639E0,4.237304E2,1.0888059E4,5.6146465E4,2.4385682E4,6.552622E3,5.786359E4,2.894653E4,2.8662434E4,2.7726755E3,1.3490737E4,1.3452494E3,9.424328E2,3.4870587E2,3.6101617E2,2.1552505E0,3.0684143E3,1.4357335E2,3.2066032E1,1.557184E2,1.0764651E3,2.0724446E3,6.170555E3,4.743729E3,5.0858237E3,1.1207644E3,2.938594E2,5.155905E2,9.3899216E1,3.017422E2,3.0442036E1,2.1643177E1,9.051523E1,1.2534184E1,4.2211667E2,1.6137593E0,8.331773E3,2.5562847E3,4.053086E4,1.5615607E4,2.1124153E2,2.417444E4,4.996683E3,1.5559388E3,3.447729E4,2.3386299E4,2.5491396E4,3.4551343E3,2.3851588E4,4.810846E3,7.605755E1,2.696618E3,1.3255233E4,2.3550327E2,6.9804865E2,6.472008E2,1.3724021E1,9.2870874E2,8.708801E1,2.6161783E2,3.5850568E2,2.5105097E0,2.9188215E3,1.4959283E2,1.04922134E2,3.8651222E1,1.4230957E2,1.3408835E1,2.1118315E2,8.652819E2,1.7897537E3,2.826909E2,5.4605396E3,7.1001526E2,7.222991E2,4.0214297E3],"tree_param":{"num_deleted":"0","num_feature":"127","num_nodes":"113","size_leaf_vector":"0"}},{"base_weights":[-6.7370287E-3,5.4211147E-2,-4.4324827E-1,-7.176142E-1,7.988573E-2,-8.520185E-1,-1.1092287E-1,-8.6943287E-1,3.4904167E-1,6.4014886E-3,3.3472323E-1,-9.0555793E-1,1.2130643E0,-7.0003176E-1,1.169787E-2,-1.0040603E0,-3.286443E-1,-1.5528187E0,5.198554E-1,-1.5937366E-1,1.2864128E-1,2.4805202E-1,5.452112E-1,-9.380402E-1,-4.0525034E-1,-1.0631605E0,1.2689238E0,-1.1452514E0,-5.0780267E-1,-1.4962664E0,4.340628E-2,-1.0272031E0,1.5084623E0,1.3086914E0,-6.4798385E-1,-1.3481439E0,-1.9307431E0,-2.0563087E0,5.689376E-1,-3.0949083E-1,1.1764816E-1,7.594639E-2,4.7809112E-1,2.0566532E-1,8.8573724E-1,-6.3421214E-1,5.927631E-1,-1.0053824E0,-6.734916E-1,-6.191839E-1,1.7165445E0,1.2867403E0,-1.5371983E0,-1.2267586E0,1.9963497E0,-6.4806026E-1,2.2583054E-1,-1.8442022E0,-2.518472E-1,1.0379118E-1,-7.24919E-1,-1.0807475E0,1.1224791E-1,2.0318086E0,-1.581473E0,-1.2732234E0,2.5223947E0,-9.97742E-1,6.3036036E-1,6.1830807E-1,-1.9112463E0,-7.453349E-1,-1.1348939E-1,1.6441499E-1,-1.2209262E0,9.166807E-2,-1.1736473E0,6.037078E-1,-2.7670926E-1,-1.0308033E0,2.2786869E-1,9.5236385E-1,-2.6867802E0,1.3418739E0,-9.4357646E-1,-1.9523457E0,6.0964054E-1,-1.0622945E0,-6.2040216E-1,3.1570666E0,-7.8039324E-1,-9.6913546E-1,7.1846366E-1,-1.2067866E0,2.9396837E0,1.3047384E0,-1.1101458E0,2.9922945E0,-1.1758558E0,-4.8115194E-1,-1.1196306E0,-1.3104416E0,8.645931E-1,-1.3845433E0,-2.3088362E0,-2.404589E0,9.953375E-1,1.3821542E-1,-1.308529E0,-9.949796E-1,1.3007463E0],"categories":[],"categories_nodes":[],"categories_segments":[],"categories_sizes":[],"default_left":[1,1,1,1,1,1,1,1,1,1,1,1,1,1,1,1,1,1,1,1,1,1,1,1,1,0,1,1,1,1,1,1,1,1,1,0,0,0,1,1,1,1,1,1,1,1,1,1,1,1,1,1,0,0,1,1,1,1,1,1,1,0,0,0,0,0,0,0,0,0,0,0,0,0,0,0,0,0,0,0,0,0,0,0,0,0,0,0,0,0,0,0,0,0,0,0,0,0,0,0,0,0,0,0,0,0,0,0,0,0,0],"id":4,"left_children":[1,3,5,7,9,11,13,15,17,19,21,23,25,27,29,31,33,35,37,39,41,43,45,47,49,-1,51,53,55,57,59,61,63,65,67,-1,-1,-1,69,71,73,75,77,79,81,83,85,87,89,91,93,95,-1,-1,97,99,101,103,105,107,109,-1,-1,-1,-1,-1,-1,-1,-1,-1,-1,-1,-1,-1,-1,-1,-1,-1,-1,-1,-1,-1,-1,-1,-1,-1,-1,-1,-1,-1,-1,-1,-1,-1,-1,-1,-1,-1,-1,-1,-1,-1,-1,-1,-1,-1,-1,-1,-1,-1,-1],"loss_changes":[6.605408E3,4.317275E3,4.1321816E3,1.1361248E3,3.9484717E3,1.5092412E3,1.2121147E3,4.4671387E2,2.849425E2,3.316445E3,8.607954E2,2.1570117E2,4.5232666E1,2.468335E2,6.642025E2,2.8739258E2,6.4156836E2,2.9919891E0,1.02742004E2,2.8886064E3,1.7345602E3,9.0339233E2,7.7227905E2,2.217461E2,3.6982648E2,0E0,1.884253E1,2.2547522E2,2.0809369E2,1.2340015E2,6.3126465E2,2.9734375E2,7.642285E1,6.309592E2,4.593999E2,0E0,0E0,0E0,9.780066E1,3.8482808E3,1.5284457E3,1.6082395E3,1.1704854E3,8.6083167E2,4.98422E2,3.276486E2,5.695044E2,2.1733887E2,1.0410586E3,3.464993E2,2.705534E2,1.5932068E1,0E0,0E0,7.430778E1,1.3301636E2,3.2015207E2,4.4517517E1,1.733305E2,6.1345734E2,5.4366425E2,0E0,0E0,0E0,0E0,0E0,0E0,0E0,0E0,0E0,0E0,0E0,0E0,0E0,0E0,0E0,0E0,0E0,0E0,0E0,0E0,0E0,0E0,0E0,0E0,0E0,0E0,0E0,0E0,0E0,0E0,0E0,0E0,0E0,0E0,0E0,0E0,0E0,0E0,0E0,0E0,0E0,0E0,0E0,0E0,0E0,0E0,0E0,0E0,0E0,0E0],"parents":[2147483647,0,0,1,1,2,2,3,3,4,4,5,5,6,6,7,7,8,8,9,9,10,10,11,11,12,12,13,13,14,14,15,15,16,16,17,17,18,18,19,19,20,20,21,21,22,22,23,23,24,24,26,26,27,27,28,28,29,29,30,30,31,31,32,32,33,33,34,34,38,38,39,39,40,40,41,41,42,42,43,43,44,44,45,45,46,46,47,47,48,48,49,49,50,50,51,51,54,54,55,55,56,56,57,57,58,58,59,59,60,60],"right_children":[2,4,6,8,10,12,14,16,18,20,22,24,26,28,30,32,34,36,38,40,42,44,46,48,50,-1,52,54,56,58,60,62,64,66,68,-1,-1,-1,70,72,74,76,78,80,82,84,86,88,90,92,94,96,-1,-1,98,100,102,104,106,108,110,-1,-1,-1,-1,-1,-1,-1,-1,-1,-1,-1,-1,-1,-1,-1,-1,-1,-1,-1,-1,-1,-1,-1,-1,-1,-1,-1,-1,-1,-1,-1,-1,-1,-1,-1,-1,-1,-1,-1,-1,-1,-1,-1,-1,-1,-1,-1,-1,-1,-1],"split_conditions":[5E-1,5E-1,5E-1,2.13615E4,1.1402E4,5E-1,1.085E2,7.205E2,3.25E1,2.475E2,1.295935E5,7.771664E-1,1.910225E5,5E-1,2.3E1,6.5E1,1.7565E3,1.027E3,4.1666668E-2,5E-1,6.45E1,9.8317E4,4.1E1,5.076E3,5E-1,-3.1894818E-1,3.1746034E-2,5E-1,1.0875E3,9.045E2,5E-1,7.5E0,2.4458873E-1,2.986111E-1,5E-1,-4.044432E-1,-5.79223E-1,-6.1689264E-1,2.7272728E-1,1.76E3,4.159E3,2.135E2,6.9855E3,5.46E2,7.9556E4,2.85E1,2.45E1,5E-1,5.2995E3,5E-1,5E-1,3.9583334E-1,-4.611595E-1,-3.680276E-1,2.1428572E-1,2.6585E3,1.8005E3,1.1022E4,5.194805E-1,7.075E2,5.128205E-1,-3.2422426E-1,3.3674374E-2,6.095426E-1,-4.7444192E-1,-3.8196704E-1,7.5671846E-1,-2.993226E-1,1.8910812E-1,1.8549243E-1,-5.733739E-1,-2.2360049E-1,-3.4046818E-2,4.9324498E-2,-3.6627787E-1,2.7500423E-2,-3.520942E-1,1.8111235E-1,-8.301278E-2,-3.09241E-1,6.836061E-2,2.8570917E-1,-8.060341E-1,4.0256217E-1,-2.8307295E-1,-5.8570373E-1,1.8289217E-1,-3.1868836E-1,-1.8612066E-1,9.4712E-1,-2.3411798E-1,-2.9074064E-1,2.1553911E-1,-3.62036E-1,8.8190514E-1,3.9142153E-1,-3.3304375E-1,8.976884E-1,-3.5275674E-1,-1.4434558E-1,-3.358892E-1,-3.931325E-1,2.5937793E-1,-4.15363E-1,-6.926509E-1,-7.213767E-1,2.9860127E-1,4.1464627E-2,-3.9255872E-1,-2.984939E-1,3.9022392E-1],"split_indices":[12,62,52,6,126,46,5,126,4,5,126,103,125,29,3,2,126,5,108,92,3,125,2,125,66,0,105,78,126,5,98,0,111,108,14,0,0,0,106,6,6,1,6,6,126,5,5,43,125,83,96,108,0,0,110,6,6,6,111,1,107,0,0,0,0,0,0,0,0,0,0,0,0,0,0,0,0,0,0,0,0,0,0,0,0,0,0,0,0,0,0,0,0,0,0,0,0,0,0,0,0,0,0,0,0,0,0,0,0,0,0],"split_type":[0,0,0,0,0,0,0,0,0,0,0,0,0,0,0,0,0,0,0,0,0,0,0,0,0,0,0,0,0,0,0,0,0,0,0,0,0,0,0,0,0,0,0,0,0,0,0,0,0,0,0,0,0,0,0,0,0,0,0,0,0,0,0,0,0,0,0,0,0,0,0,0,0,0,0,0,0,0,0,0,0,0,0,0,0,0,0,0,0,0,0,0,0,0,0,0,0,0,0,0,0,0,0,0,0,0,0,0,0,0,0],"sum_hessian":[2.4827911E5,2.17861E5,3.0418111E4,7.0129146E3,2.1084808E5,1.3639524E4,1.6778588E4,6.139286E3,8.736287E2,1.6365733E5,4.7190754E4,1.3295389E4,3.4413562E2,2.8898972E3,1.388869E4,4.9148853E3,1.2244006E3,7.1330925E1,8.022978E2,6.945959E4,9.4197734E4,3.3428363E4,1.3762391E4,1.2483996E4,8.113923E2,7.811014E0,3.3632462E2,8.699826E2,2.0199146E3,2.8507602E2,1.3603614E4,4.8706133E3,4.427196E1,1.9932292E2,1.0250778E3,4.923414E1,2.2096785E1,1.4235367E1,7.8806244E2,4.504808E4,2.441152E4,8.1855625E4,1.2342109E4,3.1346123E4,2.0822422E3,5.328886E2,1.3229502E4,9.948701E3,2.5352957E3,7.377187E2,7.367356E1,3.3474075E2,1.5838661E0,8.485763E2,2.1406334E1,1.6958206E3,3.2409402E2,2.2240913E2,6.2666897E1,1.2613174E4,9.9044073E2,4.652058E3,2.1855522E2,3.815247E1,6.1194916E0,6.372068E1,1.3560223E2,8.050371E2,2.2004065E2,7.7341754E2,1.4644916E1,1.3973256E4,3.107482E4,2.3588273E4,8.2324493E2,8.083947E4,1.01614996E3,1.0581326E4,1.7607834E3,5.521541E2,3.0793969E4,2.04484E3,3.7402386E1,7.1681366E1,4.6120724E2,8.639549E1,1.3143106E4,8.665859E3,1.2828413E3,6.805835E1,2.4672373E3,5.8495886E2,1.5275981E2,2.173641E1,5.1937153E1,3.3269818E2,2.0425615E0,1.6334631E1,5.0717025E0,1.2539987E3,4.4182187E2,9.487087E1,2.2922314E2,1.138038E2,1.0860533E2,2.2647488E1,4.001941E1,1.2313933E4,2.992407E2,8.743779E2,1.160628E2],"tree_param":{"num_deleted":"0","num_feature":"127","num_nodes":"111","size_leaf_vector":"0"}},{"base_weights":[-7.3690456E-3,7.2577014E-3,-1.1412544E0,-6.650266E-2,2.1122514E-1,-1.2308316E0,-6.7523913E-3,-1.4250694E-1,1.8177398E-1,2.1881504E-1,-2.6170619E0,-1.2567143E0,-2.8668678E-1,-1.2787077E0,4.96203E-1,-2.0532414E-1,1.1308396E-1,-7.37362E-1,2.076538E-1,-1.5588953E0,2.303786E-1,-2.4550772E0,-2.9143786E0,-1.1732694E0,-1.5297352E0,-1.2602123E0,3.3880749E0,-1.1690089E0,-1.9224616E0,-3.490146E-1,1.3005292E0,-2.6106882E-1,1.2812592E-1,1.7836936E-1,-3.4212646E-1,-1.595803E0,4.563987E-1,2.749858E-1,-1.34536E-1,-1.428968E0,-2.2984123E0,2.1703276E-1,1.7580274E0,-1.1677182E0,-1.3588005E0,-1.3656017E0,-1.7996017E0,4.117905E0,-9.015694E-1,-1.2105327E0,2.1204944E0,1.4959227E0,-1.4454734E0,-2.3538764E-1,-9.5446193E-1,2.0699719E-1,-6.1793876E-1,1.9004102E-1,-2.1578348E0,-4.9132168E-1,1.0059292E0,-2.9006132E-1,-1.7568134E0,-1.7315234E0,8.597102E-1,2.909586E-1,-1.0626911E0,-2.795486E-1,3.51556E-1,-1.336939E0,-1.604154E0,1.252914E-1,3.8914487E-1,-1.507395E0,1.9946252E0,-1.4365542E0,-1.132176E0,-1.5504143E0,-1.9382266E0,2.617884E0,-1.0985402E0,-1.3969158E0,1.6098993E0],"categories":[],"categories_nodes":[],"categories_segments":[],"categories_sizes":[],"default_left":[1,1,1,1,1,1,1,1,1,1,1,1,1,1,1,1,1,1,1,1,1,0,0,1,1,0,1,0,0,1,1,1,1,1,1,1,1,1,1,1,0,1,1,0,0,1,1,0,0,0,1,1,0,0,0,0,0,0,0,0,0,0,0,0,0,0,0,0,0,0,0,0,0,0,0,0,0,0,0,0,0,0,0],"id":5,"left_children":[1,3,5,7,9,11,13,15,17,19,21,23,25,27,29,31,33,35,37,39,41,-1,-1,43,45,-1,47,-1,-1,49,51,53,55,57,59,61,63,65,67,69,-1,71,73,-1,-1,75,77,-1,-1,-1,79,81,-1,-1,-1,-1,-1,-1,-1,-1,-1,-1,-1,-1,-1,-1,-1,-1,-1,-1,-1,-1,-1,-1,-1,-1,-1,-1,-1,-1,-1,-1,-1],"loss_changes":[3.9795156E3,3.5639646E3,3.1054004E2,3.2829824E3,1.3511301E3,6.884912E1,1.4433672E2,2.138632E3,9.7011316E2,1.2902346E3,9.581299E-1,6.1E1,2.792514E2,2.2674484E0,1.10379166E2,1.9875205E3,7.810427E2,1.1453135E3,9.138352E2,3.569153E1,1.2706467E3,0E0,0E0,5.917969E-1,2.5976318E1,0E0,5.4960724E1,0E0,0E0,1.7198564E2,4.6729996E1,1.6310615E3,9.0132733E2,6.271155E2,6.635032E2,1.3613037E2,4.1444623E2,7.0840015E2,4.5979895E2,3.4605713E0,0E0,9.758235E2,4.200365E2,0E0,0E0,5.0532837E0,5.272461E0,0E0,0E0,0E0,3.6433487E1,2.7978912E1,0E0,0E0,0E0,0E0,0E0,0E0,0E0,0E0,0E0,0E0,0E0,0E0,0E0,0E0,0E0,0E0,0E0,0E0,0E0,0E0,0E0,0E0,0E0,0E0,0E0,0E0,0E0,0E0,0E0,0E0,0E0],"parents":[2147483647,0,0,1,1,2,2,3,3,4,4,5,5,6,6,7,7,8,8,9,9,10,10,11,11,12,12,13,13,14,14,15,15,16,16,17,17,18,18,19,19,20,20,23,23,24,24,26,26,29,29,30,30,31,31,32,32,33,33,34,34,35,35,36,36,37,37,38,38,39,39,41,41,42,42,45,45,46,46,50,50,51,51],"right_children":[2,4,6,8,10,12,14,16,18,20,22,24,26,28,30,32,34,36,38,40,42,-1,-1,44,46,-1,48,-1,-1,50,52,54,56,58,60,62,64,66,68,70,-1,72,74,-1,-1,76,78,-1,-1,-1,80,82,-1,-1,-1,-1,-1,-1,-1,-1,-1,-1,-1,-1,-1,-1,-1,-1,-1,-1,-1,-1,-1,-1,-1,-1,-1,-1,-1,-1,-1,-1,-1],"split_conditions":[5E-1,5.45E1,4.75E1,1.19355E4,7.5E0,5E-1,3.927098E-1,6.5995E3,2.9E1,4.325E2,6.42E2,5E-1,1.5079366E-1,4.865E2,2.87E2,1.94375E4,5E-1,5.194805E-1,8.428571E-1,5E-1,5E-1,-7.3652315E-1,-8.7431365E-1,5E-1,5E-1,-3.780637E-1,3.2E1,-3.5070267E-1,-5.7673854E-1,8.311554E-1,1.02E2,1.1E1,5E-1,3.025675E5,5E-1,1.7744154E-1,5.315E2,5.3732E4,8.2665E3,9.0545E3,-6.895237E-1,6.6825E3,7.72E2,-3.5031545E-1,-4.076402E-1,5E-1,7.6E1,1.2353716E0,-2.7047083E-1,-3.631598E-1,2.013E3,1.8589744E-1,-4.3364206E-1,-7.06163E-2,-2.863386E-1,6.209916E-2,-1.8538164E-1,5.701231E-2,-6.4735043E-1,-1.473965E-1,3.017788E-1,-8.70184E-2,-5.2704406E-1,-5.1945704E-1,2.5791308E-1,8.728759E-2,-3.1880733E-1,-8.386458E-2,1.05466805E-1,-4.010817E-1,-4.812462E-1,3.7587423E-2,1.1674347E-1,-4.5221853E-1,5.983876E-1,-4.309663E-1,-3.3965284E-1,-4.651243E-1,-5.81468E-1,7.853652E-1,-3.2956207E-1,-4.1907474E-1,4.829698E-1],"split_indices":[53,2,4,6,0,75,103,125,3,6,5,62,105,5,5,126,19,111,110,92,14,0,0,14,83,0,3,0,0,103,126,1,12,125,67,103,5,125,126,126,0,6,125,0,0,12,5,0,0,0,6,107,0,0,0,0,0,0,0,0,0,0,0,0,0,0,0,0,0,0,0,0,0,0,0,0,0,0,0,0,0,0,0],"split_type":[0,0,0,0,0,0,0,0,0,0,0,0,0,0,0,0,0,0,0,0,0,0,0,0,0,0,0,0,0,0,0,0,0,0,0,0,0,0,0,0,0,0,0,0,0,0,0,0,0,0,0,0,0,0,0,0,0,0,0,0,0,0,0,0,0,0,0,0,0,0,0,0,0,0,0,0,0,0,0,0,0,0,0],"sum_hessian":[2.3994439E5,2.368896E5,3.054804E3,1.7397575E5,6.2913848E4,2.8311768E3,2.2362708E2,1.332E5,4.0775746E4,6.2746387E4,1.6746164E2,2.755312E3,7.586477E1,6.2932003E1,1.6069507E2,1.0692177E5,2.6278227E4,1.1159156E3,3.9659832E4,4.0464664E2,6.234174E4,1.14394485E2,5.306716E1,2.1143796E3,6.4093243E2,6.0495293E1,1.5369477E1,5.617536E1,6.7566404E0,7.8631775E1,8.2063286E1,9.160747E4,1.5314304E4,2.29827E4,3.2955266E3,6.489295E2,4.6698615E2,3.313928E4,6.5205522E3,3.4667148E2,5.7975174E1,6.1802957E4,5.387806E2,2.060036E3,5.4343697E1,4.0230804E2,2.386244E2,1.3168974E1,2.2005038E0,5.867285E1,1.9958925E1,7.703692E1,5.0263724E0,8.833707E4,3.2703975E3,1.3850772E4,1.4635312E3,2.2869363E4,1.13336555E2,2.9677124E3,3.278142E2,7.1542786E1,5.773867E2,7.2171295E1,3.9481485E2,3.2749016E4,3.90264E2,5.0226143E3,1.4979381E3,2.3293646E2,1.1373501E2,4.0315312E4,2.1487645E4,3.603734E1,5.0274326E2,3.0457462E2,9.773342E1,8.965246E1,1.4897194E2,1.7449467E1,2.5094583E0,2.4934914E0,7.454343E1],"tree_param":{"num_deleted":"0","num_feature":"127","num_nodes":"83","size_leaf_vector":"0"}},{"base_weights":[-5.9309113E-3,5.041201E-3,-1.0621684E0,1.9228458E-2,-6.1135834E-1,-1.1504549E0,-3.4987926E-2,-1.1184187E0,2.7130501E-2,-8.8175833E-1,1.6660528E-1,-1.177275E0,-3.1830695E-1,-1.1842247E0,3.7738726E-1,-1.449739E0,-4.8445824E-1,5.858657E-2,-2.3862454E-1,-9.7678584E-1,3.0656016E-1,-1.4968268E0,4.5685855E-1,-1.122767E0,-1.342093E0,1.6042597E0,-1.1857646E0,-3.3494964E-1,1.0198385E0,-1.2393836E0,-1.9164888E0,2.3168819E-1,-1.3592695E0,-8.442776E-2,1.23115435E-1,-6.2540656E-1,-3.0702846E-2,-1.0416523E0,6.81973E-1,-7.2396934E-1,2.1454399E0,-1.4317929E0,-3.1150215E0,9.4148153E-1,-2.5365007E-1,-1.5011499E0,-1.253735E0,1.852482E0,-7.898935E-1,-1.139779E0,1.3550689E0,1.1778171E0,-1.2268285E0,-1.5648813E0,-1.2013785E0,-1.3632327E0,-2.3430212E0,5.187464E-1,-1.5880183E0,-1.2912545E0,-1.6412115E0,-1.4538248E-1,2.9910007E-1,1.004106E-1,4.4090953E-1,-6.929633E-1,1.087543E0,2.5413105E-2,-9.761967E-1,-1.2317299E0,-4.0578386E-1,1.1877276E0,-1.953232E0,-1.4337277E0,1.3955382E0,2.5736778E0,-1.3449697E0,-1.3819119E0,-2.4516187E0,-1.7418821E0,1.0666134E0,3.7636015E-1,-1.5586069E0,-1.5440516E0,-1.2405546E0,-1.2935594E0,-1.0868325E0,1.6551987E0,-9.5535886E-1,-1.2189376E0,1.2740684E0],"categories":[],"categories_nodes":[],"categories_segments":[],"categories_sizes":[],"default_left":[1,1,1,1,1,1,1,1,1,1,1,1,1,0,1,1,1,1,1,1,1,1,1,0,1,1,0,1,1,1,1,1,1,1,1,1,1,1,1,1,1,1,0,1,1,1,1,0,0,0,1,1,0,0,0,0,0,0,0,0,0,0,0,0,0,0,0,0,0,0,0,0,0,0,0,0,0,0,0,0,0,0,0,0,0,0,0,0,0,0,0],"id":6,"left_children":[1,3,5,7,9,11,13,15,17,19,21,23,25,-1,27,29,31,33,35,37,39,41,43,-1,45,47,-1,49,51,53,55,57,59,61,63,65,67,69,71,73,75,77,-1,79,81,83,85,-1,-1,-1,87,89,-1,-1,-1,-1,-1,-1,-1,-1,-1,-1,-1,-1,-1,-1,-1,-1,-1,-1,-1,-1,-1,-1,-1,-1,-1,-1,-1,-1,-1,-1,-1,-1,-1,-1,-1,-1,-1,-1,-1],"loss_changes":[2.7253074E3,2.0353531E3,2.1921265E2,2.0452632E3,1.1016829E3,4.93125E1,9.1622475E1,3.289364E2,1.8887771E3,4.391128E2,6.53183E2,1.78667E1,1.2011917E2,0E0,6.5483185E1,9.877368E1,3.3872852E2,1.8644285E3,1.9230756E3,3.87896E2,5.4827234E2,1.6694153E1,3.9670917E2,0E0,5.577942E0,1.4813164E1,0E0,9.437979E1,2.8096138E1,6.9400635E0,7.190088E1,1.5642252E2,2.5462646E0,1.4685084E3,1.00444727E3,9.682385E2,8.2525397E2,4.181045E2,1.8361293E2,2.812614E2,1.5871317E2,6.536682E0,0E0,2.3177594E2,3.8509106E2,1.4718628E-1,9.026489E-1,0E0,0E0,0E0,1.7166004E1,1.7855118E1,0E0,0E0,0E0,0E0,0E0,0E0,0E0,0E0,0E0,0E0,0E0,0E0,0E0,0E0,0E0,0E0,0E0,0E0,0E0,0E0,0E0,0E0,0E0,0E0,0E0,0E0,0E0,0E0,0E0,0E0,0E0,0E0,0E0,0E0,0E0,0E0,0E0,0E0,0E0],"parents":[2147483647,0,0,1,1,2,2,3,3,4,4,5,5,6,6,7,7,8,8,9,9,10,10,11,11,12,12,14,14,15,15,16,16,17,17,18,18,19,19,20,20,21,21,22,22,24,24,25,25,27,27,28,28,29,29,30,30,31,31,32,32,33,33,34,34,35,35,36,36,37,37,38,38,39,39,40,40,41,41,43,43,44,44,45,45,46,46,50,50,51,51],"right_children":[2,4,6,8,10,12,14,16,18,20,22,24,26,-1,28,30,32,34,36,38,40,42,44,-1,46,48,-1,50,52,54,56,58,60,62,64,66,68,70,72,74,76,78,-1,80,82,84,86,-1,-1,-1,88,90,-1,-1,-1,-1,-1,-1,-1,-1,-1,-1,-1,-1,-1,-1,-1,-1,-1,-1,-1,-1,-1,-1,-1,-1,-1,-1,-1,-1,-1,-1,-1,-1,-1,-1,-1,-1,-1,-1,-1],"split_conditions":[5E-1,1.1E1,4.75E1,3.955E2,1.219E3,5E-1,3.927098E-1,4.3E1,5E-1,5E-1,7.9045E3,5E-1,7.0512824E-2,-3.5526744E-1,2.87E2,5E-1,5.45E1,3.1E1,5E-1,8.5E1,5E-1,6.5E1,1.32065E4,-3.368301E-1,5E-1,3.2E1,-3.5572937E-1,8.311554E-1,1.02E2,6E0,2.9E1,3.76E2,5E-1,1.19505E4,1.71274E5,5E-1,5E-1,5E-1,8.7E1,5E-1,2.39E2,3.52865E4,-9.345065E-1,1.25E-1,1.5E0,6.1E1,5E-1,5.557446E-1,-2.3696806E-1,-3.419337E-1,2.013E3,1.875E-1,-3.6804855E-1,-4.6946442E-1,-3.6041355E-1,-4.0896985E-1,-7.0290637E-1,1.5562391E-1,-4.764055E-1,-3.8737637E-1,-4.9236348E-1,-4.3614745E-2,8.9730024E-2,3.0123182E-2,1.3227287E-1,-2.07889E-1,3.2626292E-1,7.623932E-3,-2.9285902E-1,-3.6951897E-1,-1.2173516E-1,3.563183E-1,-5.859696E-1,-4.3011835E-1,4.1866148E-1,7.7210337E-1,-4.0349093E-1,-4.1457358E-1,-7.354856E-1,-5.2256465E-1,3.1998405E-1,1.1290805E-1,-4.6758208E-1,-4.632155E-1,-3.721664E-1,-3.8806784E-1,-3.2604977E-1,4.9655962E-1,-2.8660768E-1,-3.656813E-1,3.8222054E-1],"split_indices":[53,1,4,6,1,75,103,2,12,114,6,62,107,0,5,95,2,2,52,3,75,2,6,0,29,3,0,103,126,2,2,6,92,125,126,46,40,97,3,52,5,1,0,108,0,3,12,0,0,0,6,108,0,0,0,0,0,0,0,0,0,0,0,0,0,0,0,0,0,0,0,0,0,0,0,0,0,0,0,0,0,0,0,0,0,0,0,0,0,0,0],"split_type":[0,0,0,0,0,0,0,0,0,0,0,0,0,0,0,0,0,0,0,0,0,0,0,0,0,0,0,0,0,0,0,0,0,0,0,0,0,0,0,0,0,0,0,0,0,0,0,0,0,0,0,0,0,0,0,0,0,0,0,0,0,0,0,0,0,0,0,0,0,0,0,0,0,0,0,0,0,0,0,0,0,0,0,0,0,0,0,0,0,0,0],"sum_hessian":[2.3515866E5,2.3274194E5,2.41671E3,2.2750655E5,5.235398E3,2.2253228E3,1.913873E2,1.5683795E3,2.2593816E5,3.8849548E3,1.3504431E3,2.1554385E3,6.988428E1,5.0045418E1,1.4134189E2,1.0292081E3,5.391714E2,2.0202614E5,2.3912025E4,3.5974517E3,2.875031E2,2.0001375E2,1.1504294E3,1.6256293E3,5.298091E2,2.1463913E1,4.842036E1,6.725241E1,7.408947E1,7.119852E2,3.1722296E2,2.968755E2,2.4229591E2,6.2813418E4,1.3921272E5,8.359476E3,1.555255E4,3.462424E3,1.3502753E2,1.8463681E2,1.0286631E2,1.9409792E2,5.9158363E0,6.8373975E2,4.666896E2,1.8349792E2,3.4631116E2,1.9652607E1,1.8113058E0,4.5777565E1,2.1474846E1,6.966649E1,4.4229803E0,7.0239365E1,6.4174585E2,1.3992369E2,1.7729926E2,2.570421E2,3.9833393E1,1.9970049E2,4.2595436E1,5.419995E4,8.613468E3,1.2993109E5,9.281626E3,8.0428696E3,3.1660596E2,1.4682125E4,8.704248E2,2.664884E3,7.975401E2,1.1374635E2,2.1281178E1,1.3856064E2,4.6076176E1,9.185881E1,1.10075035E1,1.8729227E2,6.8056526E0,2.9888214E1,6.5385156E2,3.1521902E2,1.5147061E2,1.5333014E2,3.0167786E1,2.7414673E2,7.216442E1,1.9256924E1,2.2179222E0,2.2393873E0,6.74271E1],"tree_param":{"num_deleted":"0","num_feature":"127","num_nodes":"91","size_leaf_vector":"0"}},{"base_weights":[-5.704864E-3,2.5131986E-3,-1.009376E0,-1.2640181E-2,4.217103E-1,-1.0976338E0,-4.852677E-2,-6.4894073E-3,-1.082809E0,4.525682E-1,-2.558079E0,-1.1254681E0,-3.001931E-1,-1.1273448E0,3.0818248E-1,-4.4402775E-1,7.5285463E-3,-2.7046397E0,-3.6060488E-1,4.681937E-1,-3.6349373E0,-2.8613963E0,-1.3730105E0,-1.0881641E0,-1.2318649E0,1.1786954E0,-1.121333E0,-3.170538E-1,8.362256E-1,-7.87114E-1,-1.4051965E-1,-8.337363E-3,3.8226196E-1,-2.857931E0,-1.8158277E0,-2.208974E0,7.954129E-2,6.0416895E-1,1.3498436E-1,-1.1581273E0,-1.3003225E0,1.3922343E0,-7.745036E-1,-1.088457E0,1.0675311E0,9.5552415E-1,-1.5150304E0,1.0147148E0,-8.3738273E-1,1.2255228E-1,-6.7468613E-1,-1.2141776E-1,4.715122E-2,4.4329983E-1,-5.446096E-1,-2.7199988E0,-3.4137666E0,6.029761E-1,-2.6443832E0,4.396354E-1,-1.3269398E0,-3.1389356E0,6.159711E-1,-2.628613E0,3.1892097E-1,1.3121781E0,-8.4868824E-1,-1.1038586E0,1.07656E0],"categories":[],"categories_nodes":[],"categories_segments":[],"categories_sizes":[],"default_left":[1,1,1,1,1,1,1,1,1,1,1,1,1,0,1,1,1,1,1,1,0,0,0,0,1,1,0,1,1,1,1,1,1,1,0,1,1,1,1,0,0,0,0,0,1,1,0,0,0,0,0,0,0,0,0,0,0,0,0,0,0,0,0,0,0,0,0,0,0],"id":7,"left_children":[1,3,5,7,9,11,13,15,17,19,21,23,25,-1,27,29,31,33,35,37,-1,-1,-1,-1,39,41,-1,43,45,47,49,51,53,55,-1,57,59,61,63,-1,-1,-1,-1,-1,65,67,-1,-1,-1,-1,-1,-1,-1,-1,-1,-1,-1,-1,-1,-1,-1,-1,-1,-1,-1,-1,-1,-1,-1],"loss_changes":[1.9051833E3,1.455342E3,1.5902856E2,1.4554438E3,7.361083E2,3.7796387E1,6.148075E1,1.3484364E3,1.4790442E3,5.0702698E2,2.557312E1,5.2470703E0,7.334491E1,0E0,3.993978E1,7.1057227E2,1.2665526E3,4.7832275E1,7.123756E2,3.5706604E2,0E0,0E0,0E0,0E0,6.3067627E-1,1.01129875E1,0E0,6.070368E1,1.9799213E1,2.9099988E2,5.0914487E2,1.2823918E3,4.897815E2,1.6028076E1,0E0,2.0777832E2,3.5916956E2,2.4922754E2,1.1627534E3,0E0,0E0,0E0,0E0,0E0,1.070093E1,1.686134E1,0E0,0E0,0E0,0E0,0E0,0E0,0E0,0E0,0E0,0E0,0E0,0E0,0E0,0E0,0E0,0E0,0E0,0E0,0E0,0E0,0E0,0E0,0E0],"parents":[2147483647,0,0,1,1,2,2,3,3,4,4,5,5,6,6,7,7,8,8,9,9,10,10,11,11,12,12,14,14,15,15,16,16,17,17,18,18,19,19,24,24,25,25,27,27,28,28,29,29,30,30,31,31,32,32,33,33,35,35,36,36,37,37,38,38,44,44,45,45],"right_children":[2,4,6,8,10,12,14,16,18,20,22,24,26,-1,28,30,32,34,36,38,-1,-1,-1,-1,40,42,-1,44,46,48,50,52,54,56,-1,58,60,62,64,-1,-1,-1,-1,-1,66,68,-1,-1,-1,-1,-1,-1,-1,-1,-1,-1,-1,-1,-1,-1,-1,-1,-1,-1,-1,-1,-1,-1,-1],"split_conditions":[5E-1,8.925E2,4.75E1,8.255E2,4.6301E4,5E-1,3.927098E-1,2.25E1,2.1661E4,8.9031E4,5E-1,5E-1,7.0512824E-2,-3.3820346E-1,2.87E2,3.25E1,1.592875E5,5.5E0,5E-1,9.045E2,-1.0904813E0,-8.5841894E-1,-4.1190317E-1,-3.2644925E-1,5E-1,4.3878955E-1,-3.363999E-1,8.311554E-1,3.125E-2,2.1E1,9.8525E3,1.615E2,5E-1,3.45E1,-5.4474837E-1,4.2857144E-2,2.1882E4,1.3858321E-1,2.4939E4,-3.4743822E-1,-3.9009678E-1,4.176703E-1,-2.3235108E-1,-3.265371E-1,2.013E3,1.875E-1,-4.5450914E-1,3.0441445E-1,-2.5121483E-1,3.6765687E-2,-2.0240586E-1,-3.642533E-2,1.4145366E-2,1.3298996E-1,-1.6338289E-1,-8.159997E-1,-1.02413E0,1.8089283E-1,-7.93315E-1,1.3189062E-1,-3.9808196E-1,-9.416807E-1,1.8479133E-1,-7.8858393E-1,9.5676295E-2,3.9365345E-1,-2.546065E-1,-3.311576E-1,3.22968E-1],"split_indices":[53,5,4,5,125,75,103,4,6,126,60,62,107,0,5,126,125,0,74,5,0,0,0,0,22,103,0,103,104,3,126,5,97,3,0,109,6,103,6,0,0,0,0,0,6,108,0,0,0,0,0,0,0,0,0,0,0,0,0,0,0,0,0,0,0,0,0,0,0],"split_type":[0,0,0,0,0,0,0,0,0,0,0,0,0,0,0,0,0,0,0,0,0,0,0,0,0,0,0,0,0,0,0,0,0,0,0,0,0,0,0,0,0,0,0,0,0,0,0,0,0,0,0,0,0,0,0,0,0,0,0,0,0,0,0,0,0,0,0,0,0],"sum_hessian":[2.309795E5,2.291046E5,1.8749116E3,2.2111266E5,7.991938E3,1.7170513E3,1.5786032E2,2.1985008E5,1.2625779E3,7.9108633E3,8.107463E1,1.6587423E3,5.83089E1,3.8689335E1,1.1917098E2,6.823995E3,2.1302608E5,3.8815823E2,8.744196E2,7.881619E3,2.9243969E1,6.3426205E1,1.7648428E1,1.2364545E3,4.222879E2,2.0661573E1,3.7647324E1,5.4746845E1,6.442414E1,3.202401E3,3.6215945E3,2.0437403E5,8.652053E3,3.291714E2,5.8986824E1,1.6740271E2,7.0701697E2,5.596855E3,2.2847642E3,2.1192973E2,2.1035818E2,1.8884209E1,1.7773652E0,3.5296013E1,1.9450834E1,6.1878162E1,2.545977E0,8.639725E1,3.1160037E3,2.4270605E3,1.1945338E3,6.727429E4,1.3709973E5,8.117976E3,5.340765E2,2.684486E2,6.072278E1,2.2393927E1,1.4500877E2,5.6344775E2,1.435692E2,1.6758755E1,5.580096E3,1.4174803E2,2.1430164E3,1.7528202E1,1.9226308E0,2.9841318E0,5.8894028E1],"tree_param":{"num_deleted":"0","num_feature":"127","num_nodes":"69","size_leaf_vector":"0"}},{"base_weights":[-4.032338E-3,2.0972453E-3,-9.715934E-1,-9.5166963E-1,7.5828484E-3,-1.0613396E0,-5.956941E-2,-1.0579197E0,9.35266E-1,1.7996147E-2,-5.0249755E-1,-1.0902146E0,-2.8461897E-1,-1.0822397E0,2.539158E-1,-1.1666616E0,1.4556904E-1,-1.8807435E0,1.4686145E0,2.2759993E-2,-1.1540054E0,-7.1858984E-1,1.9799568E-1,-1.0636417E0,-1.1622338E0,9.513835E-1,-1.0731671E0,4.526826E-1,-1.1592381E0,-1.2394912E0,-4.5695293E-1,-1.4793081E0,1.0271266E0,1.6370302E0,-1.5025138E0,2.5863986E-2,-1.674287E0,-1.4853032E0,-1.3422967E-1,-8.282458E-1,7.319397E-1,1.2170076E0,-3.5807893E-1,-9.6500695E-1,1.1448123E0,-1.0416684E0,6.2850577E-1,-1.2859685E0,1.18503846E-1,2.8804862E-1,-1.2733735E0,-1.061993E0,-2.072953E0,1.3421581E0,-1.3414023E0,6.0122963E-2,-1.24376E-1,-1.197181E0,-1.7720337E0,7.702651E-2,-1.6095787E0,5.8087546E-1,-1.6277689E0,-6.751828E-1,-1.2949923E0,-1.3511004E0,1.3412653E0,1.308486E0,-1.136107E0,-6.706632E-1,8.159469E-1,1.3153751E0,-6.750925E-1,7.685707E-1,-1.0692136E0],"categories":[],"categories_nodes":[],"categories_segments":[],"categories_sizes":[],"default_left":[1,1,1,1,1,1,1,1,1,1,1,1,1,0,1,1,1,0,1,1,1,1,1,0,0,1,0,1,0,1,1,1,1,0,0,1,1,1,1,1,1,1,1,0,1,0,1,0,0,0,0,0,0,0,0,0,0,0,0,0,0,0,0,0,0,0,0,0,0,0,0,0,0,0,0],"id":8,"left_children":[1,3,5,7,9,11,13,15,17,19,21,23,25,-1,27,29,31,-1,33,35,37,39,41,-1,-1,43,-1,45,-1,47,49,51,53,-1,-1,55,57,59,61,63,65,67,69,-1,71,-1,73,-1,-1,-1,-1,-1,-1,-1,-1,-1,-1,-1,-1,-1,-1,-1,-1,-1,-1,-1,-1,-1,-1,-1,-1,-1,-1,-1,-1],"loss_changes":[1.3565396E3,1.1891892E3,1.17793945E2,2.6158228E2,1.2003925E3,2.9089111E1,4.1970024E1,1.612677E2,1.0762376E2,1.2365542E3,6.845458E2,1.1817627E0,4.8133442E1,0E0,2.871282E1,5.7793213E1,1.4891254E2,0E0,3.2113663E1,1.1619547E3,3.02714E2,5.502562E2,6.0489496E2,0E0,0E0,8.280239E0,0E0,2.3959305E1,0E0,6.4746216E1,6.524461E1,6.865898E0,5.201478E1,0E0,0E0,1.1332595E3,1.6659912E1,1.3149988E2,2.3693219E2,2.2868335E2,3.107553E2,8.260272E1,2.5409521E2,0E0,6.4877796E0,0E0,1.9841274E1,0E0,0E0,0E0,0E0,0E0,0E0,0E0,0E0,0E0,0E0,0E0,0E0,0E0,0E0,0E0,0E0,0E0,0E0,0E0,0E0,0E0,0E0,0E0,0E0,0E0,0E0,0E0,0E0],"parents":[2147483647,0,0,1,1,2,2,3,3,4,4,5,5,6,6,7,7,8,8,9,9,10,10,11,11,12,12,14,14,15,15,16,16,18,18,19,19,20,20,21,21,22,22,25,25,27,27,29,29,30,30,31,31,32,32,35,35,36,36,37,37,38,38,39,39,40,40,41,41,42,42,44,44,46,46],"right_children":[2,4,6,8,10,12,14,16,18,20,22,24,26,-1,28,30,32,-1,34,36,38,40,42,-1,-1,44,-1,46,-1,48,50,52,54,-1,-1,56,58,60,62,64,66,68,70,-1,72,-1,74,-1,-1,-1,-1,-1,-1,-1,-1,-1,-1,-1,-1,-1,-1,-1,-1,-1,-1,-1,-1,-1,-1,-1,-1,-1,-1,-1,-1],"split_conditions":[5E-1,3.955E2,4.75E1,5E-1,1.1E1,5E-1,3.927098E-1,5E-1,3.397436E-1,7.9E1,1.1603E4,5E-1,7.0512824E-2,-3.2467192E-1,2.55E1,5E-1,5E-1,-5.6422305E-1,3.6538464E-1,5E-1,5E-1,4.8076922E-1,1.21705E4,-3.190925E-1,-3.4867015E-1,2.9E1,-3.2195014E-1,1.875E-1,-3.4777144E-1,8.311554E-1,1.55E1,5E-1,5E-1,4.911091E-1,-4.5075414E-1,8.428571E-1,5E-1,3.846154E-2,7.8571427E-1,6.895E2,5.9425E3,4.66E2,2.83265E4,-2.8950208E-1,3.2E1,-3.1250054E-1,1.02E2,-3.857906E-1,3.5551157E-2,8.641459E-2,-3.8201207E-1,-3.185979E-1,-6.218859E-1,4.0264744E-1,-4.024207E-1,1.8036889E-2,-3.7312802E-2,-3.591543E-1,-5.3161013E-1,2.3107953E-2,-4.8287365E-1,1.7426264E-1,-4.883307E-1,-2.0255485E-1,-3.884977E-1,-4.0533015E-1,4.023796E-1,3.9254582E-1,-3.408321E-1,-2.0119897E-1,2.4478407E-1,3.9461255E-1,-2.0252776E-1,2.3057123E-1,-3.207641E-1],"split_indices":[53,6,4,70,1,75,103,82,107,3,6,62,107,0,125,66,119,0,107,8,97,107,6,0,0,2,0,108,0,103,126,22,120,0,0,110,62,107,109,1,6,5,6,0,2,0,126,0,0,0,0,0,0,0,0,0,0,0,0,0,0,0,0,0,0,0,0,0,0,0,0,0,0,0,0],"split_type":[0,0,0,0,0,0,0,0,0,0,0,0,0,0,0,0,0,0,0,0,0,0,0,0,0,0,0,0,0,0,0,0,0,0,0,0,0,0,0,0,0,0,0,0,0,0,0,0,0,0,0,0,0,0,0,0,0,0,0,0,0,0,0,0,0,0,0,0,0,0,0,0,0,0,0],"sum_hessian":[2.2872866E5,2.2728975E5,1.4389026E3,1.298798E3,2.2599095E5,1.3098456E3,1.2905698E2,1.2299792E3,6.881869E1,2.214706E5,4.5203604E3,1.2625077E3,4.733794E1,2.970365E1,9.9353325E1,1.1280814E3,1.0189776E2,1.05563345E1,5.8262356E1,2.20575E5,8.955927E2,3.4546301E3,1.0657303E3,9.337506E2,3.287571E2,1.8357363E1,2.8980577E1,8.769787E1,1.16554575E1,1.02241565E3,1.056658E2,3.560076E1,6.6297E1,5.5561897E1,2.7004576E0,2.2017328E5,4.017245E2,6.7563916E2,2.1995352E2,3.2122239E3,2.424061E2,3.758299E2,6.899004E2,1.3173003E0,1.7040062E1,8.713743E0,7.898412E1,9.8863275E2,3.3782906E1,5.5587852E1,5.0077946E1,2.254278E1,1.3057982E1,5.8896652E1,7.400346E0,1.7929055E5,4.088273E4,7.056095E1,3.3116354E2,4.981168E1,6.2582745E2,1.4915117E2,7.080236E1,2.4208025E3,7.914216E2,5.458489E1,1.8782121E2,3.621934E2,1.3636506E1,5.451761E2,1.4472433E2,1.5833375E1,1.2066867E0,7.347E1,5.5141172E0],"tree_param":{"num_deleted":"0","num_feature":"127","num_nodes":"75","size_leaf_vector":"0"}},{"base_weights":[-3.6330163E-3,2.1660833E-2,-2.1932223E-1,-4.7375596E-1,3.3723366E-2,-5.6249094E-1,-4.356189E-2,-6.2376755E-1,1.1789902E-1,1.6861959E-1,-9.791977E-3,-6.080192E-1,8.0890447E-1,-4.9999106E-1,3.470016E-2,-8.1796116E-1,-1.5474658E-1,-4.742792E-2,1.8261323E0,5.754485E-2,3.9754057E-1,-4.1024333E-1,4.4245712E-2,-6.7948174E-1,8.202406E-2,-1.0640225E0,8.7123126E-1,-1.02798E0,-3.212053E-1,1.3820095E-1,-3.409917E-1,-8.984399E-1,-2.928123E-2,-1.1490041E0,5.2671123E-2,-1.2805592E0,3.4516862E-1,-1.4553258E0,2.1387334E0,7.519681E-2,-1.6578574E0,4.2645618E-1,-2.393067E0,-4.731031E-1,1.1426495E0,1.6867389E-1,-7.385157E-3,-7.4359554E-1,-1.4691202E-1,1.433603E0,-6.2059575E-1,5.359241E-1,1.1124403E0,-1.1283401E0,1.274549E0,-9.8005396E-1,-1.444576E-1,-1.516447E-1,3.0178514E-1,-2.2403912E-1,-2.0690973E0,-9.3230414E-1,1.1406447E0,7.5746876E-1,-1.2211534E0,7.4514747E-1,-3.19283E-1,-1.1426939E0,-1.4138324E0,5.544961E-1,-3.3532286E-1,-1.1719152E0,2.2577026E0,5.0535444E-2,1.2398244E0,-1.4067996E0,-1.8501972E0,4.650704E-1,-9.499156E-1,-2.1558487E0,-3.089115E0,-9.278543E-1,-3.4861186E-1,-1.2657988E0,1.7266284E0,1.7379376E-1,-2.4224117E0,-3.998206E-2,2.9999503E-1,7.465598E-1,-7.7269894E-1,-9.55952E-1,1.1480106E0,-1.8104728E-1,3.9012885E0,-1.1223418E0,1.3223399E0,7.484383E-1,-2.7646751E0,1.0183482E0,1.213271E0,-1.1363711E0,1.82255E0,-1.1859227E0,3.614519E0,5.536106E0,-2.397464E-1,6.1263677E-2,-1.4952976E0,2.3541573E-1,1.5176339E0,-3.551285E-2,-8.0571115E-1,-1.3705881E0,-2.3471107E0],"categories":[],"categories_nodes":[],"categories_segments":[],"categories_sizes":[],"default_left":[1,1,1,1,1,1,1,1,1,1,1,1,1,1,1,1,1,1,1,1,1,1,1,1,1,0,1,1,1,1,1,1,1,0,1,1,1,0,1,1,1,1,1,1,1,1,1,1,1,1,1,1,1,0,1,1,1,1,1,1,1,0,0,0,0,0,0,0,0,0,0,0,0,0,0,0,0,0,0,0,0,0,0,0,0,0,0,0,0,0,0,0,0,0,0,0,0,0,0,0,0,0,0,0,0,0,0,0,0,0,0,0,0,0,0],"id":9,"left_children":[1,3,5,7,9,11,13,15,17,19,21,23,25,27,29,31,33,35,37,39,41,43,45,47,49,-1,51,53,55,57,59,61,63,-1,65,67,69,-1,71,73,75,77,79,81,83,85,87,89,91,93,95,97,99,-1,101,103,105,107,109,111,113,-1,-1,-1,-1,-1,-1,-1,-1,-1,-1,-1,-1,-1,-1,-1,-1,-1,-1,-1,-1,-1,-1,-1,-1,-1,-1,-1,-1,-1,-1,-1,-1,-1,-1,-1,-1,-1,-1,-1,-1,-1,-1,-1,-1,-1,-1,-1,-1,-1,-1,-1,-1,-1,-1],"loss_changes":[1.2402332E3,1.215954E3,1.4391616E3,4.2933484E2,1.1660024E3,5.0508325E2,5.637102E2,3.5129895E2,2.7659512E2,1.2318824E3,3.2500127E3,3.8580005E2,3.1289932E1,2.1770972E2,5.238814E2,1.7315027E2,2.3330179E2,4.330822E2,9.176245E1,9.8791095E2,1.2781782E3,1.7436572E3,8.5014746E2,2.4192847E2,6.988644E2,0E0,1.98078E1,1.3635266E2,2.0096555E2,5.008609E2,5.876687E2,1.7201746E2,2.3878905E2,0E0,2.4151183E2,2.3535767E0,9.685465E1,0E0,3.3883118E1,9.273545E2,1.3443848E1,8.3305493E2,2.0166748E1,9.7132446E2,9.797095E2,5.1524316E2,9.371046E2,2.7495215E2,8.00353E2,1.0035784E3,4.7359644E2,7.745836E1,1.4772034E-1,0E0,3.4908432E1,3.496491E2,7.390352E2,1.0904172E3,5.445154E2,2.9898016E2,3.258014E1,0E0,0E0,0E0,0E0,0E0,0E0,0E0,0E0,0E0,0E0,0E0,0E0,0E0,0E0,0E0,0E0,0E0,0E0,0E0,0E0,0E0,0E0,0E0,0E0,0E0,0E0,0E0,0E0,0E0,0E0,0E0,0E0,0E0,0E0,0E0,0E0,0E0,0E0,0E0,0E0,0E0,0E0,0E0,0E0,0E0,0E0,0E0,0E0,0E0,0E0,0E0,0E0,0E0,0E0],"parents":[2147483647,0,0,1,1,2,2,3,3,4,4,5,5,6,6,7,7,8,8,9,9,10,10,11,11,12,12,13,13,14,14,15,15,16,16,17,17,18,18,19,19,20,20,21,21,22,22,23,23,24,24,26,26,27,27,28,28,29,29,30,30,31,31,32,32,34,34,35,35,36,36,38,38,39,39,40,40,41,41,42,42,43,43,44,44,45,45,46,46,47,47,48,48,49,49,50,50,51,51,52,52,54,54,55,55,56,56,57,57,58,58,59,59,60,60],"right_children":[2,4,6,8,10,12,14,16,18,20,22,24,26,28,30,32,34,36,38,40,42,44,46,48,50,-1,52,54,56,58,60,62,64,-1,66,68,70,-1,72,74,76,78,80,82,84,86,88,90,92,94,96,98,100,-1,102,104,106,108,110,112,114,-1,-1,-1,-1,-1,-1,-1,-1,-1,-1,-1,-1,-1,-1,-1,-1,-1,-1,-1,-1,-1,-1,-1,-1,-1,-1,-1,-1,-1,-1,-1,-1,-1,-1,-1,-1,-1,-1,-1,-1,-1,-1,-1,-1,-1,-1,-1,-1,-1,-1,-1,-1,-1,-1],"split_conditions":[5E-1,5E-1,5E-1,5E-1,5E-1,5E-1,1.085E2,1.5625E-2,5E-1,4.3E1,2.5575E3,5E-1,1.910225E5,5E-1,4.5E1,5E-1,2.1E1,4.72E2,2.1E1,4.5E0,2.9E2,5E-1,6.7142856E-1,5.3117E4,4.25E1,-3.1920677E-1,5E-1,5E-1,1.1495E3,5E-1,5E-1,6.5E1,1.375E2,-3.4470123E-1,2.7E1,2.38E2,3.6057695E-3,-4.3659776E-1,2.013889E-1,5E-1,2.7E1,5E-1,5E-1,3.1E1,1.3625E3,8.5E0,3.5E0,9.583333E-2,5E-1,4.15E1,7.875E-1,3.397436E-1,3.125E-2,-3.3850205E-1,3.125E-2,8.311554E-1,1.1735E3,8.553E3,5E-1,6.5E0,2.325E2,-2.7969125E-1,3.4219342E-1,2.2724064E-1,-3.6634603E-1,2.2354425E-1,-9.578491E-2,-3.428082E-1,-4.2414975E-1,1.6634884E-1,-1.0059686E-1,-3.5157457E-1,6.773108E-1,1.5160634E-2,3.7194735E-1,-4.220399E-1,-5.550592E-1,1.3952112E-1,-2.849747E-1,-6.467546E-1,-9.267345E-1,-2.783563E-1,-1.0458356E-1,-3.7973967E-1,5.1798856E-1,5.213813E-2,-7.2672355E-1,-1.1994619E-2,8.999851E-2,2.2396795E-1,-2.3180969E-1,-2.867856E-1,3.444032E-1,-5.4314185E-2,1.1703866E0,-3.3670253E-1,3.96702E-1,2.245315E-1,-8.2940257E-1,3.0550447E-1,3.639813E-1,-3.4091136E-1,5.46765E-1,-3.5577685E-1,1.0843557E0,1.6608319E0,-7.192393E-2,1.8379103E-2,-4.485893E-1,7.0624724E-2,4.552902E-1,-1.0653855E-2,-2.4171336E-1,-4.1117644E-1,-7.041333E-1],"split_indices":[12,62,52,52,90,46,5,104,14,2,6,83,125,29,4,75,2,5,3,0,5,14,109,125,5,0,29,78,6,61,83,2,5,0,3,5,104,0,108,18,2,75,89,2,125,0,0,112,95,5,112,107,104,0,104,103,6,6,83,126,5,0,0,0,0,0,0,0,0,0,0,0,0,0,0,0,0,0,0,0,0,0,0,0,0,0,0,0,0,0,0,0,0,0,0,0,0,0,0,0,0,0,0,0,0,0,0,0,0,0,0,0,0,0,0],"split_type":[0,0,0,0,0,0,0,0,0,0,0,0,0,0,0,0,0,0,0,0,0,0,0,0,0,0,0,0,0,0,0,0,0,0,0,0,0,0,0,0,0,0,0,0,0,0,0,0,0,0,0,0,0,0,0,0,0,0,0,0,0,0,0,0,0,0,0,0,0,0,0,0,0,0,0,0,0,0,0,0,0,0,0,0,0,0,0,0,0,0,0,0,0,0,0,0,0,0,0,0,0,0,0,0,0,0,0,0,0,0,0,0,0,0,0],"sum_hessian":[2.2732983E5,2.0346984E5,2.3859986E4,4.8354683E3,1.9863438E5,8.080589E3,1.5779396E4,3.8573892E3,9.780789E2,4.844707E4,1.5018731E5,7.8214844E3,2.591045E2,2.3088208E3,1.3470576E4,2.727394E3,1.129995E3,8.926576E2,8.542132E1,3.2620521E4,1.582655E4,1.7856139E4,1.3233117E5,7.0875005E3,7.339839E2,7.827117E0,2.5127737E2,5.8283795E2,1.7259829E3,1.05615625E4,2.9090132E3,2.474728E3,2.5266608E2,1.9426163E2,9.357334E2,2.1502144E2,6.7763617E2,7.1117573E0,7.830956E1,3.2289213E4,3.3130865E2,1.5665079E4,1.6147052E2,1.7162125E4,6.94013E2,3.8806617E4,9.352455E4,6.325593E3,7.6190753E2,2.506966E2,4.832873E2,1.0648011E2,1.4479726E2,5.589835E2,2.3854422E1,3.641234E2,1.3618595E3,3.8103284E3,6.7512344E3,2.725678E3,1.833354E2,2.4348342E3,3.989391E1,1.5241924E2,1.0024685E2,3.2663168E2,6.091017E2,1.10395874E2,1.04625565E2,5.183657E2,1.5927045E2,2.409446E0,7.5900116E1,3.162068E4,6.6853467E2,1.4732367E2,1.8398499E2,1.5238231E4,4.2684766E2,1.2348365E2,3.7986862E1,3.6871108E3,1.3475014E4,1.3521036E2,5.588027E2,3.873102E4,7.559776E1,8.4558234E4,8.966319E3,1.2070276E2,6.20489E3,4.6909116E2,2.9281635E2,1.521009E2,9.8595695E1,3.844332E2,9.885412E1,1.0076542E2,5.714697E0,8.064313E1,6.415412E1,4.219064E0,1.9635357E1,3.492179E2,1.4905499E1,2.152568E1,1.3403339E3,3.2899707E3,5.2035754E2,6.402913E3,3.4832153E2,2.0592979E3,6.6637994E2,5.3883354E1,1.2945204E2],"tree_param":{"num_deleted":"0","num_feature":"127","num_nodes":"115","size_leaf_vector":"0"}},{"base_weights":[-4.312433E-3,-4.386236E-2,1.2413574E-1,-1.13253266E-1,6.170664E-2,9.6465185E-2,4.5121244E-1,-3.9042436E-2,-2.4065383E-1,1.1351859E-1,-1.5283337E-1,1.0412289E-1,-2.7386649E0,4.628513E-1,-2.2149682E0,-3.5276264E-1,4.5363776E-2,-6.416362E-1,-1.7262313E-1,5.8411453E-2,3.4206563E-1,-5.409499E-1,-2.717711E-4,8.254616E-2,5.8702415E-1,-3.4282374E0,-6.415507E-1,3.6294323E-1,8.256748E-1,-8.761253E-1,-2.4265313E0,-3.0292314E-1,-1.4861192E0,2.803855E-1,-4.790769E-2,-7.938544E-1,-1.8505393E-2,-4.787926E-2,-4.5785892E-1,7.472142E-2,-1.8957039E0,4.000434E-1,-1.3298438E0,2.2147186E0,-5.863805E-1,-8.612474E-2,6.577343E-1,-8.267984E-1,9.666485E-2,9.7979623E-1,3.9591905E-1,-3.1148903E0,-4.0115647E0,-2.626199E0,1.0199804E0,3.913468E-1,-4.9023232E0,-3.671376E0,8.5683393E-1,-2.3503654E-1,-9.091106E-1,-1.3796309E0,-1.9089181E0,3.124959E-1,-8.8339794E-1,-8.1197105E-2,7.342823E-1,-6.3899916E-1,-1.4536244E0,1.4856488E0,-2.0128562E-1,-1.9207548E-3,-7.9550093E-1,-8.305888E-1,-3.2089034E-1,-1.458857E0,8.259812E-2,-2.1041982E0,7.799559E-1,1.1621306E0,3.5604364E-1,-1.8177999E0,4.5511973E-1,5.527009E0,2.331329E-1,-5.075809E-1,-1.9863621E0,-1.19254135E-1,8.3596665E-1,-6.014696E-1,8.555764E-1,6.855926E-2,-1.3098954E0,5.041452E-1,6.2206656E-2,1.0946087E0,-2.4999979E0,-1.4435376E0,5.184084E-1,-8.718867E-1,-2.9745474E0,1.3264612E0,-1.5644345E0,-3.5759368E0,4.0513864E-1,-3.6648102E0,8.8836145E-1],"categories":[],"categories_nodes":[],"categories_segments":[],"categories_sizes":[],"default_left":[1,1,1,1,1,1,1,1,1,1,1,1,1,1,1,1,1,1,1,1,1,1,1,1,1,1,1,1,1,0,0,1,1,1,1,1,1,1,1,1,1,1,1,1,1,1,1,1,1,1,1,0,0,1,1,1,0,0,1,0,0,0,0,0,0,0,0,0,0,0,0,0,0,0,0,0,0,0,0,0,0,0,0,0,0,0,0,0,0,0,0,0,0,0,0,0,0,0,0,0,0,0,0,0,0,0,0],"id":10,"left_children":[1,3,5,7,9,11,13,15,17,19,21,23,25,27,29,31,33,35,37,39,41,43,45,47,49,51,53,55,57,-1,-1,59,61,63,65,67,69,71,73,75,77,79,81,83,85,87,89,91,93,95,97,-1,-1,99,101,103,-1,-1,105,-1,-1,-1,-1,-1,-1,-1,-1,-1,-1,-1,-1,-1,-1,-1,-1,-1,-1,-1,-1,-1,-1,-1,-1,-1,-1,-1,-1,-1,-1,-1,-1,-1,-1,-1,-1,-1,-1,-1,-1,-1,-1,-1,-1,-1,-1,-1,-1],"loss_changes":[1.132202E3,1.2482885E3,4.7480945E2,9.720919E2,7.5125964E2,1.0505663E3,1.2801257E2,1.7205139E3,1.0323015E3,6.85598E2,7.784614E2,5.0265863E2,1.8630109E2,1.4742535E2,2.961029E0,7.7764856E2,1.1223499E3,5.2065186E2,1.1513215E3,1.39812E3,1.025672E3,4.657201E2,5.3324963E2,5.9303394E2,1.5449115E2,5.392334E0,1.1309925E2,4.8006403E2,1.2633038E2,0E0,0E0,5.428319E2,2.3479248E1,5.438711E2,9.544826E2,4.497964E2,2.968622E2,7.735562E2,5.0236353E2,5.255894E2,2.0420447E2,3.4234753E2,3.0974738E2,3.9499536E2,4.016858E2,2.5517705E2,2.7192392E2,3.055596E2,6.385475E2,2.722849E2,3.13869E2,0E0,0E0,6.902481E0,1.7082392E1,1.7549771E2,0E0,0E0,1.2783099E2,0E0,0E0,0E0,0E0,0E0,0E0,0E0,0E0,0E0,0E0,0E0,0E0,0E0,0E0,0E0,0E0,0E0,0E0,0E0,0E0,0E0,0E0,0E0,0E0,0E0,0E0,0E0,0E0,0E0,0E0,0E0,0E0,0E0,0E0,0E0,0E0,0E0,0E0,0E0,0E0,0E0,0E0,0E0,0E0,0E0,0E0,0E0,0E0],"parents":[2147483647,0,0,1,1,2,2,3,3,4,4,5,5,6,6,7,7,8,8,9,9,10,10,11,11,12,12,13,13,14,14,15,15,16,16,17,17,18,18,19,19,20,20,21,21,22,22,23,23,24,24,25,25,26,26,27,27,28,28,31,31,32,32,33,33,34,34,35,35,36,36,37,37,38,38,39,39,40,40,41,41,42,42,43,43,44,44,45,45,46,46,47,47,48,48,49,49,50,50,53,53,54,54,55,55,58,58],"right_children":[2,4,6,8,10,12,14,16,18,20,22,24,26,28,30,32,34,36,38,40,42,44,46,48,50,52,54,56,58,-1,-1,60,62,64,66,68,70,72,74,76,78,80,82,84,86,88,90,92,94,96,98,-1,-1,100,102,104,-1,-1,106,-1,-1,-1,-1,-1,-1,-1,-1,-1,-1,-1,-1,-1,-1,-1,-1,-1,-1,-1,-1,-1,-1,-1,-1,-1,-1,-1,-1,-1,-1,-1,-1,-1,-1,-1,-1,-1,-1,-1,-1,-1,-1,-1,-1,-1,-1,-1,-1],"split_conditions":[7.1815E3,6.235E2,1.77465E4,5E-1,1.5E0,1.6881E4,9.35895E4,1.615E2,2.25E1,9.55E3,2.445E2,9.8317E4,3.54465E4,2.0308E4,4.5E1,6.45E1,5E-1,4.605E2,7.258E3,3.555E2,5.3732E4,6.76E2,2.49804E5,5.46E2,1.215E2,3.55E1,4.5454547E-2,1.56355E4,7.17E2,-2.628376E-1,-7.279594E-1,2.915E2,1E2,5.4E1,6.9E1,5.35E1,4.615E2,2.505E2,1.0176E4,1.7E1,6.9E1,2.45E1,1.25E-1,2.9E1,9.02275E4,5.128205E-1,6.596E3,3.1E1,7.905E2,5E-1,5E-1,-9.3446714E-1,-1.2034695E0,2.8E1,3.1E1,9.583333E-2,-1.470697E0,-1.1014129E0,4.9E1,-7.051096E-2,-2.7273318E-1,-4.138893E-1,-5.7267547E-1,9.374877E-2,-2.650194E-1,-2.4359133E-2,2.202847E-1,-1.9169976E-1,-4.3608734E-1,4.4569466E-1,-6.0385685E-2,-5.7622645E-4,-2.3865029E-1,-2.4917665E-1,-9.6267104E-2,-4.3765715E-1,2.4779437E-2,-6.312595E-1,2.3398678E-1,3.486392E-1,1.06813096E-1,-5.4534E-1,1.3653593E-1,1.6581028E0,6.9939874E-2,-1.5227427E-1,-5.9590864E-1,-3.5776243E-2,2.5079E-1,-1.8044087E-1,2.5667292E-1,2.0567778E-2,-3.9296862E-1,1.5124357E-1,1.8661998E-2,3.283826E-1,-7.499994E-1,-4.330613E-1,1.5552253E-1,-2.61566E-1,-8.9236426E-1,3.9793837E-1,-4.6933037E-1,-1.0727811E0,1.215416E-1,-1.0994431E0,2.6650846E-1],"split_indices":[126,125,6,126,0,6,125,5,126,6,5,125,126,125,2,2,73,5,6,5,125,125,125,6,5,3,106,125,5,0,0,125,5,125,2,125,5,125,6,3,3,3,104,5,125,107,6,3,6,99,99,0,0,2,3,112,0,0,2,0,0,0,0,0,0,0,0,0,0,0,0,0,0,0,0,0,0,0,0,0,0,0,0,0,0,0,0,0,0,0,0,0,0,0,0,0,0,0,0,0,0,0,0,0,0,0,0],"split_type":[0,0,0,0,0,0,0,0,0,0,0,0,0,0,0,0,0,0,0,0,0,0,0,0,0,0,0,0,0,0,0,0,0,0,0,0,0,0,0,0,0,0,0,0,0,0,0,0,0,0,0,0,0,0,0,0,0,0,0,0,0,0,0,0,0,0,0,0,0,0,0,0,0,0,0,0,0,0,0,0,0,0,0,0,0,0,0,0,0,0,0,0,0,0,0,0,0,0,0,0,0,0,0,0,0,0,0],"sum_hessian":[2.2286723E5,1.7040058E5,5.2466656E4,1.0281791E5,6.7582664E4,4.837541E4,4.0912454E3,6.4972645E4,3.784526E4,5.443657E4,1.3146097E4,4.824606E4,1.2934975E2,4.0742861E3,1.6959318E1,1.3774083E4,5.1198562E4,5.4882603E3,3.2357E4,4.3861875E4,1.0574695E4,3.7086785E3,9.437418E3,4.6183676E4,2.0623835E3,9.686415E1,3.2485588E1,3.1961782E3,8.7810785E2,3.0157614E0,1.3943557E1,1.3195094E4,5.7898895E2,1.4545468E4,3.6653094E4,4.4105728E3,1.0776876E3,2.25126E4,9.844401E3,4.3499766E4,3.6210785E2,1.0221017E4,3.5367935E2,5.937611E1,3.6493025E3,8.348961E3,1.0884568E3,7.0521564E2,4.547846E4,6.7367474E2,1.3887089E3,6.7138885E1,2.9725267E1,1.453882E1,1.7946768E1,3.1799497E3,1.622862E1,5.238476E0,8.728693E2,1.1867452E4,1.3276415E3,4.6590656E2,1.13082405E2,1.4155626E4,3.8984186E2,3.5157707E4,1.4953889E3,3.5737444E3,8.368283E2,1.1599569E2,9.6169196E2,2.1209775E4,1.3028247E3,2.6440732E3,7.200328E3,2.2133856E2,4.327843E4,3.3612936E2,2.5978497E1,5.5652094E2,9.664495E3,2.777361E2,7.594322E1,2.1555744E1,3.782037E1,3.4561326E3,1.9316997E2,8.0602393E3,2.8872195E2,1.4751692E2,9.409399E2,2.4745255E2,4.577631E2,3.5449187E3,4.1933543E4,6.52821E2,2.0853752E1,8.602735E1,1.3026815E3,2.9889789E0,1.1549842E1,1.6479269E1,1.4674982E0,1.012167E1,3.169828E3,5.2460356E0,8.676233E2],"tree_param":{"num_deleted":"0","num_feature":"127","num_nodes":"107","size_leaf_vector":"0"}},{"base_weights":[-3.0991146E-3,1.8665936E-3,-6.7032933E-1,4.1007604E-3,-1.405255E0,-8.815213E-1,4.9608934E-1,-1.7154112E-1,2.1921868E-2,-1.1807246E0,-1.4892561E0,-8.360462E-2,-1.0460322E0,1.4888074E0,-1.2083328E0,-1.4340994E-1,-7.0604455E-1,4.0347683E-3,2.1380928E-1,-1.635238E0,-1.2723796E0,8.675382E-1,-1.2160847E0,-2.3833577E-2,-1.1021647E0,5.924324E0,1.1564128E0,-1.3887656E-1,-2.563164E0,3.0411223E-1,-1.5366935E0,1.8739454E-2,-3.9454186E-1,1.4223665E-1,7.585421E-1,-1.4414951E0,-1.7261726E0,-1.056322E0,-1.3586472E0,-1.1191381E0,1.7081381E0,-1.1990566E0,2.6089795E0,-1.1678432E0,-3.8152698E-1,-8.096328E-1,8.097616E0,-1.0895298E0,2.1231782E0,-1.192201E0,-1.2923838E-1,-1.9675442E0,-3.4265203E0,-2.133285E0,8.128156E-1,-2.1423786E0,-1.9716628E-1,4.407264E-3,3.0797333E-1,-1.5012361E-1,-1.0508908E0,-1.7652781E0,1.530172E-1,9.223046E-1,-2.3954349E0,2.1505113E0,-1.1028233E0,-6.114956E-1,2.870879E0,-1.2129556E0,-3.5422143E-1,-1.1917111E0,3.848362E0,2.3841991E0,-1.1112474E0],"categories":[],"categories_nodes":[],"categories_segments":[],"categories_sizes":[],"default_left":[1,1,1,1,1,1,1,1,1,0,1,1,1,1,0,1,1,1,1,1,1,1,0,1,1,1,1,1,1,1,1,1,1,1,1,0,0,0,0,0,1,0,1,1,1,0,0,0,1,0,0,0,0,0,0,0,0,0,0,0,0,0,0,0,0,0,0,0,0,0,0,0,0,0,0],"id":11,"left_children":[1,3,5,7,9,11,13,15,17,-1,19,21,23,25,-1,27,29,31,33,35,37,39,-1,41,43,45,47,49,51,53,55,57,59,61,63,-1,-1,-1,-1,-1,65,-1,67,69,71,-1,-1,-1,73,-1,-1,-1,-1,-1,-1,-1,-1,-1,-1,-1,-1,-1,-1,-1,-1,-1,-1,-1,-1,-1,-1,-1,-1,-1,-1],"loss_changes":[7.292346E2,6.86819E2,4.009604E2,6.8276245E2,4.7736816E0,1.8066736E2,4.2462653E2,3.0202075E2,6.797081E2,0E0,5.777771E0,2.5576207E2,6.547412E1,2.2663574E2,0E0,2.0905017E2,8.432228E2,1.0617039E3,6.582375E2,6.359863E-2,5.1005554E-1,2.1751736E2,0E0,1.901548E2,5.0770508E1,1.645831E2,3.249007E2,1.9329404E2,1.1585342E1,5.647166E2,4.4688342E2,7.24206E2,1.0338273E3,3.0721127E2,1.01494495E3,0E0,0E0,0E0,0E0,0E0,1.1567352E2,0E0,1.7755035E1,3.5953003E1,3.194224E2,0E0,0E0,0E0,9.0621185E1,0E0,0E0,0E0,0E0,0E0,0E0,0E0,0E0,0E0,0E0,0E0,0E0,0E0,0E0,0E0,0E0,0E0,0E0,0E0,0E0,0E0,0E0,0E0,0E0,0E0,0E0],"parents":[2147483647,0,0,1,1,2,2,3,3,4,4,5,5,6,6,7,7,8,8,10,10,11,11,12,12,13,13,15,15,16,16,17,17,18,18,19,19,20,20,21,21,23,23,24,24,25,25,26,26,27,27,28,28,29,29,30,30,31,31,32,32,33,33,34,34,40,40,42,42,43,43,44,44,48,48],"right_children":[2,4,6,8,10,12,14,16,18,-1,20,22,24,26,-1,28,30,32,34,36,38,40,-1,42,44,46,48,50,52,54,56,58,60,62,64,-1,-1,-1,-1,-1,66,-1,68,70,72,-1,-1,-1,74,-1,-1,-1,-1,-1,-1,-1,-1,-1,-1,-1,-1,-1,-1,-1,-1,-1,-1,-1,-1,-1,-1,-1,-1,-1,-1],"split_conditions":[5E-1,5E-1,1.5945E3,2.0804676E-1,2.9E1,1.3461539E-1,3.00765E4,3.5E0,1.76905E4,-3.542174E-1,5E-1,7.8571427E-1,5.7142857E-2,7.0512824E-2,-3.6249983E-1,1.0205E3,5E-1,5.33E2,4.5E0,5E-1,5E-1,2.9E1,-3.6482543E-1,2.5E0,2.2727273E-1,5E-1,2.4E1,1.75E1,5E-1,1.7744154E-1,8.636364E-1,5.055E2,3.55E1,4.27E2,5.2E1,-4.3244854E-1,-5.1785177E-1,-3.1689662E-1,-4.0759417E-1,-3.3574146E-1,5E-1,-3.59717E-1,4.85E1,3.02925E4,5E-1,-2.4288984E-1,2.429285E0,-3.2685894E-1,8.1428576E-1,-3.5766032E-1,-3.8771518E-2,-5.902633E-1,-1.0279561E0,-6.3998556E-1,2.4384469E-1,-6.427136E-1,-5.9149887E-2,1.3221792E-3,9.2392E-2,-4.5037083E-2,-3.1526726E-1,-5.2958345E-1,4.5905158E-2,2.7669138E-1,-7.186305E-1,6.451534E-1,-3.30847E-1,-1.8344869E-1,8.612637E-1,-3.6388668E-1,-1.0626643E-1,-3.5751334E-1,1.1545086E0,7.152598E-1,-3.3337423E-1],"split_indices":[40,8,126,103,3,107,125,0,6,0,22,109,110,107,0,5,73,5,0,49,62,2,0,0,106,21,2,5,62,103,106,5,3,5,2,0,0,0,0,0,77,0,125,6,22,0,0,0,109,0,0,0,0,0,0,0,0,0,0,0,0,0,0,0,0,0,0,0,0,0,0,0,0,0,0],"split_type":[0,0,0,0,0,0,0,0,0,0,0,0,0,0,0,0,0,0,0,0,0,0,0,0,0,0,0,0,0,0,0,0,0,0,0,0,0,0,0,0,0,0,0,0,0,0,0,0,0,0,0,0,0,0,0,0,0,0,0,0,0,0,0,0,0,0,0,0,0,0,0,0,0,0,0],"sum_hessian":[2.2009373E5,2.1846883E5,1.6249071E3,2.181235E5,3.4533E2,1.3760106E3,2.4889648E2,2.0091947E4,1.9803155E5,9.8119156E1,2.4721083E2,2.3546379E2,1.1405468E3,1.5736679E2,9.152969E1,1.9088574E4,1.0033735E3,1.8114669E5,1.6884863E4,1.4384634E2,1.0336447E2,1.2810524E2,1.0735856E2,5.944534E1,1.0811014E3,9.797987E0,1.475688E2,1.9053934E4,3.4639904E1,4.5305032E2,5.503231E2,1.7470234E5,6.4443403E3,1.4925109E4,1.9597543E3,5.133189E1,9.251446E1,3.3274082E1,7.009039E1,3.7989464E1,9.011577E1,4.147603E1,1.7969309E1,9.902318E2,9.086965E1,2.54372E0,7.2542667E0,4.436807E1,1.0320074E2,1.7165479E2,1.888228E4,2.243867E1,1.2201235E1,7.767679E1,3.7537354E2,3.7855502E2,1.7176811E2,1.6645512E5,8.247212E3,4.696599E3,1.7477412E3,8.296235E1,1.4842147E4,1.8636941E3,9.606012E1,7.806526E1,1.20505085E1,1.2510301E0,1.6718277E1,9.377463E2,5.24855E1,7.6865295E1,1.40043545E1,9.573751E1,7.4632277E0],"tree_param":{"num_deleted":"0","num_feature":"127","num_nodes":"75","size_leaf_vector":"0"}},{"base_weights":[-2.4964374E-3,1.0837294E-3,-8.617555E-1,-4.364618E-1,7.6429355E-3,-1.0103133E0,2.365099E-1,-2.1125916E-1,-1.1630186E0,-2.4804857E-2,1.1680022E-1,-1.0600153E0,1.4844593E-2,-1.013624E0,4.85667E-1,-3.5335264E-1,1.0063782E0,8.430449E-1,-1.2491684E0,-5.526209E-1,8.364931E-4,2.3646921E-1,-9.721565E-2,1.0670274E0,-1.0158864E0,-7.534269E-2,8.480568E-1,-5.079466E-1,1.0478098E0,-1.3770254E0,1.4878718E0,-1.1379395E0,2.0775154E0,-1.0847588E0,-1.4219865E0,-8.2123685E-1,1.7013921E-1,1.2008833E0,-5.0015915E-3,1.3266838E-1,4.7574505E-1,1.3588269E-1,-2.7903274E-1,-7.893275E-1,1.2186444E0,-1.0144578E0,9.8213774E-1,9.3427575E-1,-1.1934378E0,-1.3535197E0,-3.3355746E-1,-1.2230167E0,1.274368E0,-1.0731757E0,-1.5406746E0,-1.346525E0,1.8694144E0,-1.2847364E0,-1.6930224E0,-8.613873E-1,1.0082183E0,6.212343E-1,-8.153534E-1,-1.379873E0,1.3270509E0,-1.6839354E-1,2.7465105E-2,1.192474E0,1.0147748E-1,1.528948E-1,6.540407E-1,-5.366132E-1,2.6505876E-1,-5.904715E-1,-7.643223E-2,-9.877139E-1,1.1740735E0,1.0153328E0,-8.149673E-1],"categories":[],"categories_nodes":[],"categories_segments":[],"categories_sizes":[],"default_left":[1,1,1,1,1,1,1,1,1,1,1,0,1,0,1,1,1,1,1,1,1,1,1,1,0,1,1,1,1,1,1,0,0,0,1,1,1,1,1,1,1,1,1,0,0,0,1,1,0,0,0,0,0,0,0,0,0,0,0,0,0,0,0,0,0,0,0,0,0,0,0,0,0,0,0,0,0,0,0],"id":12,"left_children":[1,3,5,7,9,11,13,15,17,19,21,-1,23,-1,25,27,29,31,33,35,37,39,41,43,-1,45,47,49,51,53,55,-1,-1,-1,57,59,61,63,65,67,69,71,73,-1,-1,-1,75,77,-1,-1,-1,-1,-1,-1,-1,-1,-1,-1,-1,-1,-1,-1,-1,-1,-1,-1,-1,-1,-1,-1,-1,-1,-1,-1,-1,-1,-1,-1,-1],"loss_changes":[6.7372705E2,6.2593475E2,1.4850195E2,5.268185E2,7.610822E2,4.081012E1,3.4469543E1,4.2602325E2,1.3273901E2,2.2417732E3,1.2610591E3,0E0,4.2304306E1,0E0,1.8692986E1,4.77919E2,2.9739178E2,8.055152E1,1.9227417E1,1.4900181E3,1.1067262E3,7.842925E2,7.4844226E2,6.3928585E0,0E0,3.762112E1,1.0928257E1,2.923371E2,1.1439545E2,5.231705E-1,2.3457956E2,0E0,0E0,0E0,1.09627075E1,4.1183472E2,9.2523157E2,2.5084937E2,8.339413E2,7.279984E2,5.498801E2,6.724173E2,6.2594794E2,0E0,0E0,0E0,7.9102077E0,8.491684E0,0E0,0E0,0E0,0E0,0E0,0E0,0E0,0E0,0E0,0E0,0E0,0E0,0E0,0E0,0E0,0E0,0E0,0E0,0E0,0E0,0E0,0E0,0E0,0E0,0E0,0E0,0E0,0E0,0E0,0E0,0E0],"parents":[2147483647,0,0,1,1,2,2,3,3,4,4,5,5,6,6,7,7,8,8,9,9,10,10,12,12,14,14,15,15,16,16,17,17,18,18,19,19,20,20,21,21,22,22,23,23,25,25,26,26,27,27,28,28,29,29,30,30,34,34,35,35,36,36,37,37,38,38,39,39,40,40,41,41,42,42,46,46,47,47],"right_children":[2,4,6,8,10,12,14,16,18,20,22,-1,24,-1,26,28,30,32,34,36,38,40,42,44,-1,46,48,50,52,54,56,-1,-1,-1,58,60,62,64,66,68,70,72,74,-1,-1,-1,76,78,-1,-1,-1,-1,-1,-1,-1,-1,-1,-1,-1,-1,-1,-1,-1,-1,-1,-1,-1,-1,-1,-1,-1,-1,-1,-1,-1,-1,-1,-1,-1],"split_conditions":[5E-1,1.95E1,4.75E1,5E-1,5E-1,5E-1,3.927098E-1,2.5E0,1.4285714E-2,9.575E2,5E-1,-3.180046E-1,7.0512824E-2,-3.040872E-1,2.87E2,3.5737E4,7.8571427E-1,2.0725E3,5E-1,5E-1,9.905E2,4.3E1,9.635E2,2.9E1,-3.0476594E-1,8.311554E-1,3.125E-2,1.601E3,1.8E1,5E-1,2.5694445E-1,-3.4138185E-1,6.2325466E-1,-3.2542765E-1,2.475E2,1.67003E5,6.9E1,1.3461539E-1,4.164E3,2.1E1,3.92E2,5E-1,6.1485E3,-2.3679826E-1,3.655933E-1,-3.0433735E-1,1.25E1,1.02E2,-3.5803136E-1,-4.0605593E-1,-1.0006724E-1,-3.6690503E-1,3.8231042E-1,-3.219527E-1,-4.622024E-1,-4.0395752E-1,5.6082433E-1,-3.8542095E-1,-5.0790673E-1,-2.584162E-1,3.024655E-1,1.863703E-1,-2.4460603E-1,-4.1396192E-1,3.981153E-1,-5.0518062E-2,8.239532E-3,3.5774222E-1,3.0443246E-2,4.586844E-2,1.9621222E-1,-1.6098398E-1,7.951763E-2,-1.7714146E-1,-2.2929668E-2,-2.9631418E-1,3.5222206E-1,3.0459985E-1,-2.4449019E-1],"split_indices":[53,2,4,77,92,75,103,0,109,6,23,0,107,0,5,125,109,126,62,99,6,2,6,2,0,103,104,6,3,75,108,0,0,0,5,125,3,107,6,3,126,15,6,0,0,0,125,126,0,0,0,0,0,0,0,0,0,0,0,0,0,0,0,0,0,0,0,0,0,0,0,0,0,0,0,0,0,0,0],"split_type":[0,0,0,0,0,0,0,0,0,0,0,0,0,0,0,0,0,0,0,0,0,0,0,0,0,0,0,0,0,0,0,0,0,0,0,0,0,0,0,0,0,0,0,0,0,0,0,0,0,0,0,0,0,0,0,0,0,0,0,0,0,0,0,0,0,0,0,0,0,0,0,0,0,0,0,0,0,0,0],"sum_hessian":[2.1900498E5,2.1809727E5,9.077197E2,3.22022E3,2.1487705E5,7.9963635E2,1.0808339E2,2.4592458E3,7.609742E2,1.656401E5,4.9236945E4,7.6262836E2,3.7007984E1,1.7451767E1,9.063162E1,2.2028875E3,2.563585E2,3.0972397E1,7.300018E2,7.673054E3,1.5796705E5,3.1579092E4,1.7657852E4,1.8295994E1,1.8711988E1,3.58794E1,5.475222E1,1.9845627E3,2.1832455E2,4.2772713E1,2.1358577E2,1.1920878E1,1.905152E1,3.7783105E2,3.5217072E2,5.593921E3,2.0791333E3,7.637793E2,1.5720327E5,2.2025648E4,9.553444E3,7.7378296E3,9.920021E3,1.0638943E0,1.72321E1,1.9024776E1,1.6854622E1,5.3053936E1,1.698284E0,3.381567E2,1.6464061E3,1.940701E1,1.9891756E2,1.7618315E1,2.51544E1,2.5039993E1,1.8854578E2,2.3759499E2,1.1457573E2,5.474307E3,1.19613815E2,1.4265297E3,6.526038E2,3.513602E1,7.286433E2,2.6058256E4,1.3114502E5,6.2863495E2,2.1397014E4,3.3995464E3,6.1538984E3,1.246314E3,6.4915156E3,3.9090662E3,6.010955E3,1.1283376E0,1.5726285E1,5.110536E1,1.9485785E0],"tree_param":{"num_deleted":"0","num_feature":"127","num_nodes":"79","size_leaf_vector":"0"}},{"base_weights":[-2.7588685E-3,-1.9799197E-2,1.6301927E-1,-2.944036E-2,2.764389E-1,1.9860104E-1,-2.0164163E-1,-6.470055E-2,4.9142186E-2,8.942963E-1,1.5438125E-1,2.6724026E-1,4.507286E-2,-6.7586964E-1,1.9434294E-1,-7.9052806E-1,-5.9384048E-2,7.1754135E-2,-3.1554863E-1,-9.1922563E-1,1.1270367E0,-1.3250705E0,2.0237033E-1,2.3868674E-1,1.0659723E0,-1.1635914E-1,3.2223317E-1,-8.366036E-1,9.826235E-1,-1.8065827E-2,8.5437536E-1,-9.071362E-1,2.532322E-1,5.916612E-1,-6.5668285E-2,1.1439123E-1,-1.0640244E-1,-5.043914E-1,4.5740336E-1,-1.4634677E0,1.491928E0,1.198113E0,-1.9377218E0,-2.1844933E0,2.6868224E-1,-1.0372381E0,2.461918E-1,2.6737973E-1,-1.8927959E0,-1.7444972E0,1.2825384E0,-1.4921244E0,-6.1588895E-2,3.4020528E-1,-2.6830897E0,-9.4758785E-1,9.665314E-1,8.8660546E-2,6.986569E0,-7.596681E-1,3.4556535E-1,2.8636608E0,5.001342E-1,-1.1645052E0,-4.7520646E-1,1.44044E0,-1.4717747E0,-3.660321E-1,1.222538E0,-6.497603E-1,-5.557728E-2,8.648081E-1,1.0196708E-1,-6.039469E-1,3.011811E-4,-3.3967566E-1,-1.5338138E0,9.83373E-1,-7.754967E-1,-1.6978778E0,9.963434E-2,-9.7870713E-1,1.7635331E0,-1.0255197E0,1.232805E0,-1.1151379E0,-2.4310334E0,9.0325993E-1,-2.2401555E0,-1.8356898E0,-4.5943912E-2,1.2795821E0,1.9662045E-1,1.786545E-1,4.6209323E-1,-1.456727E0,-2.328062E0,-7.837442E-1,-1.8051592E0,1.3980861E0,-1.9160136E0,-1.9796022E0,6.718795E-1,1.6484848E0,-1.096017E-1,-2.0270646E0,3.5911766E-1,-2.9761574E0,-8.014318E-1,-1.1723995E0,9.1728516E-2,-1.2097281E0,1.0590113E0,-1.0653796E0,1.2948521E0,1.095975E1,-8.620696E-1,2.8319986E0,-1.0446793E0,5.0376093E-1,-7.055673E-1,1.2532085E0,7.9040546E0,7.347207E-1,-1.6589043E0],"categories":[],"categories_nodes":[],"categories_segments":[],"categories_sizes":[],"default_left":[1,1,1,1,1,1,1,1,1,1,1,1,1,1,1,1,1,1,1,1,1,1,1,1,1,1,1,1,1,1,1,1,1,1,1,1,1,1,1,1,1,1,0,1,1,1,1,1,1,1,1,1,1,1,1,1,1,1,1,1,1,1,1,0,0,0,0,0,0,0,0,0,0,0,0,0,0,0,0,0,0,0,0,0,0,0,0,0,0,0,0,0,0,0,0,0,0,0,0,0,0,0,0,0,0,0,0,0,0,0,0,0,0,0,0,0,0,0,0,0,0,0,0,0,0],"id":13,"left_children":[1,3,5,7,9,11,13,15,17,19,21,23,25,27,29,31,33,35,37,39,41,43,45,47,49,51,53,55,57,59,61,63,65,67,69,71,73,75,77,79,81,83,-1,85,87,89,91,93,95,97,99,101,103,105,107,109,111,113,115,117,119,121,123,-1,-1,-1,-1,-1,-1,-1,-1,-1,-1,-1,-1,-1,-1,-1,-1,-1,-1,-1,-1,-1,-1,-1,-1,-1,-1,-1,-1,-1,-1,-1,-1,-1,-1,-1,-1,-1,-1,-1,-1,-1,-1,-1,-1,-1,-1,-1,-1,-1,-1,-1,-1,-1,-1,-1,-1,-1,-1,-1,-1,-1,-1],"loss_changes":[6.1102026E2,5.601882E2,2.6163245E2,5.2633655E2,4.6608823E2,1.935617E2,3.3679657E2,5.0593127E2,4.8519562E2,4.3139636E2,3.6687012E2,2.89245E2,2.5401236E2,2.1835538E2,1.3709647E2,1.16264465E2,5.3260114E2,4.2083932E2,5.0164578E2,1.5508884E2,1.992627E2,2.2297522E2,2.7198358E2,7.501167E2,2.6872342E2,2.7025296E2,1.1377403E2,1.4989874E2,3.8882245E2,2.0000734E2,1.680228E2,9.4801575E1,1.9992548E2,7.523854E2,7.598583E2,4.1668848E2,5.6799896E2,4.6766492E2,4.384748E2,3.5186172E1,1.645716E1,6.947534E1,0E0,2.5126923E1,9.3997635E1,1.352527E2,2.4728732E2,2.088689E2,2.7533264E1,4.3550873E-1,1.5313013E2,1.461912E2,2.835664E2,9.3762375E1,4.526726E0,1.6408533E2,1.0068306E1,9.070035E1,3.0228598E2,2.5274287E2,8.31139E1,2.7802097E2,1.0434062E2,0E0,0E0,0E0,0E0,0E0,0E0,0E0,0E0,0E0,0E0,0E0,0E0,0E0,0E0,0E0,0E0,0E0,0E0,0E0,0E0,0E0,0E0,0E0,0E0,0E0,0E0,0E0,0E0,0E0,0E0,0E0,0E0,0E0,0E0,0E0,0E0,0E0,0E0,0E0,0E0,0E0,0E0,0E0,0E0,0E0,0E0,0E0,0E0,0E0,0E0,0E0,0E0,0E0,0E0,0E0,0E0,0E0,0E0,0E0,0E0,0E0,0E0],"parents":[2147483647,0,0,1,1,2,2,3,3,4,4,5,5,6,6,7,7,8,8,9,9,10,10,11,11,12,12,13,13,14,14,15,15,16,16,17,17,18,18,19,19,20,20,21,21,22,22,23,23,24,24,25,25,26,26,27,27,28,28,29,29,30,30,31,31,32,32,33,33,34,34,35,35,36,36,37,37,38,38,39,39,40,40,41,41,43,43,44,44,45,45,46,46,47,47,48,48,49,49,50,50,51,51,52,52,53,53,54,54,55,55,56,56,57,57,58,58,59,59,60,60,61,61,62,62],"right_children":[2,4,6,8,10,12,14,16,18,20,22,24,26,28,30,32,34,36,38,40,42,44,46,48,50,52,54,56,58,60,62,64,66,68,70,72,74,76,78,80,82,84,-1,86,88,90,92,94,96,98,100,102,104,106,108,110,112,114,116,118,120,122,124,-1,-1,-1,-1,-1,-1,-1,-1,-1,-1,-1,-1,-1,-1,-1,-1,-1,-1,-1,-1,-1,-1,-1,-1,-1,-1,-1,-1,-1,-1,-1,-1,-1,-1,-1,-1,-1,-1,-1,-1,-1,-1,-1,-1,-1,-1,-1,-1,-1,-1,-1,-1,-1,-1,-1,-1,-1,-1,-1,-1,-1,-1],"split_conditions":[1.25E-1,2.0109E5,5E-1,2.885E3,1.045E2,2.895E2,3.75E1,1.65E1,5E-1,4.7E1,3.5645E3,5.5E0,5.91E2,5E-1,8.1428576E-1,2.2954E4,4.565E2,1.5E0,7.1045E3,8.636364E-1,5E-1,5.958333E-1,4.3E1,3.5E0,2.595E2,7.6935E3,1.35242E5,5E-1,1.59165E4,2.445E2,2.3E1,4.1E1,2.37865E4,4.475E2,2.25E1,3.064E3,4.294E3,6.5355E3,2.845E2,5E-1,4.05E1,5E-1,-5.813166E-1,3.8E1,5.9E1,3.2692307E-1,1.46E2,1.5E0,5.2585E3,3.1E1,2.4639425E-1,5E-1,7.7065E3,7.3295E3,5E-1,5E-1,2.04417E5,6.25E1,1.7712E4,1.35E1,2.9198E4,3.98E2,4.55E1,-3.4935158E-1,-1.4256194E-1,4.3213204E-1,-4.4153243E-1,-1.0980963E-1,3.6676142E-1,-1.949281E-1,-1.6673185E-2,2.5944245E-1,3.0590126E-2,-1.8118408E-1,9.035433E-5,-1.019027E-1,-4.6014416E-1,2.950119E-1,-2.3264903E-1,-5.0936335E-1,2.9890304E-2,-2.9361215E-1,5.2905995E-1,-3.0765593E-1,3.6984152E-1,-3.3454138E-1,-7.2931004E-1,2.70978E-1,-6.7204666E-1,-5.50707E-1,-1.3783175E-2,3.8387465E-1,5.898614E-2,5.3596355E-2,1.3862798E-1,-4.3701813E-1,-6.984186E-1,-2.3512328E-1,-5.415478E-1,4.1942585E-1,-5.748041E-1,-5.938807E-1,2.0156385E-1,4.9454546E-1,-3.288051E-2,-6.0811937E-1,1.077353E-1,-8.9284724E-1,-2.4042954E-1,-3.5171986E-1,2.7518556E-2,-3.6291844E-1,3.1770343E-1,-3.196139E-1,3.8845566E-1,3.2879252E0,-2.586209E-1,8.495996E-1,-3.134038E-1,1.5112829E-1,-2.116702E-1,3.759626E-1,2.3712165E0,2.2041622E-1,-4.976713E-1],"split_indices":[104,126,12,125,5,5,4,5,82,5,6,0,125,75,109,126,6,0,6,106,84,112,3,0,5,6,125,46,125,5,2,2,126,6,5,125,6,6,5,22,5,62,0,2,2,107,5,0,6,2,104,67,6,6,60,98,125,3,125,5,6,125,3,0,0,0,0,0,0,0,0,0,0,0,0,0,0,0,0,0,0,0,0,0,0,0,0,0,0,0,0,0,0,0,0,0,0,0,0,0,0,0,0,0,0,0,0,0,0,0,0,0,0,0,0,0,0,0,0,0,0,0,0,0,0],"split_type":[0,0,0,0,0,0,0,0,0,0,0,0,0,0,0,0,0,0,0,0,0,0,0,0,0,0,0,0,0,0,0,0,0,0,0,0,0,0,0,0,0,0,0,0,0,0,0,0,0,0,0,0,0,0,0,0,0,0,0,0,0,0,0,0,0,0,0,0,0,0,0,0,0,0,0,0,0,0,0,0,0,0,0,0,0,0,0,0,0,0,0,0,0,0,0,0,0,0,0,0,0,0,0,0,0,0,0,0,0,0,0,0,0,0,0,0,0,0,0,0,0,0,0,0,0],"sum_hessian":[2.1629481E5,1.9613498E5,2.0159828E4,1.8995378E5,6.181205E3,1.8368023E4,1.7918037E3,1.3112006E5,5.8833727E4,1.01861865E3,5.1625864E3,1.2692661E4,5.675363E3,8.15027E2,9.7677673E2,9.523632E2,1.30167695E5,5.5399586E4,3.434141E3,1.1552147E2,9.030972E2,1.613619E2,5.0012246E3,1.2255831E4,4.368296E2,3.5868074E3,2.0885557E3,7.434688E2,7.155819E1,7.397017E2,2.3707498E2,8.5677576E2,9.558745E1,1.2435461E3,1.2892415E5,4.4701754E4,1.0697831E4,2.760147E3,6.7399426E2,9.456862E1,2.0952848E1,8.83223E2,1.9874195E1,1.0459105E2,5.6770832E1,1.6998796E2,4.831237E3,1.2093903E4,1.6192769E2,3.0747759E1,4.0608182E2,1.3632164E2,3.4504856E3,2.0770215E3,1.15339985E1,7.0080804E2,4.2660774E1,6.3167564E1,8.390626E0,2.4300981E2,4.9669193E2,3.447065E1,2.0260434E2,5.358117E2,3.2096405E2,5.6717514E1,3.8869934E1,4.940224E2,7.4952374E2,2.1884407E3,1.267357E5,7.269257E2,4.397483E4,1.8882974E3,8.809534E3,2.3805671E3,3.7957965E2,4.7258594E2,2.0140831E2,8.2161125E1,1.2407493E1,1.817419E0,1.913543E1,1.3129196E1,8.700938E2,2.0630484E1,8.396057E1,4.5820984E1,1.0949849E1,9.368017E1,7.630779E1,2.2000867E2,4.611228E3,8.30945E3,3.7844539E3,8.306062E1,7.8867065E1,2.6528144E0,2.8094944E1,3.9246686E2,1.3614955E1,1.1132831E2,2.4993332E1,9.332134E1,3.3571643E3,1.5620449E1,2.0614011E3,9.476386E0,2.057613E0,5.7607153E2,1.2473651E2,1.2465163E0,4.1414257E1,3.2341316E1,3.082625E1,5.3074636E0,3.0831623E0,1.720894E1,2.2580087E2,4.321709E2,6.452102E1,2.7070126E1,7.4005218E0,1.833432E2,1.9261131E1],"tree_param":{"num_deleted":"0","num_feature":"127","num_nodes":"125","size_leaf_vector":"0"}},{"base_weights":[-2.2443049E-3,7.404514E-2,-3.2777898E-2,-2.5678113E-1,9.1321245E-2,-2.5984025E-2,-4.436185E-1,-5.523951E-1,1.051296E-1,9.452392E-2,-1.4800006E0,-6.090028E-2,8.7073006E-2,-6.4038116E-1,4.748753E-1,7.7844507E-1,-6.8474835E-1,-8.951697E-1,2.2722712E-1,-1.964965E-1,1.1141147E-1,-1.254057E0,-1.625216E0,-3.98625E-1,-3.0586004E-2,1.7195223E-1,-5.856701E-2,-8.562185E-1,-6.518864E-2,6.715668E-1,-1.7298529E0,-1.2783631E0,1.4690217E0,-8.358336E-2,-1.1548511E0,-1.197773E0,7.6912946E-1,6.9479084E-1,-5.829403E-2,-1.01962596E-1,-1.0377446E0,1.3821474E-1,-1.179256E-1,-4.876966E-1,7.441519E-1,1.2098746E0,-3.7231736E-2,1.8493819E-1,-1.2003378E0,-1.2031338E0,-2.9792422E-2,-1.1008376E0,-3.0486688E-1,4.707107E0,-2.907109E-1,-1.2521559E0,8.1992817E-1,-2.4715474E0,-1.0975109E0,2.2738216E0,-1.0251816E-1,4.4549397E-1,-6.8164974E-1,-3.866457E-1,-1.4654092E0,-1.5129983E0,3.7752724E-1,1.5523956E0,-1.9103525E0,-2.771405E-1,1.2133869E0,-1.8830193E0,8.0275E-2,-1.2184798E-1,3.747001E0,-2.1267638E0,-6.658229E-2,-3.048738E-1,1.4675657E-1,-1.3065071E0,-6.120502E-2,-5.7777417E-1,5.9034353E-1,-1.1892717E0,1.1515164E0,-1.0829749E0,2.0158875E0,-8.300002E-1,-3.0163186E-2,4.253728E-1,1.1248336E-1,-1.3698554E0,7.5962794E-1,1.0551858E-2,-7.821192E-1,-5.608035E-1,-1.2396569E0,2.4840787E-1,-8.96919E-1,5.105141E0,-7.556061E-1,-1.342611E0,3.0447742E-1,1.2678567E0,4.319272E-1],"categories":[],"categories_nodes":[],"categories_segments":[],"categories_sizes":[],"default_left":[1,1,1,1,1,1,1,1,1,1,1,1,1,1,1,1,1,1,1,1,1,0,0,1,1,1,1,1,1,1,1,0,1,1,1,1,1,1,1,1,1,1,1,1,1,1,1,1,0,1,1,1,1,1,1,0,1,0,0,0,0,0,0,0,0,0,0,0,0,0,0,0,0,0,0,0,0,0,0,0,0,0,0,0,0,0,0,0,0,0,0,0,0,0,0,0,0,0,0,0,0,0,0,0,0],"id":14,"left_children":[1,3,5,7,9,11,13,15,17,19,21,23,25,27,29,31,33,35,37,39,41,-1,-1,43,45,47,49,51,53,55,57,-1,59,61,63,65,67,69,71,73,75,77,79,81,83,85,87,89,-1,91,93,95,97,99,101,-1,103,-1,-1,-1,-1,-1,-1,-1,-1,-1,-1,-1,-1,-1,-1,-1,-1,-1,-1,-1,-1,-1,-1,-1,-1,-1,-1,-1,-1,-1,-1,-1,-1,-1,-1,-1,-1,-1,-1,-1,-1,-1,-1,-1,-1,-1,-1,-1,-1],"loss_changes":[5.0072372E2,3.5119138E2,4.2848373E2,3.263239E2,2.9400375E2,5.961622E2,4.5162396E2,2.9622296E2,1.6775978E2,2.864265E2,1.8609924E0,1.181292E3,4.4053125E2,2.5532996E2,1.9247266E2,2.1822491E2,4.3155963E2,7.61837E1,1.6337202E2,2.5410646E2,3.385952E2,0E0,0E0,9.677543E2,8.729182E2,4.014422E2,4.321334E2,2.0139526E2,6.0663116E2,1.1683002E2,1.4365639E1,0E0,1.4504408E2,2.1273215E2,2.0390247E2,6.3557663E1,5.2496693E1,2.3417825E2,1.9245087E2,2.2048538E2,3.412702E2,1.8669952E2,3.885335E2,8.565635E2,5.429259E2,1.0449932E3,5.901565E2,3.8850842E2,0E0,1.06337006E2,3.8855536E2,7.6946655E1,1.512489E2,5.9161926E1,3.3720255E2,0E0,6.502623E1,0E0,0E0,0E0,0E0,0E0,0E0,0E0,0E0,0E0,0E0,0E0,0E0,0E0,0E0,0E0,0E0,0E0,0E0,0E0,0E0,0E0,0E0,0E0,0E0,0E0,0E0,0E0,0E0,0E0,0E0,0E0,0E0,0E0,0E0,0E0,0E0,0E0,0E0,0E0,0E0,0E0,0E0,0E0,0E0,0E0,0E0,0E0,0E0],"parents":[2147483647,0,0,1,1,2,2,3,3,4,4,5,5,6,6,7,7,8,8,9,9,10,10,11,11,12,12,13,13,14,14,15,15,16,16,17,17,18,18,19,19,20,20,23,23,24,24,25,25,26,26,27,27,28,28,29,29,30,30,32,32,33,33,34,34,35,35,36,36,37,37,38,38,39,39,40,40,41,41,42,42,43,43,44,44,45,45,46,46,47,47,49,49,50,50,51,51,52,52,53,53,54,54,56,56],"right_children":[2,4,6,8,10,12,14,16,18,20,22,24,26,28,30,32,34,36,38,40,42,-1,-1,44,46,48,50,52,54,56,58,-1,60,62,64,66,68,70,72,74,76,78,80,82,84,86,88,90,-1,92,94,96,98,100,102,-1,104,-1,-1,-1,-1,-1,-1,-1,-1,-1,-1,-1,-1,-1,-1,-1,-1,-1,-1,-1,-1,-1,-1,-1,-1,-1,-1,-1,-1,-1,-1,-1,-1,-1,-1,-1,-1,-1,-1,-1,-1,-1,-1,-1,-1,-1,-1,-1,-1],"split_conditions":[6.7142856E-1,1.4649244E-1,1.1E1,5E-1,8.5E0,5E-1,2.359E3,2.45E1,5E-1,1.4285714E-2,3.9E1,1.7605E3,5E-1,1.735E3,2.5E0,6.3085E3,5E-1,2.54995E4,1.875E2,2.5E0,5E-1,-3.7621713E-1,-4.8756483E-1,5E-1,1.835E3,4.5E0,1.55E1,3.6057695E-3,1.769E3,7.6525E3,3.5E0,-3.8350895E-1,6.4955E3,4.45E1,2.0625E3,2.0837E4,5.225E2,5E-1,6.221E3,5E-1,5E-1,5E-1,6.59E2,7.6323E4,3.1E1,4.5555556E-1,2.0525E3,1.0416667E-1,-3.6010134E-1,1.9110578E-1,4.45E1,2.1E1,2.8846154E-2,2.875E-1,4.1E1,-3.756468E-1,2.5625E3,-7.4146426E-1,-3.292533E-1,6.821465E-1,-3.0755451E-2,1.336482E-1,-2.0449494E-1,-1.15993716E-1,-4.3962276E-1,-4.5389953E-1,1.13258176E-1,4.657187E-1,-5.7310575E-1,-8.3142154E-2,3.640161E-1,-5.649058E-1,2.40825E-2,-3.6554396E-2,1.1241003E0,-6.3802916E-1,-1.9974688E-2,-9.146214E-2,4.4026975E-2,-3.9195216E-1,-1.8361507E-2,-1.7333226E-1,1.7710307E-1,-3.567815E-1,3.4545493E-1,-3.248925E-1,6.0476625E-1,-2.4900007E-1,-9.048956E-3,1.2761185E-1,3.374501E-2,-4.1095665E-1,2.2788839E-1,3.1655575E-3,-2.3463577E-1,-1.6824105E-1,-3.718971E-1,7.452236E-2,-2.6907572E-1,1.5315424E0,-2.2668184E-1,-4.027833E-1,9.134323E-2,3.8035703E-1,1.2957817E-1],"split_indices":[109,103,1,21,0,92,1,3,15,109,2,6,23,125,0,6,73,6,5,0,19,0,0,14,6,0,2,104,125,6,0,0,6,2,6,126,5,90,6,65,23,62,6,126,3,112,6,108,0,104,2,2,104,112,2,0,1,0,0,0,0,0,0,0,0,0,0,0,0,0,0,0,0,0,0,0,0,0,0,0,0,0,0,0,0,0,0,0,0,0,0,0,0,0,0,0,0,0,0,0,0,0,0,0,0],"split_type":[0,0,0,0,0,0,0,0,0,0,0,0,0,0,0,0,0,0,0,0,0,0,0,0,0,0,0,0,0,0,0,0,0,0,0,0,0,0,0,0,0,0,0,0,0,0,0,0,0,0,0,0,0,0,0,0,0,0,0,0,0,0,0,0,0,0,0,0,0,0,0,0,0,0,0,0,0,0,0,0,0,0,0,0,0,0,0,0,0,0,0,0,0,0,0,0,0,0,0,0,0,0,0,0,0],"sum_hessian":[2.1495706E5,6.1441508E4,1.5351556E5,3.0486167E3,5.839289E4,1.510193E5,2.49627E3,1.6777113E3,1.3709054E3,5.8275055E4,1.1783685E2,1.1538464E5,3.563465E4,2.056107E3,4.4016302E2,1.513159E2,1.5263954E3,1.4844221E2,1.2224631E3,3.1955742E3,5.507948E4,4.9873505E1,6.796335E1,9.502889E3,1.0588176E5,2.2513541E4,1.3121108E4,1.4947305E3,5.613766E2,4.047493E2,3.5413704E1,3.7820488E1,1.13495415E2,6.703426E2,8.560528E2,1.2584192E2,2.2600298E1,4.6293564E2,7.595275E2,2.873761E3,3.2181308E2,4.9316156E4,5.7633223E3,8.816292E3,6.865961E2,5.632709E2,1.05318484E5,2.230335E4,2.1019092E2,3.207763E2,1.2800332E4,1.034677E3,4.600534E2,2.4434933E1,5.3694165E2,2.844738E1,3.7630194E2,1.4959113E1,2.0454592E1,7.476215E1,3.8733257E1,3.5582147E2,3.1452112E2,2.4708969E2,6.0896313E2,1.0489205E2,2.0949865E1,1.7813648E1,4.7866497E0,1.6123021E2,3.017054E2,5.271881E1,7.068087E2,2.8599536E3,1.3807396E1,1.5114062E2,1.7067245E2,9.3207587E2,4.8384082E4,2.6150217E2,5.50182E3,8.136866E3,6.794262E2,1.1915348E2,5.674427E2,1.4641713E2,4.1685373E2,9.297223E2,1.04388766E5,5.1635894E3,1.713976E4,2.959405E2,2.48358E1,1.2149774E4,6.5055786E2,2.1261272E2,8.220643E2,2.3811476E2,2.2193864E2,2.2836437E1,1.5984939E0,1.935743E2,3.4336734E2,1.7360992E2,2.02692E2],"tree_param":{"num_deleted":"0","num_feature":"127","num_nodes":"105","size_leaf_vector":"0"}},{"base_weights":[-2.5200273E-3,1.0150321E-3,-5.847509E-1,3.4943104E-3,-8.060208E-1,-7.9410386E-1,3.522651E-1,4.9839127E-3,-1.232278E0,-9.7952485E-1,2.5420934E-1,-9.969428E-2,-9.59622E-1,1.6779757E0,-4.040974E-1,1.4049147E-2,-1.9473356E-1,-1.0436546E0,1.2936996E-1,-9.8060423E-1,4.716224E-1,5.914493E-1,-1.1632702E0,-2.6044769E-3,-1.019858E0,-1.0977436E0,1.8886985E0,9.28693E-1,-1.1457756E0,-7.5802594E-1,1.6664552E-2,2.2106779E-1,-2.895244E-1,-9.811236E-1,1.0177062E0,7.321099E-1,-3.2364556E-1,-1.1812891E0,1.1697894E0,-1.1329385E0,1.6089772E0,-1.1819222E0,-6.5247875E-1,1.9644505E0,-9.261778E-1,1.4188422E0,-1.1279984E0,-1.1844901E0,-2.872685E-1,1.3488648E0,1.3179455E-2,-3.5181656E-2,8.692026E-1,-1.0565592E0,-2.2153957E-1,1.172678E0,-7.050128E-1,-1.0764893E0,8.357622E-1,4.1002163E-1,-1.2335596E0,1.5541718E0,-1.0330526E0,-6.891291E-1,1.7668945E0,-1.1681151E0,-2.532608E0,-9.09049E-1,1.0922537E0,2.0139916E0,-8.9764154E-1,-1.1021403E0,1.670168E0],"categories":[],"categories_nodes":[],"categories_segments":[],"categories_sizes":[],"default_left":[1,1,1,1,1,1,1,1,0,1,1,1,1,1,1,1,1,0,1,0,1,1,0,1,1,0,1,1,0,1,1,1,1,0,1,1,1,0,1,0,1,1,1,1,0,1,0,0,0,0,0,0,0,0,0,0,0,0,0,0,0,0,0,0,0,0,0,0,0,0,0,0,0],"id":15,"left_children":[1,3,5,7,9,11,13,15,-1,17,19,21,23,25,27,29,31,-1,33,-1,35,37,-1,39,41,-1,43,45,-1,47,49,51,53,-1,55,57,59,-1,61,-1,63,65,67,69,-1,71,-1,-1,-1,-1,-1,-1,-1,-1,-1,-1,-1,-1,-1,-1,-1,-1,-1,-1,-1,-1,-1,-1,-1,-1,-1,-1,-1],"loss_changes":[4.3894006E2,4.2413776E2,2.5275113E2,3.8901953E2,1.1967496E2,1.20851685E2,2.3705078E2,3.8214914E2,0E0,3.9824707E1,2.5186796E1,1.5039502E2,4.8975952E1,5.2275513E1,1.5023163E2,4.0772742E2,3.6128644E2,0E0,3.1976698E1,0E0,1.6598837E1,1.2862085E2,0E0,9.529566E1,4.6819397E1,0E0,1.890805E1,5.6545258E1,0E0,1.365152E2,9.342599E2,2.8270572E2,3.8897815E2,0E0,5.615484E0,1.2110481E1,1.3978081E1,0E0,8.126587E1,0E0,9.044331E0,7.3621216E0,1.1151933E2,1.2918762E1,0E0,3.0008484E1,0E0,0E0,0E0,0E0,0E0,0E0,0E0,0E0,0E0,0E0,0E0,0E0,0E0,0E0,0E0,0E0,0E0,0E0,0E0,0E0,0E0,0E0,0E0,0E0,0E0,0E0,0E0],"parents":[2147483647,0,0,1,1,2,2,3,3,4,4,5,5,6,6,7,7,9,9,10,10,11,11,12,12,13,13,14,14,15,15,16,16,18,18,20,20,21,21,23,23,24,24,26,26,27,27,29,29,30,30,31,31,32,32,34,34,35,35,36,36,38,38,40,40,41,41,42,42,43,43,45,45],"right_children":[2,4,6,8,10,12,14,16,-1,18,20,22,24,26,28,30,32,-1,34,-1,36,38,-1,40,42,-1,44,46,-1,48,50,52,54,-1,56,58,60,-1,62,-1,64,66,68,70,-1,72,-1,-1,-1,-1,-1,-1,-1,-1,-1,-1,-1,-1,-1,-1,-1,-1,-1,-1,-1,-1,-1,-1,-1,-1,-1,-1,-1],"split_conditions":[5E-1,5E-1,1.5945E3,5E-1,4.75E1,1.3461539E-1,1.7705E3,9E-1,-3.696834E-1,5E-1,3.927098E-1,7.8571427E-1,5.7142857E-2,3.0128205E-1,1.3461539E-1,3.955E2,4.65E1,-3.1309637E-1,1.5079366E-1,-2.941813E-1,7.8571427E-1,3.55E1,-3.4898108E-1,2.5E0,3.402778E-1,-3.293231E-1,3.7820512E-1,7.8571427E-1,-3.4373268E-1,4.3E1,4.055E2,4.9E1,2.9695E3,-2.943371E-1,5.4E1,1.2857144E-1,3.9393938E-1,-3.5438675E-1,5E-1,-3.3988157E-1,1.0767E4,5E1,1.8181819E-1,5.5277777E-1,-2.7785334E-1,1.045E2,-3.3839953E-1,-3.5534704E-1,-8.618055E-2,4.0465945E-1,3.953837E-3,-1.0554497E-2,2.6076078E-1,-3.169678E-1,-6.6461876E-2,3.5180342E-1,-2.1150385E-1,-3.2294682E-1,2.5072867E-1,1.2300649E-1,-3.700679E-1,4.6625155E-1,-3.0991578E-1,-2.0673874E-1,5.3006834E-1,-3.5043454E-1,-7.5978243E-1,-2.727147E-1,3.2767612E-1,6.041975E-1,-2.6929247E-1,-3.306421E-1,5.010504E-1],"split_indices":[40,53,126,8,4,107,126,110,0,75,103,109,110,107,107,6,5,0,105,0,109,3,0,0,108,0,107,109,0,2,6,2,6,0,5,110,111,0,77,0,6,2,106,112,0,5,0,0,0,0,0,0,0,0,0,0,0,0,0,0,0,0,0,0,0,0,0,0,0,0,0,0,0],"split_type":[0,0,0,0,0,0,0,0,0,0,0,0,0,0,0,0,0,0,0,0,0,0,0,0,0,0,0,0,0,0,0,0,0,0,0,0,0,0,0,0,0,0,0,0,0,0,0,0,0,0,0,0,0,0,0,0,0,0,0,0,0,0,0,0,0,0,0,0,0,0,0,0,0],"sum_hessian":[2.1326064E5,2.1197462E5,1.286022E3,2.113264E5,6.482159E2,1.0512898E3,2.3473207E2,2.1107298E5,2.5343178E2,5.571206E2,9.109527E1,2.026598E2,8.4863007E2,8.482936E1,1.4990273E2,2.0190919E5,9.163788E3,5.267182E2,3.0402393E1,1.3112355E1,7.798291E1,1.2310584E2,7.955396E1,5.0312847E1,7.983172E2,5.6885257E0,7.914083E1,5.3504093E1,9.639863E1,6.806829E2,2.012285E5,1.7009991E3,7.4627886E3,1.3465259E1,1.6937136E1,5.880194E1,1.9180973E1,3.0026266E1,9.307958E1,2.974632E1,2.0566525E1,5.524115E2,2.4590567E2,7.736106E1,1.779771E0,4.345747E1,1.0046621E1,3.5634766E2,3.2433527E2,5.240421E2,2.0070447E5,1.2197136E3,4.812856E2,6.0641437E2,6.8563745E3,1.5832193E1,1.1049416E0,2.6785803E0,5.612336E1,1.0923056E1,8.257918E0,7.9501526E1,1.3578054E1,1.1060958E0,1.946043E1,5.486678E2,3.7437618E0,2.1479774E2,3.1107927E1,7.633605E1,1.0250077E0,3.6327746E0,3.9824696E1],"tree_param":{"num_deleted":"0","num_feature":"127","num_nodes":"73","size_leaf_vector":"0"}},{"base_weights":[-2.2303944E-3,-1.7581344E-2,1.1104216E-1,-1.5644608E-2,-2.4522238E0,-2.706501E-1,1.7712261E-1,-3.0440634E-2,1.2227233E-1,-2.4848828E0,-1.6004381E0,1.2726678E-1,-1.1655724E0,1.8995386E-1,-1.7163923E0,-1.6958611E-2,-3.6172345E-1,6.756957E-2,5.864629E-1,-1.864928E0,-2.5411437E0,3.9245245E-1,-1.2767551E0,-1.6266443E0,-6.5291536E-1,1.19902596E-1,5.392733E-1,-1.1686274E0,-3.214462E0,-2.9455474E-2,2.1672371E-1,-2.7496022E-1,-1.3822825E0,-1.438825E0,7.967941E-2,7.177896E-1,-1.9071825E0,-2.0511678E-1,6.6549635E-1,-1.1882111E0,-1.7980669E0,-1.3808053E0,-2.2765317E0,8.6684513E-1,-9.903041E-1,8.154546E-1,7.7312216E-2,-1.5339255E0,6.324652E-1,-2.4010671E-2,-1.6879966E0,2.6869065E-1,-1.4654467E0,-8.9275295E-1,-6.73822E-2,-1.6806849E0,1.3415673E-1,-1.5999463E0,-1.282568E0,9.846536E-1,5.38326E-2,7.8113246E-1,-3.2698956E0,-2.525661E0,-1.1998084E0,-7.4578017E-1,7.063119E-1,7.654743E-1,-1.762629E0,-1.5254496E0,-7.40615E-2,-2.1366339E0,-3.9467196E0,-1.5816964E0,1.2578444E0,-4.532173E-1,-1.718807E0,-1.5355966E0,8.896819E-1,-1.6135007E0,9.932988E-2,-1.4666799E0,-2.0418587E0,-1.0849751E0,7.250917E-1],"categories":[],"categories_nodes":[],"categories_segments":[],"categories_sizes":[],"default_left":[1,1,1,1,1,1,1,1,1,1,0,1,1,1,1,1,1,1,1,0,0,1,1,1,1,1,1,0,0,1,1,1,1,1,1,1,1,1,1,0,0,1,1,1,1,1,1,1,1,0,0,0,0,0,0,0,0,0,0,0,0,0,0,0,0,0,0,0,0,0,0,0,0,0,0,0,0,0,0,0,0,0,0,0,0],"id":16,"left_children":[1,3,5,7,9,11,13,15,17,19,-1,21,23,25,27,29,31,33,35,-1,-1,37,39,41,43,45,47,-1,-1,49,51,53,55,57,59,61,63,65,67,-1,-1,69,71,73,75,77,79,81,83,-1,-1,-1,-1,-1,-1,-1,-1,-1,-1,-1,-1,-1,-1,-1,-1,-1,-1,-1,-1,-1,-1,-1,-1,-1,-1,-1,-1,-1,-1,-1,-1,-1,-1,-1,-1],"loss_changes":[3.6968497E2,8.828006E2,6.4003784E2,3.817683E2,1.628418E-1,1.3337488E3,5.258502E2,7.54618E2,4.602302E2,1.9671631E-1,0E0,9.660268E2,2.714143E2,5.256845E2,1.1579239E2,4.7411993E2,5.8465155E2,2.9593802E2,6.271121E2,0E0,0E0,